{"version":"0.5.4","metadata":{"date":{"year":2024,"month":11,"day":16,"hour":21,"minute":18,"second":49},"loudness":-8.640249252319336,"gain":0.6220224318815686,"name":"BossSD1","modeled_by":"oliphant","gear_type":"pedal","gear_make":"tz-make","gear_model":"tz-model","tone_type":"overdrive","input_level_dbu":null,"output_level_dbu":null,"training":{"settings":{"ignore_checks":true},"data":{"latency":{"manual":null,"calibration":{"algorithm_version":1,"delays":[0],"safety_factor":1,"recommended":-1,"warnings":{"matches_lookahead":false,"disagreement_too_high":false}}},"checks":{"version":4,"passed":false}},"validation_esr":0.000281737043711063}},"architecture":"WaveNet","config":{"layers":[{"input_size":1,"condition_size":1,"head_size":8,"channels":16,"kernel_size":3,"dilations":[1,2,4,8,16,32,64,128,256,512],"activation":"Tanh","gated":false,"head_bias":false},{"input_size":16,"condition_size":1,"head_size":1,"channels":8,"kernel_size":3,"dilations":[1,2,4,8,16,32,64,128,256,512],"activation":"Tanh","gated":false,"head_bias":true}],"head":null,"head_scale":0.02},"weights":[-0.044289037585258484,0.3541778326034546,-0.919826328754425,-0.8737995624542236,-0.4171980023384094,0.21197204291820526,-0.0017552204662933946,0.8561517596244812,-0.11566721647977829,0.3567756712436676,-0.32522162795066833,0.0058881863951683044,-1.0666226148605347,-0.7625977396965027,-0.5300219655036926,0.04712061956524849,0.12744885683059692,0.05878258869051933,-0.14490459859371185,-0.14659510552883148,0.06185934320092201,0.16592493653297424,0.05416117608547211,0.10282327979803085,-0.07488260418176651,0.1034645065665245,0.12525291740894318,-0.18546128273010254,-0.001195291755720973,-0.037664320319890976,-0.10233389586210251,0.043258145451545715,-0.08896410465240479,-0.022536516189575195,-0.06865322589874268,-0.15913666784763336,-0.07700350880622864,0.03763333335518837,0.0681336522102356,0.11912509799003601,0.10900527983903885,-0.05788131058216095,-0.0035772963892668486,-0.22498099505901337,-0.10585812479257584,-0.02957904152572155,0.17708934843540192,0.08636081218719482,-0.10744118690490723,0.04091167822480202,0.036568447947502136,0.0961352065205574,0.1433238834142685,0.01493720430880785,0.04659390076994896,0.002842355752363801,0.024232380092144012,-0.1606437712907791,-0.008261256851255894,-0.07441511005163193,0.017195260152220726,-0.060688916593790054,-0.108726866543293,0.08583427965641022,0.16599422693252563,-0.046307776123285294,-0.03293026238679886,-0.08031077682971954,0.1271074116230011,0.18861046433448792,0.013798347674310207,-0.10152417421340942,0.007022833917289972,0.245772585272789,0.07663851231336594,0.07538281381130219,0.1513700634241104,-0.17354315519332886,-0.03855478763580322,-0.2066970020532608,-0.09318936616182327,0.17891916632652283,0.12711933255195618,-0.15736044943332672,-0.04154033958911896,-0.14901433885097504,0.02349117584526539,-0.015670258551836014,0.16613610088825226,-0.1408928483724594,-0.0062276870012283325,-0.05304219201207161,0.15339288115501404,0.10581690073013306,-0.025071149691939354,-0.14622457325458527,0.018993308767676353,0.08763255923986435,-0.07883241772651672,-0.10690922290086746,0.2615968883037567,0.04980584979057312,-0.11321379244327545,0.08881277590990067,-0.18582184612751007,-0.05326690897345543,0.017181098461151123,-0.16262386739253998,-0.06046712026000023,-0.12734264135360718,-0.018757596611976624,0.12245357036590576,-0.0011589460773393512,0.07607622444629669,0.14973659813404083,-0.1873358190059662,-0.0037314225919544697,-0.04640665650367737,0.07790049910545349,0.003742745378986001,0.10291001945734024,0.07548259198665619,-0.0989043116569519,0.12120117992162704,-0.07271650433540344,-0.11066953092813492,0.01802941784262657,-0.12725727260112762,-0.021909991279244423,-0.17000429332256317,0.019849834963679314,0.00826131459325552,-0.016601312905550003,-0.06837817281484604,0.1318616271018982,-0.06488636881113052,0.08230110257863998,-0.017662830650806427,0.10018012672662735,0.027517126873135567,0.15982791781425476,0.03614972531795502,0.1950916051864624,-0.03291916102170944,-0.07751419395208359,-0.0200122632086277,0.026146214455366135,0.018774349242448807,-0.01086021400988102,-0.13985466957092285,-0.08525152504444122,-0.05953873321413994,-0.05691957846283913,0.13002055883407593,0.14455875754356384,-0.16383664309978485,0.14294485747814178,-0.20264004170894623,-0.022447433322668076,-0.11463078111410141,-0.10019955039024353,0.10293447971343994,-0.1648777723312378,-0.0843917727470398,-0.1275547295808792,0.04318735748529434,-0.09706410020589828,0.16085021197795868,-0.16616351902484894,-0.04920976608991623,0.2330826222896576,-0.10018019378185272,0.0908527746796608,0.1529322862625122,-0.1737770438194275,0.1221534013748169,-0.11661674082279205,-0.023977309465408325,0.06706570088863373,-0.08190401643514633,-0.0615830272436142,0.004515247885137796,-0.001276178634725511,0.07976557314395905,0.015416700392961502,0.12915846705436707,-0.09657669812440872,0.008027389645576477,-0.21821607649326324,0.1237260177731514,0.07938962429761887,0.19472824037075043,-0.14589904248714447,-0.013474217616021633,0.0027344569098204374,-0.07637817412614822,-0.11875999718904495,0.15486569702625275,-0.1252547651529312,-0.03936374932527542,0.10997015982866287,0.05260579660534859,-0.1480434089899063,0.0026986910961568356,-0.1254417449235916,0.14748713374137878,-0.1407688856124878,0.15867847204208374,-0.02470548078417778,0.11286147683858871,0.04809408262372017,0.03659699112176895,-0.06571780145168304,-0.09386336803436279,-0.061992403119802475,0.09934946894645691,-0.04550476372241974,-0.14281995594501495,0.1981745958328247,-0.05120515823364258,-0.07795734703540802,0.2194870114326477,0.11357397586107254,0.06243664398789406,-0.20314696431159973,0.011531863361597061,-0.13068120181560516,0.027310408651828766,-0.03869355842471123,0.042368773370981216,-0.07793760299682617,0.054159700870513916,-0.06121435761451721,0.18629902601242065,0.13123662769794464,-0.024154862388968468,-0.009523418731987476,-0.16222673654556274,-0.12417157739400864,0.11473632603883743,0.106889508664608,0.06736249476671219,0.06118346378207207,0.06488490849733353,0.01066775992512703,-0.05908596143126488,0.1700832098722458,-0.18454255163669586,0.08077401667833328,0.03992963582277298,-0.14422602951526642,0.09566006809473038,0.18327364325523376,0.0417838878929615,-0.14263133704662323,-0.11184881627559662,-0.0960066169500351,0.06290020793676376,-0.027957722544670105,-0.11862807720899582,-0.08581260591745377,0.06703633069992065,0.09227395802736282,0.11531608551740646,0.058386433869600296,-0.024786751717329025,-0.0326262041926384,0.054486360400915146,0.14051702618598938,0.04746708646416664,-0.05515517294406891,-0.08125761896371841,-0.1386951208114624,0.017699919641017914,-0.08090195059776306,-0.15646077692508698,0.2064504474401474,-0.11175259947776794,-0.021684743463993073,0.032343536615371704,0.039999619126319885,-0.06979580223560333,-0.0815802812576294,0.09505879878997803,0.013927345164120197,0.10576028376817703,-0.02978740632534027,0.0540928840637207,-0.017642296850681305,0.022457189857959747,-0.13857440650463104,0.07098453491926193,0.06355145573616028,0.00192439544480294,-0.02371690794825554,-0.06984833627939224,0.10606837272644043,-0.09789417684078217,0.08134978264570236,-0.039431072771549225,-0.060092370957136154,0.0017427313141524792,-0.08510801941156387,0.04501395672559738,0.07099556177854538,-0.2138776332139969,0.04549350589513779,-0.030154669657349586,0.11355611681938171,-0.0623074509203434,-0.02892824448645115,-0.07542065531015396,0.09196498245000839,0.04576193913817406,0.0019675688818097115,0.14160431921482086,0.022259965538978577,-0.04697279632091522,0.10705678164958954,-0.0804484486579895,0.05869221314787865,-0.029399419203400612,-0.07864601165056229,-0.033869143575429916,0.14760906994342804,0.03600780665874481,0.13560399413108826,-0.025418348610401154,0.171412855386734,-0.10292400419712067,-0.06028264760971069,-0.22199779748916626,0.189149871468544,0.04150330275297165,-0.01120787113904953,0.011007032357156277,0.1561189442873001,0.20246456563472748,0.0419093482196331,0.11558994650840759,0.06074434518814087,-0.1023516058921814,0.16301876306533813,0.17559844255447388,-0.1374668926000595,0.1749117374420166,0.17015816271305084,0.03068568743765354,-0.04400038719177246,-0.10450387746095657,-0.030987923964858055,0.056159570813179016,-0.020471880212426186,0.05914274975657463,0.1090688705444336,0.09796010702848434,-0.0165618434548378,0.026574647054076195,-0.13883885741233826,0.00023210847575683147,-0.04908660054206848,-0.18169908225536346,-0.14910033345222473,0.163336843252182,0.03655152767896652,0.09942742437124252,0.15988418459892273,-0.09524865448474884,-0.06849897652864456,-0.0660284161567688,-0.07141070067882538,0.10749612003564835,-0.08520785719156265,-0.030653569847345352,-0.10525741428136826,-0.12813259661197662,0.06821619719266891,0.07202750444412231,0.13503682613372803,0.15402157604694366,0.16589123010635376,-0.08034670352935791,0.02256064862012863,0.09214411675930023,0.0903555229306221,0.13808411359786987,0.08285832405090332,0.1333000361919403,-0.09010594338178635,0.03530922532081604,0.06372303515672684,-0.07543651014566422,-0.11662617325782776,-0.03499312698841095,-0.15382720530033112,0.06059283763170242,0.14802367985248566,0.017449375241994858,-0.059861402958631516,0.059153519570827484,0.1631740778684616,-0.026202281937003136,-0.08231615275144577,0.08469433337450027,0.10160338878631592,-0.07740256190299988,0.17936383187770844,0.06808359175920486,-0.09091537445783615,0.12911084294319153,-0.12353118509054184,-0.05928623303771019,0.17031195759773254,-0.031883563846349716,-0.13469332456588745,-0.08958148956298828,0.0010726299369707704,0.0030770041048526764,0.04887862876057625,0.10454247891902924,0.050908081233501434,-0.1328393816947937,0.048407651484012604,0.10561621934175491,0.1345946341753006,-0.14709313213825226,-0.034255485981702805,-0.15322227776050568,-0.024933846667408943,0.083458811044693,-0.058656252920627594,0.020969204604625702,0.0947365015745163,0.05918274447321892,-0.17005479335784912,-0.08366016298532486,0.07486091554164886,-0.15193825960159302,0.03467147424817085,-0.08607205003499985,-0.1787201464176178,-0.17587004601955414,0.01927756704390049,0.05938516557216644,-0.17239636182785034,0.06274040043354034,-0.024606797844171524,0.1003188043832779,-0.0822732076048851,-0.13466669619083405,0.19287997484207153,0.22339880466461182,0.15151390433311462,-0.00360527983866632,-0.2524838149547577,0.11754349619150162,0.0851634070277214,-0.0894474983215332,-0.11735360324382782,0.041150130331516266,-0.29760512709617615,-0.05942204222083092,0.11068762838840485,0.0400223471224308,0.05706126615405083,0.006114469841122627,-0.03637363389134407,-0.1200408935546875,-0.054213616997003555,0.11344698816537857,0.06778911501169205,0.06461691856384277,-0.06004052236676216,-0.01071186177432537,0.13713338971138,0.017643986269831657,-0.12063302099704742,-0.012650832533836365,-0.2322234958410263,0.07027677446603775,-0.022872259840369225,-0.15145717561244965,-0.15583176910877228,0.11874203383922577,-0.1734100729227066,0.10693947970867157,0.16763003170490265,-0.07834113389253616,0.0010952128795906901,0.03393605723977089,-0.19176553189754486,0.016579993069171906,0.15161015093326569,0.09506835043430328,0.14920543134212494,-0.07406114041805267,-0.12052778154611588,-0.3924712836742401,0.15688832104206085,0.11212585866451263,0.10965008288621902,0.002387180458754301,0.09068004041910172,-0.15756194293498993,0.22451134026050568,-0.05501071736216545,-0.20162318646907806,0.16525660455226898,-0.019053585827350616,-0.1908133327960968,0.06653439253568649,0.07144642621278763,0.1910334974527359,-0.15769337117671967,0.10883928090333939,-0.009942370466887951,0.07660672813653946,-0.007014571689069271,0.3260008990764618,-0.11894878000020981,0.08079051971435547,-0.2486199140548706,0.17580607533454895,-0.12807023525238037,0.15268264710903168,-0.1849997490644455,0.15713618695735931,-0.2661438286304474,0.1117505431175232,-0.10699110478162766,-0.0836779773235321,0.14134898781776428,-0.08915913105010986,-0.3609550893306732,-0.004680922254920006,0.019977139309048653,-0.27973997592926025,0.010958565399050713,-0.028343921527266502,-0.21493543684482574,0.031383905559778214,0.0035778945311903954,0.20478741824626923,-0.1680065542459488,-0.02810298465192318,0.27037930488586426,-0.06613779067993164,0.060581009835004807,-0.1697084605693817,0.11483350396156311,-0.18756720423698425,-0.02415727823972702,0.17321456968784332,-0.1488489955663681,0.14350032806396484,0.016594860702753067,-0.08857202529907227,0.07713083177804947,0.1165761724114418,0.05777924880385399,-0.24798373878002167,-0.10910964012145996,-0.07880465686321259,0.13816404342651367,-0.1172628328204155,0.19015328586101532,-0.1445370763540268,-0.05425114929676056,0.04167261719703674,0.15996335446834564,0.1281280815601349,0.14183752238750458,-0.15047705173492432,-0.11817176640033722,-0.06413783878087997,0.2226410210132599,-0.02661760523915291,-0.151713564991951,0.1929638385772705,0.19882988929748535,-0.09487222880125046,-0.005873209796845913,-0.10197015106678009,-0.019155237823724747,0.10105054080486298,-0.04517403617501259,-0.030263908207416534,0.16483692824840546,0.14195674657821655,0.19525255262851715,-0.11412365734577179,-0.15505008399486542,-0.18989329040050507,-0.05709865316748619,0.08143795281648636,0.10614042729139328,0.033221714198589325,0.07559460401535034,0.09172525256872177,-0.02898942120373249,-0.059224147349596024,-0.09621843695640564,-0.2592179775238037,0.2016403079032898,-0.10080182552337646,-0.21957091987133026,0.14273889362812042,-0.028213048353791237,0.07616624236106873,-0.07703512161970139,-0.031669165939092636,-0.19382067024707794,0.17593485116958618,-0.022342870011925697,0.2070378214120865,0.06009227782487869,0.04051700979471207,-0.12202214449644089,0.19591593742370605,0.05663777515292168,0.08468654006719589,0.0656912624835968,-0.00748998811468482,-0.29224205017089844,0.025241486728191376,-0.16475273668766022,-0.018592072650790215,-0.019855668768286705,-0.17368561029434204,-0.16636721789836884,0.15577301383018494,-0.003526193555444479,-0.11053939908742905,0.07948248088359833,0.016251087188720703,-0.18896888196468353,0.011530714109539986,-0.14523954689502716,-0.003726738505065441,-0.04085121676325798,-0.2090468853712082,-0.09783085435628891,-0.021815743297338486,0.10243558883666992,-0.021207572892308235,0.14586275815963745,-0.1761770099401474,0.0531383641064167,-0.10934668034315109,-0.12931109964847565,0.010053623467683792,-0.05600038543343544,0.03053315170109272,-0.16456103324890137,-0.11682378500699997,0.01594485715031624,0.08486085385084152,0.12935763597488403,-0.11847483366727829,0.012366283684968948,-0.07019051164388657,0.05903380364179611,0.1704252064228058,-0.11769212782382965,-0.07884165644645691,0.06531157344579697,-0.023389199748635292,0.20081867277622223,0.01697198674082756,0.10715389251708984,-0.2305198311805725,-0.08402474969625473,-0.020535005256533623,-0.05112484470009804,-0.0366993248462677,0.029663456603884697,-0.11256749927997589,-0.07001971453428268,0.10475536435842514,-0.1305997669696808,0.06180799379944801,-0.0902828499674797,-0.10655802488327026,-0.07262933254241943,0.07226956635713577,0.16120068728923798,0.029591625556349754,-0.1596023589372635,0.16154183447360992,-0.10057386010885239,0.04264635592699051,-0.18590468168258667,0.1843450963497162,0.11442739516496658,0.11858293414115906,-0.2536613345146179,0.1333557814359665,0.0014051274629309773,-0.08052651584148407,0.04957494139671326,0.03875035047531128,-0.05811963975429535,-0.0981544703245163,-0.05956687778234482,0.0015350023750215769,-0.037455227226018906,0.036955576390028,0.11736481636762619,-0.08076546341180801,-0.01249539852142334,0.09443831443786621,-0.09870100766420364,-0.011520106345415115,-0.22938978672027588,0.18444566428661346,-0.14566586911678314,0.12279999256134033,0.004218500107526779,0.20590223371982574,0.007156887091696262,0.15678754448890686,-0.09067902714014053,0.0046769725158810616,-0.11053115129470825,0.023368559777736664,-0.0807204395532608,0.1662045419216156,-0.008220021612942219,-0.027171464636921883,-0.04264959692955017,0.0809909999370575,0.0021757306531071663,-0.0024613426066935062,-0.09756825119256973,-0.035262152552604675,0.12324158102273941,0.0022661529947072268,0.08850184082984924,0.05722547695040703,-0.11260958015918732,-0.2546328604221344,0.04333626478910446,0.12832117080688477,0.09752318263053894,0.03442667797207832,0.13372449576854706,0.23655404150485992,-0.11277278512716293,-0.00859329104423523,0.08841611444950104,-0.15590696036815643,-0.009955163113772869,-0.021222250536084175,0.1595054417848587,-0.01838238723576069,0.08377473801374435,-0.12739405035972595,0.09750960022211075,-0.19713501632213593,-0.06396055221557617,0.01298469491302967,0.19702661037445068,-0.18610870838165283,0.12327750027179718,-0.07958673685789108,-0.058810893446207047,-0.02378907799720764,0.2509080767631531,-0.15209399163722992,-0.005615552421659231,0.20004601776599884,-0.10530010610818863,0.09109088033437729,0.2134733945131302,0.05344458669424057,-0.08139757066965103,0.28067898750305176,-0.12259060889482498,0.15185333788394928,-0.0030068226624280214,-0.16719333827495575,0.09594094008207321,-0.11133468151092529,0.048611827194690704,-0.06086362153291702,-0.15556058287620544,-0.034850284457206726,-0.13147854804992676,0.04985646530985832,0.09027981758117676,-0.004891566000878811,0.02404850348830223,0.09491395205259323,0.1434452086687088,-0.03069535456597805,-0.03596986457705498,-0.08343802392482758,0.009722445160150528,-0.009236627258360386,-0.04031320661306381,0.4976906180381775,-0.3789992034435272,0.751400351524353,-0.6664924621582031,-0.0658145621418953,0.8941121697425842,0.9528400897979736,-0.6281086802482605,0.21876682341098785,0.04253317788243294,-0.5691524744033813,-0.3778730034828186,0.2081826627254486,-0.7012590765953064,0.13702642917633057,0.46502795815467834,-0.21586409211158752,0.23994585871696472,-0.014189299196004868,0.06718183308839798,0.2236064374446869,-0.2003793567419052,0.12145447731018066,0.03894421085715294,-0.0564160980284214,0.015287923626601696,0.24148622155189514,-0.07061855494976044,0.09503841400146484,0.08375687897205353,0.17070120573043823,-0.2509305775165558,-0.03235176205635071,-0.033059295266866684,-0.2621381878852844,0.12801866233348846,0.15921546518802643,-0.0965941771864891,-0.0959712415933609,0.10731814056634903,-0.06122022122144699,0.05351019650697708,-0.13204123079776764,0.10859571397304535,0.029453950002789497,-0.12433645874261856,-0.02688201330602169,0.3394268751144409,0.012202688492834568,0.14717915654182434,0.07684915512800217,0.15541242063045502,-0.14357426762580872,-0.13521894812583923,0.11574207246303558,-0.20579048991203308,0.029686277732253075,-0.149693563580513,0.2102816104888916,-0.2684987187385559,0.18084804713726044,0.1394321769475937,0.12402378022670746,-0.0030346151906996965,0.03317822143435478,-0.180591881275177,0.0054719592444598675,-0.31500667333602905,-0.021795209497213364,-0.0862186849117279,0.0077109504491090775,0.260620653629303,-0.1697886735200882,0.20475202798843384,0.24536845088005066,0.08242420852184296,0.22198434174060822,0.17197425663471222,0.053502488881349564,-0.3364849388599396,-0.19010238349437714,-0.4083230793476105,-0.18542374670505524,0.15318399667739868,0.22422927618026733,0.17887966334819794,0.1127844899892807,-0.02694869413971901,0.07760512828826904,0.41327187418937683,-0.1815831959247589,0.24100780487060547,0.044141851365566254,0.13264745473861694,-0.17263559997081757,0.043374985456466675,-0.20685407519340515,-0.04926174879074097,0.07273239642381668,0.06454075872898102,0.16866208612918854,0.23748083412647247,0.21846695244312286,0.13003453612327576,0.18093940615653992,-0.004216151311993599,-0.11712431907653809,-0.10025172680616379,-0.03445391729474068,-0.08750048279762268,0.01715671643614769,0.03127432242035866,0.06606613844633102,0.16704165935516357,0.16741596162319183,0.23520047962665558,-0.15829062461853027,-0.1758938729763031,0.05210613086819649,0.019004998728632927,0.028996001929044724,-0.385284423828125,-0.40096959471702576,0.21064086258411407,0.08537555485963821,-0.2564407289028168,-0.05405294895172119,0.0357285737991333,0.23756404221057892,0.0941876545548439,0.24999985098838806,-0.21415714919567108,-0.2611953914165497,0.18079379200935364,0.24669180810451508,0.05823309347033501,0.13746124505996704,-0.24732546508312225,0.15818825364112854,-0.25598934292793274,0.061079129576683044,-0.15371139347553253,-0.17703574895858765,0.10448282957077026,-0.09357497841119766,0.0730850026011467,-0.22038646042346954,-0.20711484551429749,0.10858111083507538,-0.07448156923055649,-0.1549648940563202,-0.08127031475305557,-0.1992897093296051,-0.27169522643089294,0.0931866392493248,0.10756886750459671,0.006728062871843576,-0.25311097502708435,0.07889777421951294,0.09843163937330246,-0.031126070767641068,-0.08925914019346237,0.37833651900291443,-0.3852121829986572,-0.41095447540283203,0.21047955751419067,0.3510632812976837,-0.34727203845977783,0.20015276968479156,0.3281109035015106,0.1929214894771576,-0.12377568334341049,0.36886683106422424,0.2018633782863617,-0.1502528190612793,-0.12244872003793716,0.14256270229816437,0.26241692900657654,-0.2396664023399353,0.1776088923215866,-0.010987075045704842,-0.18774214386940002,0.04066146910190582,-0.13654078543186188,0.02547575533390045,-0.20731553435325623,-0.33573877811431885,-0.014850097708404064,-0.13262028992176056,-0.015294821932911873,-0.054756712168455124,0.35555195808410645,0.09856531023979187,-0.1813143938779831,0.2166803628206253,-0.03941145911812782,0.010258730500936508,0.0075790537521243095,0.0535038560628891,-0.15022796392440796,0.03932853043079376,-0.0786077156662941,-0.004290377721190453,-0.25498586893081665,-0.01570289023220539,0.136821910738945,-0.290545791387558,-0.21100667119026184,-0.12217627465724945,0.06889697909355164,0.016178257763385773,0.07934842258691788,0.12844571471214294,-0.26240867376327515,-0.07826375961303711,0.22399842739105225,0.1731577068567276,-0.1016501858830452,-0.11950482428073883,0.10968635231256485,0.11975234746932983,-0.1892339587211609,-0.09345511347055435,0.11193922907114029,-0.06706498563289642,-0.1221710667014122,-0.19883812963962555,0.16778253018856049,-0.03647787123918533,0.11483985930681229,0.11556702107191086,0.11700905114412308,-0.06554313004016876,-0.19440598785877228,-0.08385280519723892,0.09152700752019882,-0.26748478412628174,-0.15642891824245453,-0.16522257030010223,0.2494945526123047,-0.23698854446411133,0.28148525953292847,-0.10962402820587158,-0.10132419317960739,0.157481387257576,-0.07597038894891739,0.09642565250396729,0.27234652638435364,-0.2879270017147064,0.10114897787570953,0.03289585933089256,-0.03295055776834488,0.1287587285041809,0.1746664047241211,-0.07800967246294022,-0.07325317710638046,0.2688959836959839,0.10691751539707184,0.2485058754682541,-0.10381698608398438,-0.21329931914806366,0.29492300748825073,0.13510839641094208,0.13218867778778076,-0.04673650115728378,-0.1691727340221405,-0.06457708775997162,-0.3035857677459717,0.07423010468482971,0.07600419968366623,-0.031374070793390274,0.026718534529209137,0.1035192683339119,-0.06986086070537567,0.1418585628271103,-0.11479277163743973,-0.10731375962495804,-0.05712507292628288,0.11774341017007828,-0.005560060031712055,0.05041540041565895,-0.1924247145652771,0.06330057233572006,0.00830662902444601,0.037109095603227615,0.16596338152885437,0.08734867721796036,-0.014921491034328938,-0.05972926691174507,-0.06378165632486343,-0.16806994378566742,0.06465276330709457,-0.08132454007863998,0.11810698360204697,-0.09229828417301178,0.05005655437707901,-0.11918715387582779,-0.029751861467957497,0.17582379281520844,-0.026848193258047104,0.05193005129694939,0.03517809137701988,0.1081787720322609,0.07297024130821228,-0.21488149464130402,0.21971367299556732,-0.17021068930625916,-0.1624627262353897,0.01386149413883686,-0.03812333941459656,-0.20516516268253326,-0.048696547746658325,-0.07042752206325531,0.10131148993968964,-0.22929416596889496,-0.13849036395549774,-0.0438401997089386,-0.054666969925165176,-0.14886073768138885,-0.02641301229596138,-0.06457285583019257,-0.12417059391736984,-0.18732976913452148,0.04874313995242119,-0.082163967192173,0.11744436621665955,-0.14788246154785156,-0.09989520162343979,0.11403120309114456,-0.14523032307624817,-0.0747530609369278,0.2229371964931488,-0.04689693823456764,0.09011998027563095,-0.1452787071466446,-0.018020745366811752,-0.013639054261147976,-0.22913341224193573,0.22094187140464783,0.0590922012925148,0.02913823351264,0.04310491308569908,0.0272528063505888,-0.2927321791648865,0.19304029643535614,-0.1547265350818634,-0.3717902600765228,0.050826769322156906,0.1408335268497467,-0.3179020285606384,0.18166638910770416,-0.2430150806903839,0.21937710046768188,-0.1807897388935089,0.32259321212768555,-0.0213860385119915,-0.08173147588968277,-0.015552964061498642,0.22812126576900482,-0.0612945556640625,0.05481847748160362,-0.1806788295507431,0.02777995727956295,-0.07166595011949539,0.1685059517621994,-0.16644328832626343,0.25081905722618103,0.031691133975982666,-0.03399636223912239,-0.31669577956199646,0.10639616847038269,0.06527518481016159,0.045738585293293,-0.2842274308204651,0.05753229930996895,0.16242848336696625,-0.06180884689092636,0.03222307935357094,0.07422679662704468,-0.442137211561203,0.06256473809480667,-0.20538271963596344,0.35921505093574524,-0.21727459132671356,-0.036033034324645996,-0.10544613003730774,-0.06959553807973862,0.04935505613684654,0.13025391101837158,0.12507495284080505,-0.021239856258034706,0.030395744368433952,0.0495787188410759,0.258771151304245,0.04513571411371231,-0.21686053276062012,0.0557379275560379,-0.1338803619146347,0.11485318839550018,-0.06587132811546326,0.06125982105731964,0.04843635857105255,0.06341734528541565,-0.14000357687473297,0.031804654747247696,-0.0002298110630363226,-0.006144012324512005,0.03316357731819153,-0.06131252273917198,-0.13900525867938995,0.06163211539387703,0.01647189073264599,0.14675721526145935,-0.2512744963169098,-0.2149229794740677,-0.197037011384964,0.2228807955980301,0.19050101935863495,-0.005845311563462019,-0.14177915453910828,0.00266589829698205,-0.08915581554174423,0.04069846495985985,-0.09571628272533417,-0.12208426743745804,0.1269102543592453,-0.12527082860469818,0.013556367717683315,0.1330690234899521,0.005260998848825693,0.2094697803258896,0.03306300938129425,-0.1605302393436432,0.10135585069656372,0.014016528613865376,-0.22558869421482086,0.026074571534991264,-0.07014091312885284,0.12539121508598328,0.11267657577991486,-0.09967778623104095,0.07580351084470749,0.35998982191085815,-0.0826893299818039,-0.10956132411956787,-0.004572420381009579,-0.1699267476797104,-0.015021326951682568,-0.0876283124089241,0.0723227933049202,-0.002244991948828101,0.07790250331163406,0.006207035854458809,-0.07843049615621567,-0.11604791134595871,0.14487819373607635,0.026026949286460876,-0.03132230043411255,-0.009232530370354652,0.19215567409992218,-0.23923607170581818,0.11031783372163773,0.0616585873067379,-0.062059104442596436,-0.004175807815045118,0.23415757715702057,-0.06008047237992287,0.28014978766441345,0.106045201420784,0.2980644702911377,-0.08846105635166168,0.08000025898218155,-0.04176567494869232,-0.13252702355384827,-0.08673509955406189,0.1697058379650116,0.06142449378967285,0.14997598528862,-0.07666700333356857,0.2050710767507553,-0.027723532170057297,-0.06826712191104889,0.07209473103284836,0.06419547647237778,0.21709167957305908,0.10449190437793732,-0.13619591295719147,-0.048105984926223755,-0.056084610521793365,-0.11088032275438309,-0.020188484340906143,0.11539504677057266,-0.04264439269900322,-0.007180020213127136,-0.035038698464632034,-0.1335914433002472,0.06908279657363892,-0.20316548645496368,0.06434371322393417,-0.11232203245162964,0.007935158908367157,0.037874095141887665,0.1310214400291443,0.0317557267844677,0.06710570305585861,0.038475826382637024,0.012779686599969864,-0.045576758682727814,-0.08871640264987946,-0.04050058126449585,0.0783916637301445,-0.05810008943080902,0.030664296820759773,-0.11226239055395126,0.01700320839881897,-0.037596702575683594,-0.25229936838150024,-0.21667571365833282,0.1317482888698578,-0.046676259487867355,-0.07302471250295639,0.031291935592889786,-0.05184386298060417,-0.16382846236228943,-0.06817873567342758,0.12226120382547379,0.0008449027664028108,-0.14403177797794342,-0.11798881739377975,-0.01837306097149849,-0.1914772242307663,-0.2037549763917923,0.062194619327783585,0.0313199982047081,0.0007473448640666902,0.10553660243749619,-0.04288596287369728,0.07013912498950958,0.28646320104599,0.056534722447395325,-0.12534819543361664,0.08311011642217636,-0.01324036717414856,0.1100354865193367,-0.16089189052581787,0.1135973185300827,0.06638755649328232,-0.18865655362606049,-0.0903250202536583,0.12763288617134094,-0.18721680343151093,0.24302087724208832,0.10594969242811203,0.18968014419078827,-0.1508084535598755,0.15228870511054993,-0.1251043975353241,0.06257104128599167,0.043040480464696884,0.07228709012269974,0.02735779993236065,0.18904246389865875,-0.17462998628616333,0.1854676753282547,0.121256522834301,0.21624425053596497,-0.026559947058558464,-0.06223691999912262,-0.05914741009473801,0.022537188604474068,-0.05463263392448425,0.21729184687137604,-0.2573397755622864,-0.00932324305176735,-0.09158777445554733,0.1500134915113449,0.0430917888879776,-0.1234624981880188,-0.02074659988284111,0.06209623068571091,0.19785261154174805,-0.030727798119187355,0.04107437655329704,-0.21802321076393127,0.06979367882013321,0.2211933135986328,-0.25158730149269104,-0.04309612140059471,-0.05658317729830742,0.0442233644425869,0.07018125802278519,0.08324673026800156,0.269901305437088,0.11913958936929703,0.13184420764446259,-0.03929249569773674,0.02669985592365265,-0.09923134744167328,0.21281301975250244,-0.03397755324840546,0.056988123804330826,-0.17581483721733093,-0.12763358652591705,0.027570851147174835,0.08933370560407639,0.006236699875444174,0.126644566655159,-0.020871786400675774,0.04272507131099701,-0.06850867718458176,0.1630440205335617,-0.04011484235525131,0.12205905467271805,0.002337618265300989,0.11103865504264832,0.02442108653485775,0.030175603926181793,-0.16275663673877716,-0.06418195366859436,-0.25312718749046326,-0.05049305409193039,-0.1168350949883461,0.09496235847473145,-0.06154932826757431,-0.0777011439204216,0.01239674910902977,0.0922749936580658,0.1551230102777481,-0.12611621618270874,-0.027732228860259056,-0.09129145741462708,0.006883632391691208,0.127961203455925,-0.03378293663263321,-0.09192989766597748,-0.1613115817308426,0.06693148612976074,-0.23935256898403168,-0.11049936711788177,0.03147723153233528,-0.0539250485599041,-0.09268384426832199,-0.01757463812828064,-0.1321982592344284,0.06139850616455078,-0.040410175919532776,0.06092914193868637,-0.06517770141363144,0.09770577400922775,-0.1866626888513565,0.20936331152915955,0.044831324368715286,0.20781588554382324,-0.12856322526931763,0.15026532113552094,-0.19627854228019714,0.08755344152450562,-0.11963672935962677,0.10380308330059052,-0.0012439294951036572,-0.04809180647134781,-0.13130605220794678,0.002914766315370798,-0.10440296679735184,-0.12404236942529678,-0.08081986010074615,0.13016340136528015,-0.034783750772476196,0.10914843529462814,-0.13361582159996033,0.136051744222641,-0.026880742982029915,0.08462227880954742,0.24042931199073792,-0.08058404922485352,-0.22656182944774628,-0.20183730125427246,-0.15906769037246704,0.10574480146169662,0.23756907880306244,0.13582541048526764,0.06391145288944244,0.18833507597446442,-0.09455893933773041,0.06575891375541687,0.20334632694721222,0.007735223043709993,0.004666698165237904,-0.05374022573232651,0.13107089698314667,0.06306373327970505,0.019604794681072235,0.06632707267999649,-0.08112070709466934,-0.2661937177181244,0.14749084413051605,-0.08429186046123505,-0.023510342463850975,0.06240283325314522,0.015494284220039845,-0.011742081493139267,-0.10277743637561798,-0.000009499870429863222,-0.0359637588262558,-0.10694222897291183,0.05240198224782944,-0.15740501880645752,0.1352379024028778,-0.0032847924157977104,0.31992825865745544,0.03712804988026619,-0.003924298100173473,0.06108724698424339,-0.08700191229581833,-0.05485887452960014,0.13980898261070251,-0.011832955293357372,0.027558472007513046,-0.19308020174503326,-0.04556696116924286,0.11063406616449356,0.26879847049713135,-0.01382362563163042,-0.22359797358512878,0.12060084193944931,0.14650119841098785,-0.26377159357070923,0.010782637633383274,-0.12699005007743835,-0.14495597779750824,0.23438014090061188,-0.0592614971101284,0.04733464494347572,0.04877901449799538,-0.05525808036327362,0.08925002068281174,-0.2142125964164734,0.10799681395292282,-0.11371247470378876,-0.05942506343126297,0.10494755953550339,0.08630452305078506,-0.07972738146781921,0.19082455337047577,-0.22001034021377563,0.20991860330104828,-0.04257743060588837,0.07748211175203323,-0.17635011672973633,0.08403203636407852,-0.3152390420436859,-0.010613602586090565,0.06376595795154572,0.27793198823928833,-0.19355949759483337,0.004594943020492792,-0.2840253412723541,-0.04131457209587097,-0.19818203151226044,-0.256756454706192,0.09827766567468643,0.008762985467910767,-0.1801551878452301,0.0352310910820961,0.05252566561102867,0.08937770873308182,-0.2061794549226761,-0.12856373190879822,0.09895746409893036,0.16976399719715118,-0.16415102779865265,-0.1252376288175583,0.07193577289581299,0.06232111155986786,-0.06091630458831787,-0.07814150303602219,0.01928379014134407,-0.05551404878497124,-0.05986231938004494,-0.16287051141262054,-0.02724652737379074,-0.1053464263677597,-0.13547945022583008,0.003435557708144188,0.07001399248838425,-0.050487786531448364,-0.15107905864715576,0.10485710948705673,0.22794026136398315,0.006467054132372141,0.18789634108543396,0.027391865849494934,-0.07213304191827774,-0.04118208959698677,0.22165252268314362,0.053130488842725754,-0.03178168088197708,-0.08126777410507202,-0.012677088379859924,-0.13202673196792603,0.017585599794983864,0.1325860470533371,0.1269499510526657,-0.1364271193742752,-0.08508513867855072,-0.14343392848968506,0.03861640766263008,-0.06190948933362961,-0.17431262135505676,0.06122523173689842,0.022022997960448265,-0.05268339812755585,-0.0692141056060791,0.05704096704721451,-0.045440446585416794,-0.015697520226240158,0.13416950404644012,-0.029774749651551247,-0.16113795340061188,-0.021513428539037704,-0.10732363164424896,-0.0050079054199159145,-0.0391145758330822,0.12816357612609863,0.06531022489070892,0.06469248980283737,0.021393390372395515,-0.10670062899589539,-0.0287560373544693,-0.04961779713630676,0.03308338671922684,-0.026390107348561287,0.19492560625076294,0.00235835462808609,-0.0380108579993248,-0.06561379879713058,0.23032136261463165,0.13667422533035278,0.24396996200084686,-0.041161853820085526,0.11660855263471603,-0.21345843374729156,-0.042158640921115875,-0.13568857312202454,0.2112322747707367,-0.09613056480884552,-0.08616600930690765,-0.04368080198764801,0.04962681233882904,-0.12915977835655212,0.1819630265235901,-0.09255003184080124,-0.11018069833517075,-0.1718742698431015,0.13043543696403503,0.10530220717191696,-0.047584109008312225,-0.00001074148985935608,0.06268419325351715,-0.08229248970746994,-0.1494370996952057,-0.06330351531505585,0.17175139486789703,0.030790360644459724,-0.08215043693780899,0.28767022490501404,-0.07299105823040009,0.08117994666099548,0.007162683177739382,-0.14343464374542236,0.05370321497321129,0.27511972188949585,0.008609880693256855,-0.06517676264047623,0.30113485455513,-0.01541957352310419,0.10958904772996902,-0.017724962905049324,-0.2510431706905365,0.0613931305706501,-0.263335645198822,0.213466078042984,-0.046955350786447525,-0.13284771144390106,0.007000139448791742,-0.04822248965501785,-0.2038659006357193,0.152523934841156,-0.16471430659294128,0.13131865859031677,0.05664936825633049,0.021334681659936905,0.021030118688941002,-0.03666653484106064,0.09569209069013596,0.12107130140066147,-0.01923368126153946,0.15054544806480408,-0.24608676135540009,0.04463525488972664,0.03751794621348381,-0.0013810927048325539,0.06173800677061081,-0.05123310908675194,-0.0067700729705393314,-0.11241303384304047,0.03540990501642227,0.10270367562770844,0.0036611142568290234,0.0966922789812088,0.004564990755170584,0.109465092420578,-0.07444434612989426,0.08648157119750977,0.005032994784414768,-0.13580027222633362,0.09635095298290253,0.04494655504822731,0.13947691023349762,0.04439631849527359,0.04273684695363045,0.03214175999164581,0.21777433156967163,0.008032949641346931,-0.08959086239337921,0.11584576964378357,0.13544276356697083,-0.049894142895936966,-0.12339293211698532,0.01957627385854721,-0.11794592440128326,0.03766021504998207,0.0474957637488842,0.1835511475801468,-0.09981930255889893,0.05047042295336723,-0.05826719477772713,0.034901827573776245,0.027437318116426468,0.1603059023618698,-0.21632014214992523,0.16238512098789215,-0.13040561974048615,0.010990277864038944,-0.08315060287714005,0.11776616424322128,-0.1284516155719757,-0.014820977114140987,-0.1467772126197815,0.10026941448450089,-0.07700928300619125,0.055690981447696686,0.19655758142471313,-0.08799358457326889,-0.03410794213414192,0.15782269835472107,-0.1379372775554657,0.042246997356414795,-0.24411848187446594,0.12378054112195969,-0.1479267179965973,0.01971939392387867,-0.12272944301366806,0.004130462184548378,0.29053446650505066,-0.048885785043239594,-0.10099853575229645,0.08312471956014633,-0.056463584303855896,-0.006786887533962727,-0.0034419368021190166,0.05147048458456993,0.02976859360933304,0.21160779893398285,-0.025360723957419395,0.1706787794828415,-0.1190439909696579,0.022607725113630295,-0.014618580229580402,0.09934467822313309,0.00851105060428381,0.04132292792201042,-0.12495789676904678,0.004778130445629358,0.001837999327108264,-0.036363571882247925,-0.15363892912864685,-0.05265601724386215,-0.22575998306274414,0.20400434732437134,-0.06870872527360916,0.16950857639312744,-0.026717962697148323,0.09773258119821548,-0.13755440711975098,0.0000020847191990469582,0.048873983323574066,0.15253140032291412,-0.04640188440680504,-0.0595795176923275,0.07014217972755432,-0.11428869515657425,-0.13442370295524597,0.10000550001859665,-0.1662091463804245,0.1044216975569725,-0.21907050907611847,0.021827254444360733,-0.16292499005794525,0.13745689392089844,-0.19966910779476166,0.015993911772966385,-0.01979936845600605,0.02068738453090191,0.11366533488035202,0.16018466651439667,0.02212192863225937,0.0665087178349495,0.14495207369327545,-0.05404771491885185,-0.04493313655257225,0.042329370975494385,0.06224247068166733,-0.014019006863236427,-0.10407569259405136,0.09581495076417923,0.06906794011592865,0.06121343746781349,-0.26158085465431213,0.042448289692401886,-0.1941070854663849,-0.06602399796247482,-0.0850076749920845,-0.025486290454864502,-0.09757135063409805,-0.1459389328956604,0.06480751186609268,0.23165228962898254,0.05523205175995827,0.16305570304393768,-0.14860714972019196,-0.044815126806497574,-0.039413996040821075,0.14546805620193481,0.00346651510335505,-0.021692296490073204,-0.021981706842780113,0.10019794851541519,0.19032073020935059,-0.1293666809797287,0.05274901166558266,-0.07097330689430237,-0.03571737930178642,-0.01638682186603546,0.07947782427072525,0.1922565996646881,0.03957831487059593,0.05251055583357811,-0.024924566969275475,0.0820809155702591,-0.0726911723613739,0.025688260793685913,0.13972431421279907,0.14896072447299957,-0.06192982196807861,-0.017484363168478012,0.10846138000488281,0.08642386645078659,0.06493031233549118,0.0265838373452425,0.0213382076472044,-0.08256860822439194,-0.279631108045578,0.20935235917568207,0.31886258721351624,-0.5814049243927002,0.138580322265625,-0.717276394367218,-0.2693333625793457,-0.38955381512641907,0.8388490080833435,-0.6926789283752441,-0.5064727663993835,-1.022977590560913,0.2084781974554062,-0.7433319687843323,0.40015119314193726,-0.6947685480117798,-0.010203247889876366,-0.38382086157798767,0.08027119934558868,0.38391536474227905,0.18941178917884827,0.1652543693780899,-0.3808750510215759,-0.031381841748952866,0.010644078254699707,0.23113000392913818,0.21079988777637482,0.11591953039169312,0.22810393571853638,0.3103658854961395,-0.07257811725139618,-0.06781589984893799,0.0752047747373581,-0.11599022895097733,-0.12206662446260452,0.07263623178005219,-0.30130746960639954,0.21828922629356384,-0.026467811316251755,-0.21225938200950623,0.27583077549934387,-0.22804595530033112,0.027072424069046974,0.2891114056110382,0.03264254331588745,0.07163713872432709,0.13203486800193787,0.2881419360637665,-0.013221578672528267,-0.27010947465896606,-0.04923591390252113,0.28467342257499695,-0.041189152747392654,0.26685580611228943,-0.07739759236574173,0.023046186193823814,0.05356311425566673,0.10471091419458389,-0.3135641813278198,-0.21262046694755554,0.13021394610404968,0.15019066631793976,0.18133606016635895,0.12867455184459686,-0.009932100772857666,0.4082355499267578,-0.06699050217866898,-0.38661089539527893,-0.02363169565796852,-0.15365269780158997,0.021490484476089478,0.18233874440193176,-0.34650489687919617,-0.3065771758556366,0.21845592558383942,0.45129141211509705,-0.096297487616539,-0.3121866285800934,-0.2935357689857483,-0.022677984088659286,0.08186960965394974,0.30984097719192505,0.02006039023399353,-0.2977391183376312,0.2753466069698334,-0.28340446949005127,0.08659662306308746,0.3795053958892822,0.03448998183012009,-0.42744556069374084,0.0370405912399292,0.40609508752822876,-0.29410290718078613,-0.2960253357887268,-0.35287413001060486,-0.29896143078804016,-0.2012132704257965,-0.08456235378980637,-0.2757895588874817,-0.09000711143016815,0.15642867982387543,-0.18771637976169586,0.019781187176704407,0.004992024041712284,0.05848181992769241,0.2287997007369995,-0.04474823549389839,-0.1301293671131134,-0.1560502052307129,-0.11558477580547333,0.05027350038290024,0.06929515302181244,0.2118353247642517,-0.16506846249103546,0.10572200268507004,-0.16476242244243622,-0.005404620431363583,0.32559090852737427,-0.2538192570209503,-0.2562505900859833,0.1783987134695053,0.022063439711928368,-0.21434706449508667,0.06790048629045486,-0.017598489299416542,0.06893759965896606,0.018281830474734306,0.27248769998550415,0.15801721811294556,-0.12641674280166626,0.03523419052362442,0.11634781956672668,0.11756440252065659,-0.04859684035181999,-0.1115444079041481,-0.029785947874188423,-0.007235565222799778,0.4719539284706116,-0.30905666947364807,-0.029827380552887917,-0.034632302820682526,0.14121931791305542,0.2704955041408539,0.058094803243875504,0.06777136772871017,0.04850540682673454,-0.2027507871389389,-0.07919374108314514,-0.29743391275405884,-0.05534173920750618,0.01590348407626152,-0.13684968650341034,0.07238724827766418,-0.008518319576978683,0.18587136268615723,-0.07027953118085861,-0.05139349773526192,0.15444599092006683,0.009851227514445782,0.31108397245407104,-0.18320949375629425,-0.011205882765352726,0.044372543692588806,0.04862328991293907,0.15858913958072662,-0.18389174342155457,0.16712984442710876,0.04982845485210419,-0.061821840703487396,0.05101466551423073,0.1926981508731842,0.20622394979000092,0.1588672250509262,-0.01717299036681652,0.10915955156087875,-0.2155705839395523,-0.01851215399801731,-0.22900833189487457,-0.1538499891757965,0.1881171613931656,-0.03940901160240173,0.03142089769244194,-0.05436268821358681,-0.08510850369930267,0.22034403681755066,0.3457220792770386,-0.22280193865299225,0.013379947282373905,0.10740164667367935,0.169972762465477,0.08295922726392746,0.09473517537117004,0.10578781366348267,0.22942404448986053,-0.21767084300518036,-0.060291629284620285,-0.1932881474494934,-0.10152298957109451,-0.012104257009923458,0.152394637465477,-0.06945038586854935,0.14461444318294525,0.178538516163826,-0.18907545506954193,0.14129912853240967,-0.07678688317537308,0.05208344757556915,-0.17178453505039215,-0.07775423675775528,-0.16981279850006104,-0.33737462759017944,0.22249239683151245,-0.034870974719524384,-0.00020897394279018044,-0.06247992813587189,0.054150260984897614,-0.1770605593919754,-0.12223006039857864,-0.27683162689208984,-0.20106886327266693,0.15971384942531586,-0.17336620390415192,0.05879714712500572,0.11319171637296677,0.13524845242500305,0.013939589262008667,-0.19153736531734467,0.24006322026252747,-0.26677054166793823,0.06902042031288147,0.014852959662675858,-0.04576949402689934,0.12164264917373657,0.29325801134109497,0.11996404826641083,0.007795518729835749,0.08916980773210526,0.1896389275789261,0.08914835005998611,-0.03924979642033577,-0.11931844800710678,0.38765379786491394,0.1388999968767166,-0.15446634590625763,-0.07466308027505875,-0.25688982009887695,0.278868705034256,0.12094946205615997,-0.30460861325263977,-0.07359521836042404,0.052093181759119034,0.21061404049396515,-0.29517805576324463,-0.021311085671186447,-0.023296725004911423,0.08655302226543427,0.222168430685997,-0.41293150186538696,0.004697141237556934,0.0046268124133348465,-0.20579364895820618,0.14195695519447327,-0.2137393057346344,0.14154861867427826,0.15828832983970642,0.18572022020816803,0.30279189348220825,0.06497649103403091,-0.1563791036605835,0.33158281445503235,-0.17299436032772064,-0.26870331168174744,-0.07515394687652588,-0.0007564790430478752,-0.027932096272706985,-0.04222399741411209,-0.10684981942176819,0.014286179095506668,0.09775803238153458,0.11105170845985413,0.1006402000784874,0.013445676304399967,0.03912604600191116,-0.1440867930650711,0.05437314137816429,-0.21906836330890656,-0.11015494912862778,-0.07250264286994934,0.05324063077569008,0.003631221130490303,-0.12629783153533936,0.015362201258540154,0.0008405297412537038,0.0906045138835907,0.027634721249341965,0.037117794156074524,0.026110054925084114,0.0225689597427845,-0.16981464624404907,-0.10356445610523224,0.07347062975168228,-0.01348082534968853,-0.03712217137217522,0.18694807589054108,0.07179545611143112,-0.07792794704437256,-0.07824286073446274,0.00586602371186018,0.09305959939956665,0.08304204791784286,0.060007307678461075,-0.15491615235805511,-0.1279497742652893,0.10376676917076111,0.010299106128513813,0.09200925379991531,0.056364696472883224,-0.04320480301976204,-0.09478037804365158,0.04189798980951309,-0.040857307612895966,-0.003023717785254121,0.03391287103295326,-0.008968139998614788,-0.09919887036085129,-0.09793264418840408,0.0017730271210893989,-0.10737490653991699,0.08250587433576584,-0.0687771588563919,-0.009822146035730839,-0.01914123445749283,-0.10012196749448776,0.2698360085487366,-0.1775418370962143,-0.12847495079040527,0.11863086372613907,0.03978196904063225,0.044513992965221405,-0.1677411049604416,0.0642494484782219,-0.20639143884181976,0.09923164546489716,0.11503823846578598,0.07110315561294556,0.03669644519686699,-0.043662380427122116,-0.031137986108660698,0.1578722596168518,-0.01856311224400997,0.04043946787714958,-0.053872693330049515,-0.03651178628206253,-0.034015294164419174,0.04227644205093384,-0.09237919747829437,0.08194848150014877,-0.033190783113241196,-0.14187757670879364,-0.028385957702994347,-0.005415262188762426,0.01434357650578022,-0.15739259123802185,0.15143120288848877,0.04284929484128952,0.07261667400598526,0.09312993288040161,0.13482922315597534,-0.004491032566875219,-0.0369257889688015,-0.18655483424663544,-0.04738055169582367,-0.046775106340646744,0.1628240942955017,-0.06047326326370239,-0.055950962007045746,0.0873609110713005,-0.11606189608573914,-0.05490274354815483,0.21433694660663605,0.11811995506286621,0.17405499517917633,-0.04472922906279564,-0.0006532546831294894,0.12523484230041504,-0.051228683441877365,0.07260147482156754,0.22653049230575562,0.011847815476357937,-0.19998954236507416,0.23825021088123322,0.049195945262908936,0.010963723063468933,-0.1198258027434349,-0.008834614418447018,0.16483576595783234,-0.03452860936522484,-0.12070285528898239,0.17423893511295319,0.00028301659040153027,0.08154245465993881,0.08501148223876953,0.08163577318191528,0.09330740571022034,-0.08525826036930084,-0.19818493723869324,0.10741925239562988,0.0957501083612442,0.1561090052127838,-0.025961225852370262,-0.07221788167953491,-0.11589017510414124,0.07501514256000519,-0.02054179087281227,0.008889147080481052,0.08758079260587692,-0.13217175006866455,-0.1073765680193901,0.03271244093775749,0.1084684282541275,0.19916245341300964,-0.010355992242693901,-0.055226881057024,0.08510370552539825,0.0034369302447885275,-0.046468112617731094,0.23968489468097687,-0.21305806934833527,-0.047776442021131516,-0.24118635058403015,-0.015093658119440079,0.21936263144016266,-0.13346923887729645,-0.14046834409236908,0.135885551571846,-0.031153928488492966,0.08571368455886841,-0.08117719739675522,0.10860803723335266,0.12595665454864502,-0.21419979631900787,0.11436451971530914,-0.006195127964019775,-0.05597624182701111,0.04881015792489052,-0.07699620723724365,-0.016039596870541573,-0.06603655219078064,-0.018836714327335358,0.1983044594526291,0.20439179241657257,0.010979849845170975,-0.17366397380828857,-0.0899529755115509,0.07557345926761627,0.17293623089790344,0.08439676463603973,0.029714683070778847,-0.01848362758755684,-0.1492493748664856,-0.0538080632686615,-0.03304817155003548,0.09476514905691147,0.06896820664405823,-0.06953377276659012,0.06600335240364075,-0.048567648977041245,-0.0031330613419413567,0.10546044260263443,-0.07318153977394104,-0.11698780208826065,0.190057173371315,-0.024746084585785866,0.021046902984380722,0.13434390723705292,-0.12622816860675812,0.07703632861375809,-0.18107278645038605,0.05298062413930893,0.17645499110221863,0.07301218807697296,-0.021169403567910194,-0.03950485959649086,-0.12657283246517181,0.08156716823577881,0.16469885408878326,-0.036574941128492355,0.07056594640016556,0.04085886478424072,0.0037187538109719753,0.1531517207622528,-0.17619942128658295,-0.06665445119142532,0.049888066947460175,-0.10349539667367935,0.07594690471887589,0.09538739919662476,-0.046232711523771286,-0.20969253778457642,-0.08358724415302277,0.19521386921405792,0.07821842283010483,-0.11433525383472443,0.009266297332942486,-0.07579821348190308,-0.12997786700725555,0.16091209650039673,0.16473981738090515,0.08963440358638763,-0.0380915068089962,-0.16366654634475708,-0.06927939504384995,0.1360917091369629,0.07612250745296478,0.027657242491841316,-0.2589437961578369,-0.16861294209957123,0.08425147086381912,0.08980404585599899,-0.13734830915927887,-0.09820303320884705,0.2145472913980484,-0.2106444090604782,-0.11176580935716629,0.10526230931282043,0.21763205528259277,-0.08956225961446762,-0.2363646775484085,0.09656817466020584,-0.1667260080575943,0.09447171539068222,0.11380553245544434,0.008786449208855629,-0.07179944962263107,-0.02971610426902771,-0.09644005447626114,-0.08607568591833115,-0.033337995409965515,-0.2398437112569809,0.18363739550113678,-0.02003866620361805,-0.12396753579378128,0.03149547800421715,-0.16164745390415192,-0.02234741672873497,0.02055223099887371,-0.019240202382206917,0.14491459727287292,0.012485070154070854,-0.17280781269073486,-0.05544549599289894,0.10245639085769653,0.1312708854675293,-0.032550111413002014,-0.13306747376918793,-0.12327630817890167,0.06217116862535477,0.07845800369977951,0.0995548665523529,0.06146814301609993,-0.02815638855099678,0.048825446516275406,0.13642668724060059,0.2139149308204651,0.1690688133239746,-0.10323463380336761,-0.10962662100791931,0.010418289341032505,0.025588709861040115,-0.008050969801843166,0.1393164098262787,-0.2599751353263855,-0.0570208840072155,0.07453671842813492,0.013611233793199062,0.15029078722000122,-0.20588181912899017,-0.18375015258789062,0.06120075657963753,0.05555189773440361,-0.04706272482872009,0.05583222582936287,0.0617586225271225,-0.13967373967170715,-0.03696178272366524,0.06043232977390289,0.25315389037132263,-0.007993752136826515,0.06879787892103195,0.07182218134403229,0.013038545846939087,-0.06535445153713226,0.06098328158259392,-0.06714493036270142,-0.03816148638725281,-0.02879517897963524,-0.050362832844257355,0.10692097991704941,0.011707182973623276,-0.16783858835697174,-0.15468400716781616,-0.050000570714473724,0.14221906661987305,-0.05472999066114426,0.1401202231645584,-0.13370521366596222,-0.20574207603931427,-0.017380908131599426,-0.056328658014535904,-0.0178384967148304,-0.022969719022512436,-0.0703914612531662,-0.15117093920707703,-0.12419594079256058,0.13672815263271332,-0.02757074497640133,-0.11793046444654465,0.07079073786735535,-0.06495651602745056,0.16494648158550262,0.06277701258659363,0.11544375866651535,-0.23145069181919098,-0.14102807641029358,-0.11386043578386307,-0.0996476411819458,-0.11546191573143005,0.09703382849693298,0.018466172739863396,0.04265590012073517,-0.06937004625797272,0.05358688160777092,-0.06038837134838104,-0.09445864707231522,-0.0421777069568634,0.052687834948301315,-0.1082737073302269,0.05727233737707138,-0.048991989344358444,0.00846234429627657,0.2070843130350113,-0.054497864097356796,-0.02094949223101139,-0.05565683916211128,0.053274914622306824,-0.1955929845571518,0.18090014159679413,-0.04644931107759476,0.0759340152144432,0.004360681399703026,-0.07962117344141006,-0.1391875147819519,0.23044341802597046,-0.09812214970588684,0.13355112075805664,-0.2050548493862152,-0.03476203233003616,-0.023462073877453804,0.12930677831172943,-0.06628011167049408,0.06690233945846558,-0.05857912451028824,0.07856801152229309,-0.08810626715421677,-0.22081781923770905,-0.027438605204224586,0.295368492603302,-0.25956329703330994,-0.1790124475955963,-0.25571730732917786,-0.011126302182674408,0.05899931117892265,-0.034408945590257645,-0.15093033015727997,0.29253578186035156,-0.058676254004240036,0.17485453188419342,0.10371909290552139,-0.14609523117542267,0.24366213381290436,-0.07089714705944061,0.061841487884521484,0.03809108957648277,0.0983673706650734,-0.04131300374865532,-0.12044502794742584,-0.024377528578042984,0.049188993871212006,-0.13406822085380554,0.022904204204678535,-0.019527798518538475,0.035749077796936035,-0.05232121795415878,0.12462945282459259,-0.2719447910785675,-0.06131245195865631,-0.06588666141033173,0.005961703136563301,0.04626663774251938,0.10598932951688766,-0.08296634256839752,0.03328170254826546,-0.07080251723527908,0.17881716787815094,-0.029653310775756836,0.18343190848827362,0.06781266629695892,-0.07512380182743073,-0.31599161028862,0.24799269437789917,-0.0064360713586211205,-0.08081120997667313,0.14896298944950104,0.18248005211353302,-0.09214283525943756,0.0649862065911293,-0.015132607892155647,0.41360029578208923,-0.15621784329414368,-0.12065439671278,-0.22104503214359283,0.15114809572696686,-0.26365116238594055,0.048989444971084595,0.0647582933306694,0.1300930380821228,-0.020262863487005234,-0.022970955818891525,0.07342937588691711,-0.08522148430347443,0.04544028639793396,-0.12458734214305878,-0.0030875704251229763,0.0402597114443779,0.14833280444145203,-0.0021115485578775406,-0.008172412402927876,-0.09192617237567902,-0.22437265515327454,-0.0767606645822525,-0.158425435423851,0.12918506562709808,-0.16267594695091248,-0.2315821647644043,-0.1255524754524231,-0.1812995970249176,0.10576627403497696,0.19549182057380676,-0.07475815713405609,-0.05674844980239868,-0.006832213141024113,-0.022285813465714455,-0.015719378367066383,-0.07429523020982742,0.15847940742969513,-0.22248704731464386,-0.09230665117502213,0.010486881248652935,-0.002002173336222768,-0.11796509474515915,-0.14456379413604736,0.07740198075771332,-0.2641247808933258,0.17165963351726532,0.1648724228143692,0.15051308274269104,0.011941235512495041,-0.231095552444458,-0.03247372806072235,-0.045550763607025146,0.26969701051712036,0.09022202342748642,0.04731345921754837,0.07899627834558487,0.1179511621594429,0.05306561291217804,0.11796573549509048,0.06547383219003677,0.06957095116376877,0.13861390948295593,0.12403405457735062,-0.1505325883626938,0.04680901765823364,-0.03600311279296875,0.06900570541620255,-0.14271549880504608,0.14789718389511108,0.08061487227678299,-0.12518244981765747,-0.024244286119937897,0.19856774806976318,0.0016905529191717505,0.06698057055473328,0.02968164160847664,0.005882135592401028,-0.10437461733818054,0.09960862994194031,0.07692864537239075,0.1342451423406601,-0.04249865189194679,0.04863879084587097,-0.03302312642335892,-0.058334946632385254,0.10857746750116348,0.1655927449464798,-0.07897874712944031,-0.04867318272590637,0.16706176102161407,-0.21146559715270996,-0.11554683744907379,0.12322518974542618,0.004924633540213108,-0.12907090783119202,-0.12237909436225891,-0.053398746997117996,0.15368148684501648,-0.07954122126102448,-0.1428208202123642,0.0887240320444107,0.023729931563138962,-0.0718747079372406,0.10724398493766785,0.04913711920380592,-0.08487474173307419,0.15808109939098358,-0.09283960610628128,0.019861843436956406,0.020915567874908447,0.07268825173377991,0.027802404016256332,-0.014726980589330196,-0.0529521182179451,-0.059466421604156494,-0.06559550762176514,-0.025080228224396706,0.06384241580963135,0.1431329846382141,0.10791733115911484,-0.041942987591028214,-0.12017322331666946,-0.14106975495815277,-0.0031306673772633076,-0.11755722016096115,-0.13488228619098663,-0.00226138555444777,-0.1205928698182106,-0.09096088260412216,-0.1887883096933365,-0.10159066319465637,0.09075332432985306,0.0012912680394947529,0.08106369525194168,-0.0202732402831316,-0.07802944630384445,-0.020687691867351532,-0.0992203950881958,-0.19771453738212585,0.10668402165174484,-0.005322121549397707,-0.20530906319618225,0.096315898001194,-0.04838982969522476,-0.1193055510520935,-0.19986748695373535,-0.07647791504859924,-0.0222401674836874,0.18229669332504272,0.12548696994781494,-0.033996887505054474,-0.23585830628871918,-0.0009625059901736677,-0.13130934536457062,-0.025043100118637085,0.019856847822666168,0.0012177076423540711,0.05386439338326454,0.13303831219673157,0.10388454049825668,0.11142652481794357,-0.08314698189496994,0.016009122133255005,0.07962486147880554,-0.07114569842815399,0.16028444468975067,-0.09170446544885635,0.015873674303293228,-0.061093345284461975,0.027279455214738846,0.08650133013725281,-0.13801011443138123,0.025056354701519012,-0.15689648687839508,0.009760509245097637,0.02098960429430008,0.1474176049232483,0.17720329761505127,-0.0036798652727156878,-0.0426175482571125,-0.10797050595283508,0.0967007651925087,-0.0023502367548644543,0.05893232673406601,-0.11726611852645874,0.12035985291004181,0.13261453807353973,0.023782650008797646,0.07213770598173141,0.11354943364858627,-0.07075010985136032,0.026029448956251144,0.008947236463427544,0.1558333933353424,-0.00795047264546156,0.0332007072865963,0.08030160516500473,0.12152892351150513,-0.106406070291996,-0.08515305817127228,0.11417495459318161,0.05118677765130997,-0.13768985867500305,-0.0017188291531056166,-0.0013858784222975373,0.15875259041786194,0.011192161589860916,0.09974099695682526,0.13272953033447266,-0.12058872729539871,-0.052442215383052826,-0.06323416531085968,0.03454049676656723,-0.03498231992125511,-0.027558574452996254,-0.02277514338493347,0.06187807023525238,-0.05191640183329582,0.04139247164130211,0.034576233476400375,-0.01971093751490116,-0.013726945035159588,-0.07096575200557709,0.12676112353801727,0.03810977563261986,0.026286859065294266,-0.09859003126621246,-0.13057781755924225,-0.007623925339430571,0.014561292715370655,-0.004089466296136379,0.08349455147981644,-0.04021622613072395,0.0637897402048111,0.14309921860694885,-0.08014489710330963,0.08295521885156631,0.03431353345513344,-0.000970886496361345,-0.18484815955162048,0.0009796187514439225,0.11633317917585373,0.3879382014274597,0.13316242396831512,0.5816145539283752,0.02926764264702797,0.1720084697008133,0.06325295567512512,0.09733512997627258,0.18023048341274261,0.2045610100030899,-0.20706123113632202,-0.5867182612419128,-0.20606562495231628,-0.2257603108882904,-0.5251486897468567,-0.4699787199497223,0.05290921404957771,-0.047574907541275024,-0.10212043672800064,0.006442228797823191,0.20082677900791168,-0.042502667754888535,-0.004552068188786507,0.020198160782456398,0.224758580327034,0.09687001258134842,-0.002378985984250903,0.034188129007816315,0.08046955615282059,-0.06960149854421616,0.15368884801864624,0.025696005672216415,0.2231833040714264,0.10662984102964401,-0.0865885317325592,0.020300433039665222,-0.0648631602525711,-0.03445904701948166,-0.0215507410466671,-0.11531634628772736,-0.03438815847039223,-0.025483042001724243,0.002564389957115054,-0.019439512863755226,-0.5935125946998596,-0.46054139733314514,0.09763442724943161,0.04441151022911072,0.1070839986205101,-0.07562331855297089,0.04592090845108032,-0.02841508761048317,-0.10904423892498016,0.010659717954695225,0.21537627279758453,-0.17191962897777557,0.06918604671955109,0.16991372406482697,-0.11104970425367355,0.09496089071035385,0.04304686561226845,0.011280212551355362,0.14484842121601105,-0.014076058752834797,0.1760043352842331,-0.025128399953246117,-0.10596572607755661,0.025194983929395676,0.02590290643274784,0.16730983555316925,0.15736863017082214,0.03453318402171135,0.07986239343881607,-0.08974074572324753,-0.04134903475642204,0.05552676320075989,0.02184894308447838,-0.021137407049536705,-0.107310950756073,-0.14199717342853546,-0.15161359310150146,0.12244894355535507,-0.025007911026477814,0.06939906626939774,0.01624760590493679,-0.25286146998405457,0.1529337763786316,-0.04372866079211235,-0.13902775943279266,0.08794950693845749,0.03662579879164696,-0.03877657651901245,0.008831272833049297,-0.0842503234744072,0.06368255615234375,-0.06768149137496948,0.06659150868654251,0.016353560611605644,0.03505510464310646,0.022505026310682297,-0.08360112458467484,0.07398441433906555,0.0047949268482625484,-0.04891890287399292,-0.012368494644761086,0.008028148673474789,0.06137451156973839,0.05334268882870674,-0.00024545847554691136,-0.0674087256193161,0.04297748953104019,-0.055632784962654114,0.023357750847935677,-0.1390700787305832,-0.5950558185577393,0.7936443090438843,0.3214118480682373,-0.37947607040405273,0.05733361467719078,-0.19135963916778564,-0.017048237845301628,0.5972967743873596,-0.8499558568000793,0.8338295817375183,0.7577685713768005,-0.07278306037187576,-0.5383234620094299,0.2765621840953827,-0.5988686680793762,0.20346017181873322,-0.1000104621052742,-0.147727832198143,-0.32260340452194214,0.33766794204711914,0.10125312209129333,0.18246865272521973,0.055122263729572296,0.14531439542770386,0.10765962302684784,0.07101710140705109,0.1497247964143753,-0.2656537890434265,-0.03921753168106079,-0.10951794683933258,-0.06679617613554001,0.2564888000488281,0.03173062577843666,0.04742981493473053,0.2446841299533844,0.13437417149543762,0.17629770934581757,-0.10068545490503311,-0.3121263086795807,-0.12372336536645889,0.055388085544109344,-0.030172821134328842,-0.24672405421733856,0.14322523772716522,0.3029186427593231,0.29094722867012024,0.007494283374398947,-0.07088339328765869,-0.24748268723487854,0.0840253233909607,-0.1473398506641388,0.19732481241226196,-0.09178772568702698,-0.06878181546926498,0.0005053272470831871,-0.1232200413942337,-0.05296018347144127,-0.10712984949350357,0.20709355175495148,0.2717008590698242,-0.17541509866714478,-0.048413440585136414,0.0058921929448843,0.31437554955482483,0.060610152781009674,0.02837293967604637,-0.10672786831855774,-0.12741465866565704,0.04841215908527374,-0.18098635971546173,0.06997276842594147,0.2609389126300812,0.048293668776750565,-0.08375537395477295,0.19920845329761505,-0.008733675815165043,0.03464096784591675,0.24474291503429413,0.0638405829668045,0.12202562391757965,-0.1087777316570282,0.34669220447540283,-0.05194610357284546,-0.08738325536251068,-0.03493507578969002,0.09509701281785965,-0.11078760772943497,0.20968888700008392,-0.07370907813310623,-0.07273111492395401,0.0879916101694107,-0.20863427221775055,-0.2234070897102356,0.18286792933940887,-0.12835416197776794,-0.2452203929424286,-0.1518286019563675,0.08498784899711609,-0.06560397148132324,-0.12337735295295715,-0.050212688744068146,0.2609843313694,0.166218101978302,-0.21914108097553253,-0.1810479611158371,0.09969479590654373,0.22461457550525665,0.08747928589582443,0.0814170315861702,0.08006913959980011,-0.03476402908563614,0.11662939935922623,0.19457295536994934,-0.1920829564332962,-0.010338732972741127,0.26610732078552246,-0.08011160045862198,0.029982272535562515,-0.062058452516794205,-0.14493601024150848,0.15128013491630554,0.11500382423400879,-0.163363516330719,0.08035403490066528,0.06949087977409363,0.09720511734485626,0.1263391077518463,0.26795417070388794,0.23799388110637665,-0.31260764598846436,-0.15269766747951508,0.21546237170696259,-0.15454114973545074,0.026159562170505524,-0.10835444927215576,0.10047542303800583,0.11195892840623856,0.029606468975543976,0.18720903992652893,-0.0635322779417038,0.0539039708673954,0.040485870093107224,-0.10981771349906921,-0.149017333984375,0.2434755116701126,-0.18321160972118378,0.10813453793525696,0.2650579810142517,0.00007655994704691693,-0.1954934298992157,0.09394223988056183,-0.14530102908611298,0.08891564607620239,-0.13353829085826874,0.1715289056301117,-0.22687706351280212,-0.03282395377755165,-0.018673423677682877,0.006756591610610485,0.22867296636104584,-0.07055187225341797,-0.15728826820850372,0.11237704008817673,0.04694489389657974,0.14395597577095032,-0.14127793908119202,-0.2065046727657318,-0.07759105414152145,0.001267415122129023,0.09918289631605148,-0.05776985362172127,-0.12351334095001221,-0.14987197518348694,0.1875709891319275,-0.10729054361581802,0.29747602343559265,-0.07846993952989578,-0.227500319480896,-0.26184096932411194,0.3195684850215912,-0.1571105420589447,0.0965869277715683,-0.11465703696012497,0.3576468527317047,0.0604514516890049,-0.31512436270713806,0.004180088639259338,-0.005137914791703224,-0.2560403645038605,0.013731391169130802,0.2748866677284241,0.06588656455278397,-0.0782240554690361,-0.16671408712863922,-0.054914530366659164,0.0034215510822832584,0.19363678991794586,0.23369811475276947,0.1964443475008011,-0.16254617273807526,-0.26349857449531555,-0.12231949716806412,0.32755181193351746,-0.31831803917884827,-0.3317831754684448,0.06989037990570068,0.030886972323060036,-0.253447949886322,-0.13850495219230652,-0.05910413712263107,0.005897525232285261,0.1547786146402359,0.11830761283636093,-0.2549159824848175,-0.27268004417419434,0.24477405846118927,-0.028786657378077507,-0.18977807462215424,-0.03936050459742546,0.0908178836107254,0.20829340815544128,0.05693010613322258,-0.07613466680049896,-0.2322852611541748,0.06095421314239502,-0.2215418666601181,-0.04459034651517868,0.060265425592660904,-0.09588494896888733,0.14275173842906952,0.08980854600667953,-0.06430261582136154,0.018183192238211632,0.09611628949642181,-0.2657421827316284,0.07423403859138489,0.20477452874183655,-0.08298758417367935,0.02238876186311245,-0.029968487098813057,0.14187203347682953,0.07982025295495987,0.045898545533418655,-0.2423965185880661,-0.0023532158229500055,0.162401020526886,-0.12870828807353973,0.0462673082947731,0.18170711398124695,0.14798760414123535,0.19802325963974,-0.06394637376070023,0.08552955836057663,0.10048437863588333,-0.1814069151878357,-0.05928570032119751,-0.0717371329665184,-0.17353451251983643,-0.25685834884643555,-0.030595935881137848,-0.05954442918300629,-0.06086920201778412,-0.2380230724811554,0.12089263647794724,0.13652683794498444,0.17251507937908173,0.21316586434841156,-0.19778943061828613,-0.1327737420797348,-0.2230968475341797,0.03928528353571892,0.04955403506755829,0.03280114009976387,0.05265660956501961,0.09609988331794739,-0.07741817086935043,0.0559537336230278,0.11032349616289139,0.004777542315423489,-0.1601012945175171,-0.09286317229270935,0.04789770767092705,0.10092056542634964,0.09628932923078537,0.08985903114080429,0.05439278483390808,-0.018973547965288162,-0.07334413379430771,-0.12573719024658203,0.11606211960315704,0.04538550227880478,0.10416301339864731,-0.016904208809137344,0.14888536930084229,0.016672244295477867,-0.06379342079162598,-0.09627508372068405,0.04896619915962219,0.14839226007461548,0.008074115961790085,-0.18606749176979065,-0.07135196775197983,0.03800966590642929,-0.1243734136223793,0.16198500990867615,0.17601104080677032,0.03262677416205406,-0.14846940338611603,-0.32001951336860657,-0.025945542380213737,0.1634712964296341,0.09272453188896179,-0.04215436428785324,-0.15828868746757507,-0.12435799092054367,0.00528983399271965,0.06662033498287201,-0.03770929202437401,0.007721147499978542,0.08484271913766861,-0.04770996421575546,-0.20197497308254242,-0.006136667914688587,-0.02898831106722355,0.08209384977817535,-0.15146194398403168,0.09611954540014267,0.053139712661504745,-0.22737456858158112,0.03747769445180893,-0.042034924030303955,-0.16853122413158417,-0.13864846527576447,-0.12776005268096924,0.09544973820447922,0.05655016005039215,0.09784235060214996,-0.2685581147670746,0.10449127107858658,-0.14060619473457336,-0.0016509878914803267,0.002572370693087578,-0.13003656268119812,0.17308999598026276,-0.04932531341910362,0.04144787788391113,0.00785735808312893,0.018419794738292694,0.02936754748225212,0.008816428482532501,0.07457290589809418,-0.017876358702778816,-0.088791623711586,-0.17764857411384583,0.03361470252275467,-0.030953435227274895,0.0666000172495842,-0.14587479829788208,-0.1696150004863739,-0.015612082555890083,0.0960211306810379,-0.0024307421408593655,0.03807804733514786,0.12897199392318726,0.017958233132958412,-0.035951077938079834,0.034618865698575974,0.06902781128883362,0.16306763887405396,0.06607136130332947,-0.24524106085300446,-0.0661652684211731,-0.024529052898287773,0.1544167846441269,-0.1492392122745514,0.1061289981007576,-0.0142466826364398,0.027172479778528214,0.06775904446840286,0.1666792780160904,0.021770674735307693,0.020029403269290924,-0.21127386391162872,-0.16639749705791473,-0.15797127783298492,0.12261602282524109,0.19601888954639435,0.11032021790742874,-0.254468709230423,-0.0306722242385149,0.0006773188943043351,-0.011392964981496334,-0.14762714505195618,0.0634310245513916,0.0449410118162632,0.0510115884244442,-0.05620981752872467,0.0429832860827446,-0.16380681097507477,-0.2499564290046692,0.11542769521474838,0.10349994897842407,0.13864736258983612,-0.22306838631629944,-0.13007089495658875,-0.08997920900583267,0.17346537113189697,0.047115590423345566,0.14783406257629395,-0.04453207924962044,-0.03442729264497757,-0.10440149158239365,0.2051422894001007,0.07476536184549332,0.14983950555324554,-0.21789154410362244,-0.17959898710250854,-0.18828947842121124,0.033651504665613174,0.013515223748981953,0.07918982952833176,-0.16106605529785156,0.007272377144545317,0.06196944788098335,-0.1920105367898941,0.13768433034420013,-0.07137137651443481,-0.18106137216091156,-0.19644874334335327,-0.0271606482565403,0.10692225396633148,-0.09802132099866867,0.13789214193820953,0.04435132071375847,0.03667371720075607,0.10754897445440292,-0.03359794616699219,0.1825748234987259,0.03435404971241951,-0.15975113213062286,0.04050484299659729,0.12919139862060547,0.1218179389834404,0.024561086669564247,0.09092087298631668,-0.020204249769449234,-0.03636428341269493,-0.23326486349105835,0.16863548755645752,0.16874219477176666,0.03731558099389076,-0.07413612306118011,-0.07551559805870056,-0.028581680729985237,0.23174726963043213,0.10031866282224655,-0.04807921499013901,-0.23088796436786652,-0.2221822887659073,-0.034758128225803375,0.23549796640872955,0.023431552574038506,0.24021592736244202,-0.14892415702342987,-0.023380538448691368,0.0854434221982956,0.21712198853492737,0.05892302840948105,0.19246451556682587,-0.22153358161449432,0.11783753335475922,0.13818104565143585,-0.2379182130098343,-0.025124406442046165,0.09604549407958984,-0.14876335859298706,-0.16721004247665405,0.02876552753150463,0.027285261079669,0.24227212369441986,0.0813516303896904,-0.32774171233177185,0.021699652075767517,-0.09180067479610443,0.20992709696292877,-0.15011268854141235,0.09139502793550491,-0.017033472657203674,0.1268795281648636,-0.036321885883808136,-0.004261987749487162,0.15703627467155457,-0.05435395613312721,-0.12209983915090561,-0.104182168841362,0.2021634578704834,0.007368291728198528,-0.11056990921497345,-0.1315181702375412,0.07593178004026413,0.21695277094841003,0.07917460799217224,-0.16885392367839813,-0.18714876472949982,0.05327548459172249,-0.021054504439234734,-0.04711340367794037,-0.03800846263766289,-0.0776103064417839,0.004884299356490374,-0.03351528197526932,-0.1446102261543274,0.018324222415685654,0.008462756872177124,-0.23109421133995056,-0.20300447940826416,-0.02660701796412468,0.0823657289147377,-0.21328212320804596,-0.12097199261188507,0.0199192613363266,-0.13042661547660828,0.04226116091012955,0.14420856535434723,0.183334082365036,-0.041738320142030716,-0.21485279500484467,-0.021640803664922714,-0.05775515362620354,0.0027498328126966953,-0.09974157810211182,0.0979260802268982,-0.1532112956047058,0.01002216711640358,0.21319788694381714,0.15857620537281036,-0.10625141113996506,0.06502635031938553,-0.10607192665338516,0.12841737270355225,-0.1562410295009613,-0.1492314487695694,-0.13722999393939972,-0.28630149364471436,0.0028713319916278124,-0.02935868501663208,0.155172199010849,-0.008768631145358086,-0.00514318747445941,-0.05755414813756943,-0.07858822494745255,-0.12219728529453278,0.16633525490760803,-0.05070513114333153,0.0020792188588529825,0.05934783071279526,-0.013719102367758751,-0.0286053828895092,0.09566298127174377,-0.09891946613788605,0.10203362256288528,-0.0713077113032341,0.13285763561725616,-0.018633855506777763,0.08061083406209946,-0.14365823566913605,-0.03131886199116707,-0.012574712745845318,-0.10026130825281143,0.0019000557949766517,-0.015831012278795242,-0.041892603039741516,0.02688807062804699,0.10679452121257782,0.11612679809331894,0.23697543144226074,0.12402726709842682,-0.12142209708690643,-0.15988874435424805,-0.1415010541677475,0.10496503114700317,-0.11763462424278259,0.12328465282917023,-0.0015778664965182543,0.040908727794885635,-0.10812567174434662,-0.2569674849510193,-0.10456813126802444,-0.026041822507977486,-0.08418544381856918,-0.16390521824359894,-0.01105189323425293,-0.03200381621718407,-0.09803424030542374,-0.11034368723630905,-0.0446208193898201,0.13210096955299377,-0.06464886665344238,-0.13707658648490906,-0.07144174724817276,0.0875307247042656,-0.02441445365548134,0.0024906303733587265,0.04148140922188759,-0.03632703050971031,-0.0003167902759741992,-0.13101992011070251,0.006360357161611319,-0.036496881395578384,-0.05759340524673462,-0.116784006357193,0.16436029970645905,-0.12942306697368622,-0.03495000675320625,-0.11092778295278549,0.019123097881674767,-0.06478734314441681,0.24497000873088837,0.22147324681282043,0.19143761694431305,0.06465286016464233,0.08088042587041855,-0.22163096070289612,-0.1188741996884346,-0.06887176632881165,-0.052876945585012436,0.074973464012146,0.0044217342510819435,-0.005970078054815531,-0.06394180655479431,-0.08063331246376038,-0.0024932995438575745,-0.09858164936304092,0.03461949899792671,0.15363632142543793,-0.12751422822475433,0.07503017038106918,0.0682605430483818,-0.03323164954781532,-0.17752417922019958,0.03149610757827759,0.05863165855407715,-0.09142424911260605,-0.0505158007144928,-0.15343227982521057,0.038565170019865036,0.058940839022397995,0.10198941826820374,0.08466841280460358,-0.08657746762037277,-0.12560637295246124,-0.1429654061794281,0.1813734471797943,-0.053710807114839554,0.08086125552654266,-0.326820433139801,-0.06969086825847626,-0.11220286041498184,0.23809660971164703,0.13629992306232452,0.054724618792533875,-0.03339604660868645,0.11578267067670822,-0.08070257306098938,-0.16651839017868042,0.07038292288780212,-0.14281047880649567,-0.05100516974925995,-0.12050037086009979,-0.037703849375247955,0.11579776555299759,-0.08905770629644394,0.2096843123435974,0.11311701685190201,0.07929281890392303,0.12671734392642975,0.02783307060599327,-0.06443249434232712,-0.0743706151843071,0.08529409766197205,-0.12017703056335449,0.07268094271421432,-0.0221145898103714,-0.09471704810857773,0.0402379147708416,0.023132022470235825,-0.0038218002300709486,-0.07475597411394119,-0.027751438319683075,-0.11692732572555542,-0.0070282467640936375,-0.13979113101959229,0.050173886120319366,-0.18653176724910736,-0.10012970119714737,-0.06455603986978531,0.11415164917707443,-0.07577802985906601,0.1931409388780594,0.07040708512067795,-0.11138561367988586,0.02068393863737583,0.08568970859050751,0.020838044583797455,0.176150843501091,-0.054542917758226395,-0.1267121583223343,0.046967118978500366,0.08556584268808365,-0.04064152389764786,-0.14656394720077515,0.1762162744998932,-0.01162770763039589,-0.023056579753756523,-0.00507717439904809,-0.047559186816215515,0.0905245989561081,-0.11603464186191559,0.1421024650335312,-0.16921702027320862,0.0026498015504330397,0.17979280650615692,0.15045689046382904,0.0038833424914628267,-0.14507339894771576,0.14975228905677795,0.012546450830996037,-0.08255075663328171,0.04889078810811043,-0.07502790540456772,0.0769275426864624,0.027401572093367577,0.05988325923681259,0.2186758667230606,-0.04516812413930893,-0.09813365340232849,0.022366126999258995,0.029044458642601967,-0.03453619405627251,0.027441367506980896,-0.16027423739433289,0.019739186391234398,0.16758038103580475,0.12159144133329391,0.08640701323747635,-0.07704325765371323,-0.21650105714797974,-0.003535846946761012,0.1019098237156868,-0.08498448133468628,0.22511686384677887,-0.05984453856945038,-0.13284945487976074,-0.22695715725421906,0.014567754231393337,0.1115715429186821,-0.018381793051958084,-0.19626453518867493,-0.01868845336139202,0.15612009167671204,-0.1758851706981659,0.1948353350162506,0.16395340859889984,-0.253009557723999,0.0038861280772835016,-0.06591822952032089,0.2718717157840729,-0.06532701849937439,-0.3144495487213135,0.025575347244739532,0.11721131205558777,-0.10303308814764023,0.10127287358045578,-0.053000859916210175,-0.10322050750255585,-0.036382630467414856,0.08991524577140808,-0.18281763792037964,0.15723371505737305,-0.10455001145601273,-0.1837221384048462,0.07130715250968933,0.1953885853290558,0.018301576375961304,-0.03373376280069351,0.2283370941877365,0.14446966350078583,0.0028009661473333836,-0.17703184485435486,0.25863561034202576,0.10879240930080414,-0.0644710436463356,-0.09351933747529984,0.18329660594463348,-0.13931182026863098,0.17736230790615082,0.10206557810306549,0.05036719888448715,0.13020631670951843,-0.023918652907013893,-0.13093307614326477,0.04301099479198456,-0.07084397226572037,0.17708154022693634,-0.04262905567884445,0.05038686469197273,0.08757004141807556,-0.12986509501934052,0.020564425736665726,-0.11020127683877945,0.05511051416397095,-0.0464274100959301,-0.06664597243070602,0.10273168981075287,0.009174412116408348,-0.21763797104358673,-0.021809572353959084,0.14933207631111145,0.1845759153366089,0.15448153018951416,-0.20060952007770538,0.09628665447235107,0.03948560729622841,0.05316055193543434,-0.14856736361980438,-0.062233053147792816,0.0652676597237587,-0.2150435745716095,-0.16767242550849915,0.1250208169221878,-0.03203728049993515,-0.16196343302726746,0.051258862018585205,0.08518780022859573,0.010903721675276756,-0.18276317417621613,-0.1062079668045044,-0.05390801653265953,0.26494044065475464,0.000028988188205403276,-0.023009857162833214,-0.08337066322565079,-0.21716468036174774,0.09397667646408081,0.252878874540329,0.17257621884346008,-0.04047628119587898,0.020238563418388367,-0.003971187863498926,-0.11284229159355164,0.11594431102275848,0.1811302900314331,0.1483471542596817,-0.25213152170181274,0.2429669350385666,-0.010051045566797256,-0.05630967393517494,-0.008074481971561909,-0.07012203335762024,-0.18881267309188843,-0.09448247402906418,-0.11877279728651047,0.22360791265964508,-0.08845794200897217,-0.01103933621197939,-0.01011194009333849,0.05097899213433266,0.056167058646678925,-0.21203720569610596,0.20488852262496948,0.024536728858947754,-0.18931356072425842,-0.13628876209259033,-0.022945642471313477,-0.035371147096157074,-0.036014556884765625,0.051120951771736145,0.01250943448394537,0.024115467444062233,-0.19925785064697266,0.0016549612628296018,-0.07591668516397476,0.1388578861951828,-0.22719508409500122,-0.12126654386520386,-0.08603684604167938,0.1469516158103943,0.008551967330276966,0.25505974888801575,-0.2512691020965576,-0.2276158481836319,0.009155834093689919,0.15735754370689392,-0.0095344427973032,0.1004519984126091,-0.30339500308036804,-0.21377651393413544,-0.12158580124378204,0.22278869152069092,0.12479069828987122,0.09864833205938339,-0.17645306885242462,0.2267856001853943,0.09184321761131287,-0.09489692747592926,0.16595666110515594,0.08870576322078705,0.002361758379265666,-0.05204612761735916,0.00939693208783865,0.11087648570537567,0.05472671985626221,-0.09733942151069641,0.1646490842103958,0.07974865287542343,0.2526598572731018,-0.11652857065200806,-0.0706760585308075,-0.03347024321556091,-0.04861096665263176,0.0779319703578949,0.20330026745796204,0.21407857537269592,0.1685916781425476,0.051289141178131104,0.27888113260269165,0.023196617141366005,-0.12717768549919128,0.22764062881469727,-0.08240896463394165,0.13217201828956604,0.11546310037374496,-0.1099303662776947,0.05192407965660095,0.004213324747979641,-0.05904095992445946,0.016901785507798195,0.062191929668188095,-0.05056074261665344,-0.10216529667377472,0.16840162873268127,0.21781551837921143,0.15860570967197418,0.09422123432159424,0.10556114464998245,-0.12857426702976227,0.13062512874603271,0.024325767531991005,0.04096733033657074,-0.15197400748729706,-0.05764929950237274,-0.09100151062011719,0.010320490226149559,-0.10651063919067383,-0.0757748931646347,-0.07114963233470917,0.0028421084862202406,-0.01839865930378437,0.22482222318649292,0.08577536791563034,0.06627204269170761,0.0673552006483078,-0.1598522961139679,-0.14373420178890228,0.16223151981830597,-0.07443458586931229,-0.0023566291201859713,0.20244789123535156,-0.03549167886376381,-0.006503777578473091,-0.00889509730041027,-0.03638926520943642,-0.07432123273611069,-0.1901358813047409,0.10469655692577362,-0.0018266183324158192,-0.17712844908237457,0.040689680725336075,-0.16176098585128784,0.2109396755695343,0.07405659556388855,0.07835126668214798,-0.07090695202350616,-0.08966725319623947,-0.024665270000696182,0.22070138156414032,-0.00650304788723588,0.1407833844423294,-0.10327835381031036,-0.04314596951007843,-0.22677434980869293,0.17981912195682526,0.16765405237674713,-0.054069992154836655,-0.25329431891441345,-0.19754795730113983,-0.03199490159749985,0.08849100023508072,-0.11399731785058975,0.06989698857069016,0.10087436437606812,-0.21555106341838837,-0.06046541407704353,-0.048080164939165115,0.061874229460954666,0.10737557709217072,-0.06882364302873611,-0.19589655101299286,0.1424618810415268,0.20723095536231995,-0.051023270934820175,0.11631380021572113,-0.00003143809954053722,-0.030814912170171738,-0.0726156085729599,-0.14882495999336243,0.02166358008980751,0.09034716337919235,0.14894719421863556,-0.1042172983288765,0.12444836646318436,0.05197729915380478,-0.10125108063220978,-0.10734956711530685,0.08533883094787598,0.06280042976140976,0.02074296772480011,-0.1470939815044403,-0.1521029770374298,0.06829040497541428,-0.04140646755695343,0.14544568955898285,0.0331270806491375,-0.008672766387462616,-0.1740664690732956,-0.09638743102550507,0.1778373122215271,-0.08139131218194962,0.17614823579788208,-0.09948456287384033,-0.002823781920596957,-0.16739584505558014,-0.05034622550010681,-0.07979673147201538,-0.0021556566935032606,-0.04872078448534012,-0.0754140168428421,0.07784619927406311,0.04276707395911217,0.04795157164335251,0.20300769805908203,0.0026057406794279814,-0.09236399084329605,-0.01665748655796051,0.20778511464595795,0.04763481393456459,-0.044330283999443054,0.09229406714439392,-0.10536091774702072,0.11233749240636826,0.060985252261161804,0.0065860990434885025,-0.1335223764181137,0.0035624729935079813,0.11632967740297318,0.04690917953848839,-0.05454627424478531,0.03713715821504593,0.02526557259261608,-0.015315046533942223,0.09022853523492813,0.7083663940429688,0.304961621761322,0.5626547932624817,-0.885058581829071,-0.48562005162239075,-0.038091421127319336,0.2327730506658554,-0.03931169956922531,0.2345287799835205,0.2942343056201935,-0.7492566704750061,0.3599834144115448,-0.04329583793878555,-0.779481053352356,-0.004638074431568384,-0.31436583399772644,-0.13275860249996185,-0.2739259898662567,-0.017073584720492363,-0.4083121418952942,0.054454732686281204,0.19020289182662964,-0.011510362848639488,-0.1563250720500946,-0.25656089186668396,-0.02605000138282776,-0.0800362080335617,-0.1203024834394455,-0.12368546426296234,-0.0385877899825573,0.3168479800224304,-0.07746816426515579,-0.0726647898554802,-0.1843377649784088,0.07284422218799591,-0.1922641545534134,-0.01901961863040924,0.03004026599228382,0.12633995711803436,-0.1002752035856247,-0.15480850636959076,-0.011814950965344906,-0.10172578692436218,0.1476592868566513,-0.13055886328220367,0.0911843404173851,0.1359391063451767,0.15408599376678467,-0.09205476939678192,0.1565672606229782,-0.24914994835853577,-0.3104219138622284,-0.02366090565919876,-0.08306903392076492,-0.19026421010494232,0.08218827843666077,0.25819119811058044,-0.13486091792583466,-0.001932209124788642,-0.21208976209163666,-0.10982746630907059,0.12127059698104858,0.04363945126533508,0.2212090641260147,-0.21273846924304962,-0.00935812946408987,-0.050723593682050705,0.3723565638065338,0.27012908458709717,0.22803306579589844,0.2832477390766144,0.02593417279422283,-0.21248415112495422,-0.17405502498149872,0.03162139281630516,-0.16277800500392914,0.34371641278266907,0.06051163002848625,-0.045629654079675674,-0.2203865349292755,0.17829376459121704,-0.006327745504677296,-0.000959067780058831,0.18159134685993195,-0.013683107681572437,-0.125408336520195,0.1231842041015625,-0.16863293945789337,0.22323384881019592,0.23973622918128967,0.07793816924095154,0.15922081470489502,-0.11177805066108704,-0.19755980372428894,-0.31369084119796753,-0.14800748229026794,-0.23189608752727509,0.20896856486797333,0.2437213808298111,0.30295491218566895,-0.04215747490525246,0.20530477166175842,-0.03629850968718529,-0.041641756892204285,0.13420310616493225,0.1411074995994568,-0.19169819355010986,0.32074347138404846,0.09844139218330383,0.11115215718746185,-0.3070429563522339,0.08391101658344269,-0.12328874319791794,-0.12676042318344116,-0.25182509422302246,-0.1741047203540802,-0.025497833266854286,-0.1259302794933319,0.26733461022377014,0.05310124158859253,-0.24635764956474304,-0.053924065083265305,0.03072143904864788,-0.043705567717552185,-0.06936794519424438,-0.038347598165273666,0.17115537822246552,-0.2666352689266205,-0.1927526742219925,0.17916381359100342,-0.3447784185409546,-0.09962392598390579,0.30544930696487427,-0.22115972638130188,-0.0227665938436985,0.21600385010242462,-0.002903528278693557,-0.025181535631418228,0.055313531309366226,-0.12482118606567383,-0.2542532980442047,-0.061181604862213135,0.2155284434556961,-0.06462451815605164,-0.25130465626716614,0.10997047275304794,-0.18029403686523438,-0.0864076018333435,0.27648037672042847,0.12972575426101685,-0.10148581117391586,-0.20440751314163208,-0.036312080919742584,-0.13402330875396729,-0.011763568967580795,-0.18923813104629517,0.09716392308473587,0.09499884396791458,0.12252791225910187,0.06306717544794083,0.02360977791249752,0.2083526998758316,0.16616640985012054,0.05181873217225075,-0.0886116623878479,0.03357962891459465,-0.14844223856925964,0.08161215484142303,-0.1617737114429474,-0.0919041559100151,0.011579223908483982,-0.1792803406715393,0.2767191529273987,-0.2692660987377167,0.16356785595417023,0.053707055747509,-0.12779229879379272,0.16854186356067657,-0.3831402063369751,-0.33436325192451477,-0.1111878901720047,0.06875019520521164,0.045221660286188126,-0.24334776401519775,0.2372002899646759,-0.09604474902153015,-0.12772826850414276,-0.1025800108909607,-0.26780450344085693,0.06548117101192474,0.1911725252866745,-0.1305488646030426,-0.008431069552898407,0.10732012987136841,-0.25001367926597595,-0.2304217517375946,-0.05137927085161209,-0.15432153642177582,0.017228228971362114,0.03617164492607117,-0.16034452617168427,0.020099014043807983,0.21664570271968842,0.007516766898334026,-0.25404664874076843,0.21387332677841187,-0.05278841033577919,-0.139228954911232,0.12651950120925903,0.24612940847873688,0.17689527571201324,0.2256263792514801,-0.11519467085599899,0.16775517165660858,-0.045504018664360046,-0.01039157621562481,0.1646086424589157,0.0981684997677803,-0.24978230893611908,-0.061542004346847534,-0.28522858023643494,-0.07500151544809341,0.0221871268004179,-0.22568847239017487,-0.09842149913311005,0.1216311901807785,-0.11108914762735367,0.12712356448173523,0.04640467092394829,0.1333082914352417,-0.09338759630918503,-0.004608564544469118,-0.02208433859050274,0.14406535029411316,0.11964775621891022,-0.21279458701610565,-0.36243966221809387,-0.24446092545986176,0.030424971133470535,0.014151000417768955,0.24953514337539673,-0.0568503700196743,0.2051832526922226,0.3427381217479706,-0.25781694054603577,-0.23306715488433838,0.06084417924284935,0.07683522254228592,-0.1472703367471695,0.11407802253961563,-0.2287769615650177,0.1803925633430481,0.2007472664117813,0.028445633128285408,-0.055627092719078064,0.12807634472846985,-0.0652824193239212,0.08680585771799088,-0.33680540323257446,-0.446319043636322,-0.14203740656375885,-0.06837145984172821,0.262445330619812,-0.10502178221940994,-0.11273722350597382,-0.019535474479198456,-0.22968415915966034,-0.11399220675230026,0.0007357241702266037,-0.1790521740913391,0.20443139970302582,0.013162686489522457,-0.19469624757766724,0.028259096667170525,0.08351430296897888,-0.030343564227223396,0.04543287307024002,0.01984710432589054,-0.023698747158050537,0.050065960735082626,-0.022185124456882477,0.1629631072282791,0.07583033293485641,0.00618800800293684,-0.00013043648505117744,-0.19653388857841492,-0.05115846171975136,0.008377633057534695,0.13875827193260193,0.07370534539222717,0.05720533803105354,-0.18443842232227325,-0.04393604025244713,-0.11761847883462906,-0.057684823870658875,-0.03761584311723709,-0.1238696500658989,0.16818813979625702,0.0620855912566185,-0.19664984941482544,-0.14642855525016785,0.012865027412772179,-0.20498302578926086,0.3552684485912323,0.050979748368263245,-0.06102404743432999,-0.06567420065402985,-0.02311229333281517,0.06509089469909668,0.16667954623699188,-0.003547120140865445,-0.20080114901065826,0.15067042410373688,-0.11680708080530167,0.09848666191101074,0.12362684309482574,-0.06977200508117676,-0.09538056701421738,0.06052740290760994,-0.02738451585173607,-0.09249620139598846,0.07660768181085587,-0.006057247519493103,-0.14327409863471985,-0.04240257292985916,-0.053418006747961044,0.07272486388683319,-0.12945760786533356,-0.09678493440151215,-0.04740925505757332,-0.11988867074251175,0.03273330256342888,0.10168441385030746,0.02921285666525364,0.028542079031467438,-0.01659143902361393,0.0509503148496151,0.0340871661901474,0.1314365118741989,-0.036462366580963135,-0.13224618136882782,0.12063091993331909,-0.14007163047790527,-0.14092524349689484,0.07898106426000595,-0.106931671500206,0.12981544435024261,-0.059369850903749466,0.15000946819782257,0.017405666410923004,-0.07940243184566498,0.018211690708994865,-0.05212143063545227,-0.19710777699947357,-0.18623723089694977,0.05923464894294739,0.21413516998291016,-0.008611373603343964,0.04504344239830971,-0.16100682318210602,-0.07763340324163437,0.0441615916788578,0.16674569249153137,0.033553268760442734,0.12574386596679688,-0.10426683723926544,0.11833401769399643,-0.18999096751213074,0.20802469551563263,-0.09666725248098373,-0.0731373280286789,-0.11398274451494217,-0.049773454666137695,-0.19067580997943878,0.09885912388563156,-0.02945803478360176,-0.11337485164403915,0.14751885831356049,0.0805516317486763,-0.02084234170615673,-0.053265202790498734,0.01896859146654606,-0.026239195838570595,-0.08494719117879868,-0.10465537011623383,-0.09001409262418747,0.16261161863803864,0.01434231922030449,0.2084546983242035,-0.04073025658726692,-0.077177993953228,-0.016636326909065247,-0.11177656054496765,-0.032744262367486954,0.111317478120327,-0.003982191439718008,-0.1462680846452713,-0.14181898534297943,0.021995853632688522,0.06008317694067955,0.1176825612783432,0.3040573000907898,0.019686752930283546,-0.034656256437301636,-0.145582914352417,-0.1401187926530838,-0.1830722838640213,-0.034804053604602814,0.0988733097910881,-0.023945482447743416,-0.22962048649787903,0.08874224871397018,-0.2077866643667221,0.19637905061244965,0.10180941224098206,0.19833718240261078,-0.04544471204280853,0.009008190594613552,0.009021587669849396,0.12553715705871582,-0.06734756380319595,0.08523068577051163,-0.11192828416824341,0.10991773754358292,0.14013169705867767,-0.09221279621124268,0.022092634811997414,-0.0011579839047044516,0.09519466012716293,0.028729895129799843,-0.2208111435174942,0.047172605991363525,-0.11432171612977982,-0.12343163043260574,0.09816928952932358,0.0295877642929554,0.11188630014657974,-0.25157421827316284,0.05932767689228058,0.17863023281097412,-0.16089721024036407,0.12458992749452591,-0.12337234616279602,0.18595176935195923,0.02959318459033966,0.0037876921705901623,0.19689206779003143,-0.03782254830002785,0.013480485416948795,0.3527590334415436,0.15235812962055206,-0.05317161604762077,-0.013958921656012535,0.004955978598445654,-0.10582839697599411,-0.06881280988454819,0.061184000223875046,0.037911321967840195,-0.03312915191054344,-0.19319342076778412,-0.03708513081073761,0.14639386534690857,-0.0027431559283286333,0.14227110147476196,-0.24275891482830048,-0.0984601303935051,-0.12463493645191193,0.021750448271632195,0.029454311355948448,0.13523265719413757,-0.16999590396881104,-0.011225230991840363,0.11560375243425369,-0.29374071955680847,0.15621690452098846,-0.03730826452374458,0.22037845849990845,0.019927827641367912,-0.09116830676794052,0.05444389581680298,-0.03630903363227844,0.16223661601543427,0.05142044275999069,-0.058772556483745575,0.06105811893939972,-0.008666721172630787,0.06050390377640724,0.04023841768503189,0.11907333135604858,0.00628234539180994,0.16954174637794495,0.042299672961235046,0.1176428571343422,0.028494279831647873,0.026355069130659103,0.13102567195892334,0.007729903794825077,-0.141922727227211,0.12464170902967453,-0.030003366991877556,-0.0873229131102562,0.10620494186878204,-0.013169430196285248,0.06268422305583954,0.033243998885154724,0.047248274087905884,0.18012426793575287,0.11403533071279526,0.03087672032415867,0.14869336783885956,-0.10708808898925781,0.01779894344508648,-0.11260776966810226,0.10370273888111115,-0.1568625271320343,-0.09725139290094376,-0.1755797117948532,0.08475843816995621,0.02073250152170658,-0.0038050608709454536,0.06525738537311554,-0.08405227214097977,-0.13968981802463531,-0.0964890718460083,-0.07072806358337402,-0.10376030206680298,-0.028564032167196274,0.10413015633821487,-0.08335015922784805,0.10105766355991364,-0.2460121214389801,-0.10433390736579895,-0.016336016356945038,0.19180987775325775,0.0855855643749237,-0.00887549202889204,0.045646023005247116,0.01786527968943119,-0.008501596748828888,-0.15802955627441406,-0.07975310832262039,-0.05909479036927223,-0.07517337054014206,-0.05941971018910408,-0.10098014026880264,-0.08409657329320908,0.04921674728393555,-0.09512922167778015,-0.07721634209156036,0.008895756676793098,0.11616645753383636,-0.07179417461156845,-0.073701873421669,-0.15415450930595398,0.055928751826286316,0.016553804278373718,0.13656529784202576,-0.22141137719154358,0.040044862776994705,-0.025838829576969147,-0.0072897812351584435,-0.1440608650445938,0.1367378532886505,-0.1536422222852707,0.061070892959833145,-0.1169857531785965,-0.015128592029213905,-0.17467562854290009,-0.09486444294452667,0.08930373191833496,-0.04325050860643387,0.05806107446551323,-0.021969806402921677,0.10439477860927582,0.1451614946126938,-0.07954861968755722,0.005167610943317413,0.0632689818739891,0.06600604206323624,0.07181448489427567,-0.12961892783641815,0.08635367453098297,-0.03555678948760033,-0.19221922755241394,0.20863409340381622,-0.1659691035747528,-0.07950298488140106,-0.0658574104309082,0.11251305043697357,0.18318529427051544,-0.19624577462673187,0.10313187539577484,0.12378475069999695,-0.12418263405561447,-0.014649181626737118,0.06551390886306763,0.18057167530059814,0.029858432710170746,0.05086240917444229,-0.015879405662417412,-0.11382060497999191,-0.14056985080242157,0.26195386052131653,0.10107824206352234,0.2142958641052246,-0.14025111496448517,-0.029904646798968315,0.03821840509772301,0.30227357149124146,0.025282731279730797,-0.001951403683051467,0.0034356089308857918,-0.09598708897829056,0.029652342200279236,0.2257094532251358,0.01843537762761116,0.031761255115270615,0.21598806977272034,-0.15406957268714905,-0.17455649375915527,-0.11747237294912338,0.19219765067100525,0.07181359827518463,0.036965835839509964,0.07743468880653381,-0.0011183514725416899,0.1592625230550766,0.04037586227059364,0.07427137345075607,-0.10816168785095215,-0.024584868922829628,-0.026796499267220497,0.06554943323135376,0.06257053464651108,0.06810334324836731,0.003497724188491702,-0.061326660215854645,-0.15521974861621857,0.018052516505122185,-0.09771178662776947,-0.08066004514694214,0.07211854308843613,0.012051912024617195,0.049319081008434296,-0.12313173711299896,0.049177128821611404,-0.22906982898712158,-0.05331389233469963,-0.03303556144237518,0.0945475772023201,0.04389621689915657,-0.062835194170475,-0.051702097058296204,0.025517411530017853,-0.046528540551662445,0.018029147759079933,0.01388683170080185,-0.1516258269548416,-0.162802055478096,0.18383458256721497,0.0539686344563961,0.06850828975439072,-0.06754462420940399,0.05666607990860939,0.10319142788648605,-0.13809910416603088,-0.0399804562330246,-0.07942844182252884,-0.10843198746442795,-0.021822728216648102,-0.07242292910814285,0.12091365456581116,0.06430672109127045,-0.06906991451978683,-0.02551533281803131,0.07360934466123581,0.04485812783241272,-0.13912001252174377,-0.03492939844727516,-0.08351808786392212,-0.16277484595775604,-0.11265888810157776,-0.04543536528944969,-0.03826902061700821,0.07663178443908691,-0.1860535442829132,0.19856654107570648,0.013461369089782238,-0.09774938225746155,0.32126471400260925,0.013191704638302326,-0.09018939733505249,-0.12474476546049118,0.012002057395875454,-0.279941588640213,-0.014445646665990353,0.12187632918357849,0.043639201670885086,-0.09095971286296844,-0.10803237557411194,-0.19480781257152557,0.22778089344501495,-0.07267860323190689,0.040282923728227615,-0.1808479130268097,-0.015408661216497421,0.01990325376391411,-0.061843063682317734,0.11549080908298492,0.1360560953617096,-0.12073931843042374,-0.061534684151411057,0.08310376107692719,-0.05325077846646309,-0.07658030837774277,0.022382795810699463,-0.04852333292365074,-0.14387522637844086,-0.08799662441015244,0.10957307368516922,-0.015850111842155457,0.08474287390708923,0.029137106612324715,-0.15936985611915588,0.017960933968424797,-0.10570824891328812,0.0752887949347496,0.2913384735584259,-0.08858884871006012,0.1923900544643402,0.09635952860116959,0.07201969623565674,0.014238297007977962,-0.03214474022388458,0.0258332472294569,0.20252326130867004,0.08654157817363739,0.10392938554286957,-0.010176589712500572,0.04078949987888336,-0.07549784332513809,0.18737614154815674,0.175337553024292,0.17480847239494324,-0.05350273475050926,0.37098827958106995,0.13285240530967712,0.029030444100499153,-0.18308976292610168,0.04971712455153465,0.08508753031492233,0.3426765501499176,-0.05184609442949295,-0.033504668623209,-0.05305986478924751,-0.01612991653382778,-0.04089567810297012,0.12442557513713837,-0.028494050726294518,-0.06007014960050583,0.15504436194896698,0.013209597207605839,0.12291150540113449,-0.07230758666992188,-0.1342298537492752,0.22446811199188232,0.12978225946426392,-0.03586564213037491,-0.055913105607032776,-0.0577276349067688,0.061980247497558594,-0.011539896950125694,0.15457208454608917,-0.009987524710595608,0.03649020195007324,0.17610828578472137,-0.06441176682710648,-0.014964536763727665,0.09150797873735428,0.12650758028030396,-0.1064232662320137,0.09374944865703583,0.22281423211097717,0.013900184072554111,0.0750972181558609,-0.020964762195944786,0.03385547548532486,-0.09976798295974731,-0.09941060841083527,-0.02776268869638443,0.07836539298295975,0.020862985402345657,0.14807410538196564,0.004800621885806322,-0.04866904392838478,-0.03574460372328758,0.10953757911920547,-0.029787547886371613,0.18302930891513824,0.19443677365779877,-0.004323720000684261,0.04441554844379425,0.0053854999132454395,0.001334108877927065,