{"version":"0.4.0","metadata":{"name":"Deluxe Reverb Vibrato","modeled_by":"Steve Atkinson","gear_type":"amp","tone_type":"clean"},"architecture":"LSTM","config":{"input_size":1,"hidden_size":24,"num_layers":3},"weights":[2.048957347869873,0.193341463804245,0.14769084751605988,-0.16543838381767273,-0.6908612847328186,0.6639771461486816,0.47305065393447876,-0.06555165350437164,0.020817343145608902,-0.20372374355793,0.6323392987251282,-0.11024472862482071,-2.798771381378174,0.06499644368886948,0.08967312425374985,-0.1117325872182846,0.036686476320028305,0.18678882718086243,0.25188887119293213,0.36184197664260864,-0.21128882467746735,-0.04348641633987427,-0.032032620161771774,-0.06206130608916283,-0.496493935585022,-3.016432046890259,0.043959975242614746,-0.10060198605060577,-0.47396570444107056,-0.03651343286037445,-0.09001471847295761,0.20532244443893433,-0.07184195518493652,-0.3238714039325714,-0.16785477101802826,-0.01334442663937807,-0.14938491582870483,0.15865154564380646,-0.33280858397483826,-0.06984790414571762,-0.027502285316586494,0.15483412146568298,0.022665100172162056,-0.1901601254940033,0.10746746510267258,-0.04341301694512367,0.8817045092582703,0.0981762707233429,0.3872948884963989,0.4083728790283203,0.6341379880905151,-0.2639393210411072,0.00047810873365961015,-0.085899218916893,0.03474294766783714,0.03254050388932228,0.029703589156270027,-0.32295507192611694,-0.5372757911682129,-0.02173665538430214,0.27958565950393677,0.06254665553569794,-0.0617235042154789,0.2297457456588745,-0.21375329792499542,-0.1402188539505005,0.013773195445537567,0.21636097133159637,0.09641322493553162,-0.26955920457839966,-0.33504536747932434,-0.19880148768424988,-0.28708043694496155,-0.18389460444450378,-0.20097698271274567,1.2054336071014404,0.1512652039527893,-0.4799761176109314,-0.026874350383877754,0.2130637764930725,0.11920544505119324,0.09302815049886703,-0.312834769487381,0.3428840935230255,0.010927255265414715,-0.2604643404483795,-0.2555932104587555,2.526639461517334,-0.5473155975341797,0.06858016550540924,0.08627551794052124,-0.8529782891273499,0.10352164506912231,-0.2106979787349701,-0.4394134283065796,-0.2981429696083069,0.7577933073043823,0.19572728872299194,1.0374133586883545,0.22809521853923798,1.3744105100631714,0.2549518644809723,0.028221549466252327,-0.2766875624656677,0.027446219697594643,-0.20912179350852966,0.14368405938148499,-0.5170418620109558,0.19350983202457428,0.011947023682296276,-0.13277438282966614,-0.20400333404541016,0.4056170582771301,-0.14222143590450287,0.3999834358692169,-0.2794499397277832,-0.0734039694070816,0.1543390154838562,0.18310010433197021,-0.15436610579490662,-0.10817170888185501,0.06508078426122665,-0.4292232394218445,0.30232495069503784,0.017530271783471107,0.29289451241493225,-0.9262003898620605,-0.37140828371047974,0.44840994477272034,-1.0158429145812988,0.6072778701782227,0.2512175142765045,-1.1030093431472778,-0.002745951758697629,0.17448388040065765,0.24589678645133972,-0.5200793147087097,0.09203615039587021,-0.5137282609939575,-0.6516503691673279,0.49952855706214905,0.24822048842906952,-0.18478165566921234,-0.17577125132083893,0.8214370012283325,-0.5294921398162842,0.594385027885437,-0.6960861086845398,0.3843683898448944,-0.5597902536392212,0.6476036310195923,-0.002901612315326929,0.09892252087593079,-0.4649192988872528,-0.11469081789255142,0.037834081798791885,-0.15099842846393585,0.12274640053510666,-0.41997048258781433,0.003979664295911789,0.13779015839099884,-0.21713489294052124,-0.062372852116823196,0.1775793731212616,-0.33409836888313293,-0.3868163228034973,-0.4149476885795593,-0.25287917256355286,-0.2778531014919281,-0.3419952392578125,0.002577897161245346,0.556877613067627,0.05688581243157387,0.5322324633598328,0.4142455756664276,-0.3512687087059021,-0.3001449704170227,-0.5367367267608643,-0.4268401265144348,0.23756451904773712,0.46814101934432983,0.2695516347885132,-0.7597129940986633,-0.11376910656690598,-0.385334849357605,0.2513551115989685,-0.09675773233175278,0.7728744745254517,-0.49765002727508545,-0.14345432817935944,0.02606324478983879,-0.03151309862732887,0.2918923497200012,-0.45831844210624695,-0.01818661205470562,-0.39140748977661133,0.46486303210258484,-0.49127086997032166,0.05516165494918823,-0.3988439738750458,0.05758725479245186,0.09133324027061462,0.0011628608917817473,-0.23020850121974945,0.05726207420229912,0.09955181181430817,0.02262086048722267,-0.1090625673532486,-0.242747962474823,0.23727533221244812,-0.19973108172416687,0.02784525789320469,0.34666678309440613,0.03217471018433571,0.11887754499912262,-0.12246123701334,0.04033597558736801,0.1491788774728775,-0.0802237018942833,-0.0516691729426384,0.011906984262168407,0.07613246142864227,-0.14314953982830048,0.05255291983485222,0.06273335963487625,2.2454466819763184,-0.024730538949370384,-0.2702670991420746,-0.1715027093887329,0.12121489644050598,-0.01992395706474781,-0.06250545382499695,-0.4019668996334076,-0.13776108622550964,-0.08158309757709503,0.013098452240228653,-0.21782507002353668,-0.3635123670101166,-0.13393275439739227,0.1718902736902237,-0.13082167506217957,0.11353873461484909,0.03746022284030914,0.00942867062985897,-0.12326107919216156,-0.3892281949520111,0.6228287816047668,-0.28308966755867004,-0.0008378007332794368,-0.3141828775405884,-3.245802640914917,0.4029110074043274,-0.22844286262989044,-0.1776694506406784,0.28932633996009827,-0.08027144521474838,-0.15589159727096558,-0.028192587196826935,0.22303137183189392,-0.004059250466525555,-0.1460326462984085,0.12006569653749466,1.225023627281189,-0.2593645453453064,0.24172522127628326,-0.10227376222610474,0.1990400105714798,-0.18854275345802307,-0.03381309285759926,-0.0591115802526474,0.9637766480445862,-0.6681304574012756,-0.26648029685020447,-0.10063774138689041,0.23740747570991516,-1.8576722145080566,-2.5888895988464355,-2.7158913612365723,1.2172634601593018,-2.0509164333343506,2.0458931922912598,-2.2552385330200195,2.391691207885742,0.9574933052062988,0.9565038681030273,2.6733996868133545,0.6361970901489258,0.1360512226819992,-2.25980281829834,-1.9279553890228271,1.4123090505599976,-0.7171441316604614,-2.0128707885742188,0.6675446629524231,1.4362733364105225,2.4131219387054443,-2.07397198677063,2.591871500015259,0.05693155154585838,-1.5108370780944824,-2.9120802879333496,-0.15023508667945862,-0.24718019366264343,-0.07675664126873016,0.14338073134422302,-0.39574554562568665,-0.16231803596019745,0.0521882139146328,0.06748001277446747,-0.2601650357246399,-0.3193491995334625,-0.065568707883358,0.6690545082092285,-0.19517135620117188,-0.07608629763126373,-0.06625176221132278,0.18488948047161102,-0.1656896322965622,-0.297696053981781,-0.06873501092195511,0.4861311912536621,-0.4832611382007599,0.020732052624225616,0.1838800013065338,0.24514426290988922,2.2541651725769043,-0.13805408775806427,-0.08329003304243088,-0.3921653926372528,-0.29598018527030945,0.2600748836994171,-0.3110733926296234,0.05703049153089523,-0.021626658737659454,0.03812860697507858,0.10061050951480865,-0.4455384612083435,0.566556990146637,-0.15743079781532288,0.1281362920999527,-0.022483602166175842,-0.15737159550189972,0.2721976041793823,-0.008847134187817574,-0.04868714511394501,0.06430845707654953,-0.9793856143951416,0.3421410620212555,-0.351992666721344,-0.026098068803548813,0.570126473903656,0.2880021631717682,-0.0059497463516891,-0.3131400942802429,-0.14821766316890717,0.13258950412273407,-0.08259416371583939,-0.05802857130765915,-0.30898717045783997,-0.147530660033226,-0.16743457317352295,-0.07641392201185226,0.5738445520401001,-0.08577508479356766,0.3474932312965393,-0.14094287157058716,0.027908915653824806,0.25253695249557495,-0.06341273337602615,0.013348409906029701,0.08469972759485245,-0.07662101835012436,-0.07782137393951416,0.016621969640254974,0.1393759548664093,-1.4628689289093018,0.547681450843811,-0.07240575551986694,0.10020831227302551,0.09955176711082458,0.018419893458485603,-0.5895864963531494,-0.09141568839550018,0.08974617719650269,0.243157297372818,-0.011092986911535263,-0.4818038046360016,0.24369578063488007,-0.1529906690120697,-0.006098125595599413,0.26161885261535645,-0.11762440949678421,0.05159412696957588,0.03454936295747757,-0.4549625813961029,0.2123681604862213,-1.3788518905639648,0.2844837009906769,0.05304018408060074,-0.27010130882263184,-1.06070077419281,-0.022783514112234116,-0.024065610021352768,-0.16950656473636627,0.49237436056137085,-0.2973504960536957,0.41610535979270935,-0.1018461361527443,-0.15407626330852509,-0.06773675233125687,-0.5799031853675842,-0.16539745032787323,-0.15699252486228943,0.39938363432884216,-0.006908275652676821,0.13768675923347473,0.16809232532978058,0.01738370768725872,-0.41255542635917664,-0.1819571703672409,0.05852285400032997,-0.48266300559043884,0.06835489720106125,0.40804001688957214,0.5828855633735657,-0.010182906873524189,0.36556297540664673,-0.6947423815727234,-0.12278615683317184,-0.5580217242240906,0.6068432927131653,-0.24585610628128052,0.012009245343506336,0.05957336351275444,-0.035183653235435486,0.47609248757362366,-0.2709779143333435,-1.3122667074203491,-0.28653690218925476,-0.3365456759929657,0.12931974232196808,0.27274295687675476,-0.09766148775815964,0.40975940227508545,-0.808729887008667,-0.22849532961845398,-0.2834317982196808,0.04454941302537918,0.3449363708496094,-0.2416238635778427,1.5104665756225586,-0.002239488996565342,0.10540533065795898,0.43876978754997253,-0.5724850296974182,-0.04421880096197128,-0.42205172777175903,-0.36637067794799805,0.31535565853118896,-0.016622468829154968,-0.3679195046424866,-0.11060008406639099,-3.7094976902008057,-0.07232356071472168,-0.020471276715397835,0.08726247400045395,0.13296429812908173,0.30545511841773987,0.9373006224632263,-0.5419206023216248,0.4252804219722748,-0.994270920753479,0.08814471960067749,-0.12496068328619003,-0.30983930826187134,-1.4848955869674683,0.32068079710006714,-1.0351780652999878,-0.40397173166275024,0.47728365659713745,-0.05066128447651863,-0.613589346408844,1.186692237854004,-0.09695272892713547,-0.230741947889328,0.11032268404960632,-0.2507125735282898,3.8206942081451416,-0.7318412065505981,1.1027554273605347,-0.293761283159256,-0.8645290732383728,-0.07322768867015839,-1.3976283073425293,-0.84270840883255,-0.3392539322376251,-0.42212069034576416,0.35871025919914246,0.838189423084259,0.6918489933013916,-4.512609481811523,0.2182488739490509,-0.4930441081523895,0.5148372650146484,-0.29242798686027527,0.5524638891220093,-0.7948968410491943,0.2831612229347229,0.38975009322166443,0.23762395977973938,0.4907377362251282,-0.13166289031505585,1.4991477727890015,0.034922972321510315,0.09750282019376755,0.1838301122188568,-0.26253700256347656,-0.4050431251525879,0.2894965410232544,-0.35892146825790405,0.6664612889289856,-1.5376429557800293,0.5790559649467468,0.6114532351493835,-0.3003905117511749,0.5011210441589355,-0.03439905494451523,-0.5939598083496094,-0.32800382375717163,0.25692176818847656,0.10654782503843307,-0.4852462112903595,0.021430661901831627,-0.05503266677260399,-0.03641081228852272,0.16494283080101013,0.0894346609711647,-0.744533896446228,-0.12385250627994537,-0.23645946383476257,0.11964762210845947,-0.30879661440849304,-0.038586921989917755,0.016389546915888786,0.8430457711219788,0.00037606063415296376,0.3548544645309448,0.028718233108520508,0.3931958079338074,0.47485464811325073,0.007924136705696583,-0.0733209177851677,0.06731334328651428,0.14528003334999084,-0.30616962909698486,0.04536261782050133,-0.04961564019322395,-0.07881447672843933,-0.10822858661413193,0.12874668836593628,0.2563495934009552,0.0703960657119751,0.055668026208877563,-0.03863169625401497,-0.24932613968849182,0.031220480799674988,-0.1032334417104721,-0.1465263068675995,0.14475098252296448,0.4445500373840332,-0.12106581032276154,0.16155695915222168,0.09527519345283508,-0.10972265154123306,-0.3680497407913208,1.3145105838775635,-0.019441036507487297,-0.06731624901294708,-0.20459851622581482,0.21394789218902588,-0.09551923722028732,0.12128617614507675,-0.6289610862731934,-0.14648789167404175,-0.346924364566803,-0.13154129683971405,-0.2845713496208191,0.056720998138189316,0.06315413862466812,0.36238083243370056,-0.38518115878105164,0.296976774930954,0.5015155673027039,0.25569385290145874,0.1357434242963791,-0.31211692094802856,-0.15011298656463623,-0.5688452124595642,-0.1290668100118637,0.19799555838108063,1.9418596029281616,0.08874421566724777,-0.20484815537929535,0.10745146870613098,-0.2888284921646118,0.4096551835536957,-0.5726684927940369,0.2747631072998047,0.06776103377342224,0.16426187753677368,0.6060172319412231,0.050301194190979004,-0.29670950770378113,-0.17207399010658264,0.06045975536108017,-0.05282420665025711,-0.5252202153205872,0.18477587401866913,0.036372583359479904,0.07733789831399918,-0.28533706068992615,0.44871869683265686,0.293818861246109,0.03423766419291496,-0.5566986799240112,-3.297266721725464,-0.04230566695332527,-0.01894117146730423,-0.27150294184684753,-0.02378929778933525,-0.1397639662027359,0.3905186653137207,-0.2715131938457489,-0.24379365146160126,-0.26423394680023193,-0.02950999327003956,-0.14273709058761597,-0.460383802652359,-0.0893019512295723,0.1588265597820282,-0.2192833423614502,0.3754500448703766,-0.08115684241056442,-0.288554847240448,0.18089938163757324,-0.31599658727645874,0.472027987241745,0.04595936834812164,0.19412308931350708,0.6524944305419922,2.415463447570801,-0.05790994316339493,-0.03694093972444534,-0.29697155952453613,-0.14026202261447906,-0.009267722256481647,0.1776350438594818,0.5895962715148926,-0.7110648155212402,0.1667979210615158,0.3657338619232178,-0.1875876635313034,-0.2745892107486725,0.09337843954563141,0.04972820356488228,-0.2613303065299988,0.2862084209918976,0.028149910271167755,-0.022077776491642,-0.09400203824043274,-0.40763017535209656,-0.29592007398605347,0.12532290816307068,0.04839151352643967,0.015719223767518997,0.9048746228218079,0.4310983121395111,0.139942467212677,0.15854528546333313,0.5343303680419922,-0.1999984234571457,-0.06522849947214127,-0.9647319912910461,-0.06668859720230103,0.18820589780807495,-0.3243403732776642,-0.05706612393260002,0.889647901058197,-0.2133316844701767,0.2457466423511505,-0.09486724436283112,-0.7651609182357788,0.13646608591079712,0.1199960708618164,-1.5187900066375732,-0.040197111666202545,-0.4589492082595825,-0.4867163896560669,0.9111065864562988,-0.11265247315168381,2.1754913330078125,0.1237153559923172,-0.06510255485773087,-0.10941555351018906,0.004991709720343351,0.019793879240751266,0.1888529360294342,-0.2510172724723816,-0.0644650012254715,0.20846250653266907,-0.3337605893611908,0.22098402678966522,0.09373508393764496,-0.24173445999622345,0.36148813366889954,-0.16871099174022675,-0.1304805427789688,-0.03310695290565491,-0.02683110348880291,-0.31288406252861023,-0.2489093542098999,-0.22151969373226166,-0.2656051218509674,0.2184087485074997,0.04581403359770775,-0.32999342679977417,0.05557515472173691,0.11461328715085983,0.11057504266500473,-0.2066882997751236,-0.17272882163524628,0.11042297631502151,-1.363260269165039,-0.16785292327404022,0.29646462202072144,-0.7547919750213623,-0.17482203245162964,0.11324407160282135,-0.17274940013885498,-0.04979388788342476,0.3989444077014923,-0.22687895596027374,0.10262984037399292,-0.3093045651912689,0.01399653498083353,-0.4097098708152771,0.5267755389213562,-1.2371313571929932,0.5566686987876892,-0.12872622907161713,1.1730467081069946,-0.1428631842136383,0.4274198114871979,-0.055905718356370926,0.15129223465919495,0.0977225974202156,-0.2803885042667389,-0.12788519263267517,-0.4397604167461395,-0.0029309752862900496,0.14637549221515656,-0.0016567709390074015,-0.9551635384559631,0.2924065887928009,0.4543647766113281,-0.020613832399249077,-0.15627719461917877,0.01461120881140232,-0.10624039173126221,-0.5265048742294312,-0.3623809218406677,0.15423506498336792,-0.24295197427272797,0.26978233456611633,0.09006921947002411,0.3196718394756317,-0.19563829898834229,0.4140773117542267,0.03494520112872124,0.21263962984085083,0.1935501992702484,0.1052182987332344,-0.35197049379348755,0.09052279591560364,0.16185283660888672,0.0430004708468914,-0.23427481949329376,0.4815383851528168,-0.25728318095207214,-0.43024420738220215,0.384255588054657,-0.08317415416240692,-0.1117652878165245,0.21622182428836823,0.24763956665992737,-0.5322592258453369,0.13627591729164124,0.14621590077877045,0.0014967155875638127,-0.379964679479599,0.3164782226085663,0.34677377343177795,-0.04071706160902977,-0.1231117770075798,-0.07807420194149017,-0.02402096800506115,0.010758724994957447,0.006483088247478008,-0.18951666355133057,-0.09095524996519089,0.013642380945384502,-0.05336181819438934,0.1243891641497612,0.33323413133621216,0.2647615969181061,-0.11218369007110596,0.0005602844757959247,0.018434450030326843,-0.1085522398352623,-0.31351640820503235,0.2180708348751068,-0.18040327727794647,0.06101316586136818,0.3471052646636963,-0.0404437817633152,3.3931431770324707,-0.22482365369796753,0.24005335569381714,-0.38856297731399536,0.357738196849823,-0.01263083703815937,0.25153303146362305,-0.5411596894264221,-0.4182600975036621,-0.2909102737903595,-0.11652818322181702,-0.158822700381279,-0.005024110432714224,0.1578565090894699,0.345013290643692,-0.05724622309207916,0.148760125041008,0.10569894313812256,-0.07362018525600433,-0.053995531052351,-0.41999146342277527,0.2978714108467102,-0.4805668592453003,0.07956290245056152,-0.08399855345487595,-2.4739904403686523,0.2758843004703522,0.3240824341773987,-0.09071360528469086,0.12273472547531128,-0.361512154340744,-0.3782137930393219,-0.1200837567448616,-0.2574126422405243,0.16522255539894104,-0.6630024313926697,-0.5495710372924805,0.13349571824073792,0.3514100909233093,0.16451282799243927,-0.03842385858297348,-0.3400966227054596,0.29986387491226196,0.18611714243888855,-0.3297077417373657,-0.042910102754831314,-0.47832322120666504,-0.13832807540893555,0.35702070593833923,0.47241267561912537,-3.6607794761657715,0.5018948316574097,0.7436102628707886,1.0989855527877808,1.3579106330871582,-0.654697597026825,0.09995650500059128,-1.1067794561386108,-0.3525831401348114,-0.17712676525115967,-1.282387375831604,-1.83362877368927,-0.017765430733561516,0.5961927771568298,-0.18999096751213074,-0.13654613494873047,-1.562934398651123,0.14858844876289368,0.05070212483406067,-2.156851053237915,-2.244684934616089,4.11490535736084,-0.031234921887516975,0.9430848360061646,0.006588713265955448,-1.950371503829956,-0.4424284100532532,-0.2706582248210907,0.037958141416311264,-0.26542171835899353,-0.4745105504989624,-0.05428019165992737,0.31901413202285767,-0.06668721139431,-0.07844605296850204,0.15546995401382446,0.10688396543264389,-0.1587209403514862,-0.035789161920547485,0.13738422095775604,-0.0556604266166687,0.08532582223415375,-0.18782532215118408,-0.10268238931894302,0.020665781572461128,0.38247767090797424,-0.5458354949951172,0.06900957226753235,-0.13769613206386566,-0.009525620378553867,3.04158616065979,0.128733292222023,-0.21865049004554749,-0.10821450501680374,-0.03346162289381027,-0.2072174996137619,-0.17410679161548615,0.3108893930912018,0.21207261085510254,0.0484638512134552,-0.12959007918834686,-0.15714100003242493,0.2693650424480438,0.004734402056783438,0.29101958870887756,-0.033988598734140396,-0.11053250730037689,0.05424639210104942,-0.1546224057674408,-0.8356595635414124,0.017598019912838936,-1.1747311353683472,0.45450371503829956,0.007010293193161488,-0.19075453281402588,1.4651474952697754,0.06858287006616592,-0.08591600507497787,-0.1781231164932251,-0.07268859446048737,0.17517085373401642,-0.1266760677099228,0.33259764313697815,-0.11429355293512344,0.24813410639762878,0.2468804270029068,-0.14909060299396515,0.22135725617408752,0.19352862238883972,0.13758273422718048,-0.16068154573440552,0.03157810866832733,0.09748603403568268,-0.06266314536333084,-0.4589937627315521,0.23498916625976562,-0.4657534062862396,0.29321303963661194,0.24288110435009003,0.22890181839466095,-0.814354658126831,0.16094109416007996,-0.0639163926243782,0.3779844045639038,0.21030156314373016,0.008515777066349983,-0.7024713754653931,-0.3648572266101837,0.1663324236869812,0.06537085026502609,0.28967562317848206,-0.20256410539150238,0.7045933604240417,-0.00818721204996109,0.04553447291254997,0.3272480368614197,-0.09172026813030243,-0.23803342878818512,0.4701574742794037,-0.09703446179628372,-0.12692227959632874,-0.5699775218963623,0.1370822787284851,-0.25101426243782043,-0.9236454963684082,-0.7955643534660339,0.24692568182945251,0.26531195640563965,0.15129739046096802,0.2846314609050751,-0.3645574450492859,0.4941793978214264,-0.005594495218247175,-0.16995465755462646,-0.16982628405094147,-0.4683224558830261,-0.18469326198101044,-0.66163170337677,0.45887285470962524,0.31960344314575195,0.029458247125148773,0.14456960558891296,0.2675340473651886,-0.4643590450286865,-0.12594714760780334,-0.40441983938217163,-0.45085516571998596,-0.06690776348114014,0.4436153769493103,0.4768935441970825,-1.295364499092102,0.09560196101665497,0.44623374938964844,-0.22045573592185974,0.48004207015037537,-0.29933926463127136,0.5447343587875366,-0.4929139018058777,-0.17455537617206573,-0.15991951525211334,-0.8764441609382629,-0.26821061968803406,1.3790581226348877,0.07216756045818329,0.37706029415130615,-0.3339757025241852,0.1984640657901764,0.577887237071991,-0.430608332157135,0.5096714496612549,-0.18225418031215668,-0.16268925368785858,-0.6046152114868164,0.2592666745185852,0.5234420895576477,1.6143407821655273,-0.1949235200881958,0.9477424025535583,0.2967473566532135,0.7390557527542114,-0.17014017701148987,-0.3635388910770416,-0.02678881213068962,-0.595887303352356,-0.20539291203022003,-0.20761585235595703,-0.30332374572753906,-1.4156750440597534,0.4635525047779083,-0.08044567704200745,-0.18436174094676971,-0.654546320438385,0.26325345039367676,-0.6362972855567932,-0.884467363357544,-1.1721091270446777,1.7918598651885986,-0.16933275759220123,0.44108739495277405,-0.04298983886837959,-0.9911776185035706,0.6791160702705383,-0.2692197263240814,-0.40923547744750977,1.2274469137191772,-0.2437100112438202,0.13953451812267303,0.4663012623786926,-0.20640505850315094,0.04451616108417511,-0.23317326605319977,0.43458446860313416,0.7817612886428833,0.2147252857685089,1.2146918773651123,-0.4268832802772522,0.01621818356215954,0.2612631022930145,0.4600454568862915,-1.9266126155853271,-0.5998649597167969,-0.049825865775346756,-0.14860229194164276,0.5619627237319946,-0.08258485049009323,-2.9716391563415527,0.1307191550731659,0.5512906312942505,0.4870328903198242,-0.10099884122610092,-0.25804051756858826,-0.09796098619699478,-0.1724865436553955,-0.26058733463287354,-0.025987058877944946,-0.6044501066207886,-0.5920249223709106,2.017159938812256,0.47659316658973694,0.2903555929660797,-0.03686346486210823,0.12343441694974899,0.43214812874794006,1.1423094272613525,-0.6618250608444214,0.06648751348257065,0.5137055516242981,-0.741300106048584,-0.16697993874549866,0.13147588074207306,0.49703264236450195,0.3792807161808014,-0.20220521092414856,0.009991183876991272,0.06497819721698761,0.17476631700992584,-0.14325487613677979,0.1477968692779541,-0.13912993669509888,0.0003276473726145923,0.02863011322915554,-0.06107793748378754,-0.9629705548286438,0.26183873414993286,-0.41297629475593567,0.20947447419166565,-1.0133181810379028,-0.22219958901405334,0.225372776389122,-0.06932559609413147,-1.5877718925476074,1.927552342414856,-0.017770428210496902,0.5964049100875854,0.3980265259742737,0.7119191288948059,0.003982890862971544,0.5786589980125427,0.1527138352394104,0.007107156794518232,-0.052100829780101776,-0.11163284629583359,-0.2917875349521637,-0.017522389069199562,0.040662456303834915,-0.017205210402607918,-0.10216096043586731,-0.8040812015533447,0.23595483601093292,-0.3192983865737915,-0.013322778977453709,-0.34274840354919434,0.23945312201976776,0.17932279407978058,0.4213730990886688,-0.12083788216114044,0.2708030343055725,-0.009105302393436432,-0.04514581337571144,-0.4211779534816742,2.141188621520996,0.19957683980464935,-0.5252507925033569,-0.1512298732995987,0.34295058250427246,0.044597141444683075,-0.41992998123168945,0.433180570602417,0.5545129776000977,-0.2827989459037781,-0.139387309551239,0.3990790545940399,-0.19131651520729065,-0.4549637734889984,-0.010258238762617111,0.0827290490269661,-1.0031709671020508,-0.08589886873960495,-0.32366451621055603,-0.4638522267341614,-0.3038618266582489,-0.5401058197021484,0.13633176684379578,0.38340049982070923,-0.07401794195175171,-1.9267228841781616,0.30893638730049133,-0.3182657063007355,-0.22485169768333435,0.5686917901039124,-0.25167274475097656,0.020928382873535156,0.12412910908460617,-0.18187889456748962,0.0011008399305865169,-0.5856695771217346,0.11017674952745438,1.0808168649673462,-0.3665207028388977,0.23745886981487274,0.11867766082286835,-0.22795741260051727,-0.08500488847494125,-0.127971351146698,-0.1597946137189865,0.0029573412612080574,0.2512446343898773,0.12440576404333115,-0.1622343361377716,0.380786269903183,3.7722671031951904,-0.14285191893577576,-0.037181079387664795,0.27316316962242126,0.051668331027030945,0.17644073069095612,-0.09639877825975418,0.1364382952451706,0.3291892409324646,-0.10617847740650177,-0.08694914728403091,0.16679339110851288,0.27600041031837463,0.17606422305107117,-0.24052250385284424,0.11124909669160843,-0.2237931191921234,-0.01502697542309761,-0.08082348108291626,0.1433390974998474,0.14614474773406982,-0.26741114258766174,-0.04697609692811966,-0.1390516608953476,-0.5056141018867493,-0.3350203335285187,0.19643107056617737,-0.2214118242263794,0.1845736801624298,0.22636888921260834,-0.10793554782867432,-0.13844944536685944,-0.44355031847953796,0.44323840737342834,0.11587177217006683,-0.31369343400001526,0.03658439218997955,0.0606398768723011,-0.29498693346977234,0.22041793167591095,0.10021063685417175,-0.048894304782152176,0.04075121879577637,-0.19309896230697632,0.0666612908244133,-0.1788121908903122,0.13889074325561523,-0.4138779640197754,0.39225953817367554,-0.1219884529709816,-3.2098817825317383,0.08445785194635391,0.07411224395036697,-0.08352551609277725,-0.3998015224933624,-0.09178858250379562,0.09236423671245575,0.1130429282784462,0.006102848798036575,-0.018276989459991455,-0.06779417395591736,-0.05602187663316727,-0.9799228310585022,0.3180440664291382,-0.061974383890628815,-0.10575088858604431,0.34453314542770386,0.03205273300409317,0.33047157526016235,0.16348017752170563,0.06939570605754852,0.03411240503191948,0.1151718869805336,0.0013847448863089085,0.4861494302749634,2.6789045333862305,-0.07622119784355164,-0.12772008776664734,0.3202638030052185,-0.15630985796451569,-0.11990617960691452,-0.02302745170891285,-0.2304675579071045,0.30353960394859314,0.20636308193206787,0.060948245227336884,0.14186088740825653,0.5649673938751221,-0.22681866586208344,-0.2146264910697937,0.31986790895462036,-0.2044861614704132,-0.15263651311397552,0.1375715583562851,0.0018079665023833513,0.2346809059381485,-0.26244932413101196,0.027640096843242645,0.22549699246883392,-0.4387587606906891,2.1184685230255127,-0.17208868265151978,0.4002450704574585,0.10199405997991562,0.1838424801826477,-0.1930200457572937,-0.19135567545890808,0.30016449093818665,0.33897241950035095,0.12637600302696228,0.12546609342098236,0.11582076549530029,-0.16298313438892365,0.44134706258773804,-0.3296048045158386,0.2354642003774643,-0.31573358178138733,0.16216899454593658,0.4858034551143646,0.24290502071380615,0.2223311960697174,-0.4960121810436249,0.5220410227775574,-0.22102095186710358,-0.21450912952423096,3.063791036605835,0.28248992562294006,0.21320612728595734,0.23382604122161865,-0.0019597946666181087,0.046307723969221115,-0.09115944802761078,0.11202358454465866,0.03899028152227402,0.06662032008171082,0.03935080021619797,-0.14575093984603882,-0.3987466096878052,0.12627004086971283,-0.015703672543168068,0.07624232023954391,-0.3928784132003784,0.041266899555921555,-0.14288680255413055,-0.12424907088279724,-0.25310343503952026,0.311351478099823,0.34522607922554016,0.5336059331893921,0.12697309255599976,-2.4020421504974365,0.36238664388656616,-0.5364015102386475,-0.2571588158607483,0.3445996642112732,-0.3009187579154968,-0.2907521724700928,-0.4080539047718048,-0.10804032534360886,-0.3528085947036743,-0.4082140028476715,0.12587521970272064,0.4502485394477844,-0.30963391065597534,0.1071486696600914,-0.3112764358520508,0.1721828430891037,0.13782308995723724,-0.41054975986480713,-0.3112262189388275,-0.17128483951091766,-0.22292104363441467,-0.41874784231185913,0.3137454688549042,0.5516767501831055,1.5086991786956787,-0.2454974353313446,-0.20754630863666534,0.001853735651820898,0.1717229038476944,-0.24992364645004272,0.06778586655855179,-0.284486323595047,0.12081652134656906,-0.16824369132518768,-0.4827979803085327,0.21660278737545013,0.30872422456741333,-0.052306536585092545,0.07081183046102524,0.028195271268486977,-0.2404240518808365,-0.11222381889820099,-0.23368123173713684,-0.16057319939136505,0.0431864894926548,-0.10428926348686218,-0.1049249917268753,-0.15178756415843964,-0.28721898794174194,3.7722368240356445,-0.10604981333017349,-0.09587826579809189,0.30886027216911316,-0.05958649143576622,0.25849786400794983,-0.2403489649295807,0.06411448121070862,0.13738226890563965,0.33407676219940186,0.2923637926578522,-0.023343944922089577,-0.26994189620018005,-0.17379820346832275,-0.27805855870246887,0.37564414739608765,-0.09122136235237122,0.06390229612588882,0.27191463112831116,0.23889636993408203,0.06347890198230743,0.08219275623559952,0.20697687566280365,0.08574657142162323,-0.4392510950565338,-3.3365638256073,0.17500020563602448,-0.010138980112969875,-0.03761236369609833,0.40529683232307434,0.032257623970508575,-0.03650350496172905,-0.3820544183254242,-0.08898507803678513,-0.06739789992570877,-0.29329758882522583,0.12301376461982727,-0.17744486033916473,0.2989571690559387,0.10318193584680557,-0.035034652799367905,0.1624046415090561,-0.09430979937314987,-0.12932710349559784,-0.1922871321439743,-0.06767347455024719,0.02424318715929985,-0.12058418989181519,0.1514715850353241,0.05109282582998276,-6.479408264160156,-0.3356034457683563,-0.30954688787460327,-0.12205956876277924,0.8467937111854553,-0.3085717260837555,0.6200531125068665,0.041919101029634476,-0.3223780393600464,-0.0873500183224678,0.03860331326723099,-0.3503760099411011,0.2387343943119049,0.36293813586235046,1.745611310005188,-0.5535885691642761,-0.5869209170341492,0.18688812851905823,-1.1559879779815674,0.7095598578453064,-0.36332955956459045,0.3700300455093384,1.1334291696548462,-0.28115904331207275,-0.14614644646644592,2.6877660751342773,0.11296030879020691,0.39461618661880493,0.21912634372711182,-0.13573332130908966,0.5560711026191711,-0.05593932047486305,-0.030808648094534874,0.11665485054254532,0.11655483394861221,0.3788664937019348,-0.03691276162862778,-0.34401845932006836,0.11286883801221848,-0.0032239987049251795,-0.13522052764892578,0.06624597311019897,0.4700005054473877,0.31432709097862244,-0.03768812119960785,-0.18194948136806488,0.19257622957229614,-0.36334267258644104,-0.0175485759973526,-0.2959020435810089,-0.5569868087768555,-0.0014560773270204663,0.46843844652175903,-0.3461608588695526,-0.5055155158042908,0.1854504942893982,0.3124135434627533,0.3965800106525421,-0.039655398577451706,-0.05159403756260872,0.34089773893356323,-0.27969181537628174,-0.8493441939353943,0.4531470835208893,-0.3627629280090332,-0.2095365673303604,0.06191042438149452,0.17692571878433228,0.11888699978590012,0.04452746734023094,-0.09063704311847687,0.5929306149482727,0.15493491291999817,-0.3751780688762665,0.32213082909584045,0.20407502353191376,0.03497815877199173,-0.08734608441591263,-0.02600921504199505,0.400142639875412,0.01894783228635788,-0.19392535090446472,-0.38427427411079407,0.3082840144634247,-0.08493281900882721,-0.28582945466041565,0.21402576565742493,0.400110125541687,-0.23902888596057892,0.06055445224046707,0.001710945856757462,0.07442214339971542,-0.11407245695590973,0.11932651698589325,0.09185009449720383,-0.26378121972084045,0.10261191427707672,-0.2459901124238968,0.22805827856063843,-0.15329614281654358,1.4853239059448242,-0.13689899444580078,0.008234556764364243,0.026149677112698555,-0.8947465419769287,-0.025852149352431297,0.1883402019739151,-0.041533611714839935,-0.21727252006530762,0.16162456572055817,0.06039509177207947,-0.3318394124507904,1.1603692770004272,-0.18538910150527954,-0.1944519728422165,0.018303098157048225,0.0673372820019722,0.18305188417434692,0.2016485333442688,0.15519081056118011,0.43592992424964905,-0.3696191906929016,0.1887909471988678,-0.19562913477420807,0.10435974597930908,-0.006629981566220522,0.22183363139629364,0.06615926325321198,-0.3060612380504608,-0.3969598114490509,0.1829151064157486,0.03373643755912781,0.3938368856906891,-0.14664889872074127,0.2724946141242981,-0.07564598321914673,-0.22731323540210724,-0.15389631688594818,0.2570367157459259,-0.058448366820812225,0.03900963068008423,-0.022388873621821404,-0.34558433294296265,-0.026597466319799423,0.056140415370464325,0.12817969918251038,-0.25457438826560974,0.0012761938851326704,0.15069922804832458,0.08825157582759857,3.605529546737671,0.008673412725329399,-0.18681229650974274,0.3346596956253052,0.11227453500032425,-0.28504514694213867,-0.352536141872406,-0.04901549592614174,0.17801325023174286,-0.019845834001898766,0.07960332185029984,0.12967094779014587,0.9146992564201355,-0.004764960613101721,0.01800987683236599,0.20522788166999817,0.01830713078379631,-0.09105722606182098,-0.5325632095336914,0.07171124964952469,0.16784343123435974,-0.26000577211380005,-0.1668008416891098,0.04886261001229286,-0.24558141827583313,1.0995898246765137,-0.1225944310426712,0.31938883662223816,0.31126829981803894,-0.38032105565071106,-0.009982911869883537,-0.5225816965103149,-0.08563663065433502,0.44807809591293335,0.02334781177341938,0.08881963044404984,0.09964024275541306,-1.083207130432129,0.24750211834907532,-0.2787582278251648,0.42898157238960266,0.16670623421669006,0.0012356436345726252,0.49825039505958557,-0.0963546633720398,0.2979574501514435,-0.2969038784503937,0.07458023726940155,0.3047618865966797,-0.09796667844057083,0.47811925411224365,-0.2356041967868805,-0.26999932527542114,-0.04495174437761307,0.0024890683125704527,-0.05189123377203941,0.24253913760185242,0.17685304582118988,0.015098808333277702,-0.1902424544095993,-0.02889219857752323,0.13638734817504883,1.4649158716201782,0.016022205352783203,0.4690616726875305,-0.08667848259210587,-0.08848395198583603,0.32890576124191284,-0.299445241689682,-0.33247509598731995,-0.4701330363750458,0.10110728442668915,-0.1451762616634369,0.14867384731769562,-0.2532503604888916,3.294255018234253,0.0004890973214060068,-0.12352459877729416,0.07706732302904129,0.6860526204109192,0.017163757234811783,0.2265448272228241,0.07306813448667526,0.20289207994937897,0.03320220485329628,-0.18162257969379425,0.42191681265830994,-0.4714066684246063,-0.19891758263111115,-0.09559652954339981,0.08767466992139816,-0.1611848771572113,-0.062257762998342514,-0.6514706611633301,0.8992281556129456,0.03526940196752548,-0.2400999814271927,-0.06045674905180931,0.14328770339488983,0.128657728433609,1.7811349630355835,0.07228241115808487,-0.29335376620292664,0.015993863344192505,-0.0660669356584549,-0.08317721635103226,0.031169913709163666,-0.19081951677799225,0.4071507751941681,-0.08147918432950974,0.06747740507125854,-0.14643889665603638,-0.6734074354171753,0.029825029894709587,-0.2415335774421692,-0.11879967898130417,0.1686989665031433,-0.053303755819797516,-0.16437028348445892,0.052988678216934204,-0.4743897318840027,0.8534631729125977,0.015297775156795979,0.18643276393413544,0.6663702130317688,-2.709047555923462,-0.060567013919353485,-0.13317647576332092,-0.1589842587709427,0.1678462028503418,0.1453600525856018,0.052221983671188354,-0.08150803297758102,-0.3466220498085022,0.037820395082235336,-0.19126614928245544,-0.17797374725341797,-0.1803308129310608,-0.23344959318637848,0.33171677589416504,-0.13838429749011993,0.33960476517677307,0.08582604676485062,0.012024498544633389,-0.12393118441104889,-0.16546426713466644,0.47033241391181946,0.014028149656951427,-0.02903975173830986,0.2700845003128052,-1.7580339908599854,-0.08251862972974777,-0.01550346054136753,-0.52900630235672,-0.06255842745304108,-0.05056200921535492,0.4543069005012512,0.29020628333091736,-0.5657122731208801,-0.19523313641548157,0.433078408241272,-0.27662917971611023,-0.14352355897426605,0.07999635487794876,0.17950557172298431,-0.11361987888813019,0.12046688050031662,0.12718240916728973,-0.05023285374045372,-0.020069992169737816,-0.24415642023086548,0.22923356294631958,0.21145901083946228,-0.29616978764533997,0.1962105631828308,-1.288612723350525,0.027019061148166656,-0.06237382814288139,0.1097838506102562,-0.26327139139175415,0.05691446736454964,-0.17601053416728973,-0.13038887083530426,-0.18254947662353516,-0.10271678864955902,0.32774433493614197,0.10754585266113281,-0.6286976337432861,0.07714831084012985,0.3150310814380646,-0.01983308419585228,-0.04086421802639961,0.24537920951843262,0.020147928968071938,-0.08737847208976746,0.09608141332864761,0.2770211100578308,-0.3087199032306671,0.027825694531202316,-0.26006776094436646,-4.614136219024658,0.39709872007369995,-0.2683904767036438,-0.22147102653980255,0.6279229521751404,-0.253767192363739,0.20174284279346466,-0.17880910634994507,-0.1725158840417862,-0.0605170801281929,-0.36401376128196716,0.1730578988790512,1.5833439826965332,-0.47764816880226135,0.37814605236053467,-0.018989674746990204,0.10605444014072418,0.12275846302509308,-0.6074493527412415,-0.11670524626970291,-0.11351260542869568,-0.13769719004631042,-0.37633174657821655,0.2913348078727722,0.47854122519493103,2.443871259689331,-0.17255185544490814,0.20011049509048462,-0.26828858256340027,0.00686352513730526,-0.05629293620586395,0.32819363474845886,0.2378578782081604,-0.6875407099723816,0.09432068467140198,0.09058050066232681,-0.34959179162979126,-0.6000638604164124,0.27622365951538086,0.112094946205616,-0.18490858376026154,-0.05207020789384842,0.13588468730449677,-0.12012390047311783,-0.5479570031166077,-0.15702982246875763,0.04989099130034447,-0.1212644949555397,-0.24442481994628906,0.27977824211120605,4.912322521209717,0.0873057097196579,0.03558238223195076,0.06024684011936188,0.00496308971196413,0.17297887802124023,0.43810170888900757,-0.421222448348999,0.17069552838802338,0.15011174976825714,-0.30675479769706726,-0.836754560470581,-0.4320380985736847,-0.09826568514108658,0.05449168011546135,0.08253718167543411,-0.3455870449542999,0.11509744822978973,-0.7674058675765991,0.6660196185112,-0.6218196749687195,0.2658126950263977,0.36264461278915405,0.2908075451850891,0.06259521096944809,4.347512722015381,0.21352791786193848,0.2863844037055969,-0.06899116933345795,0.2522473633289337,-0.11563629657030106,0.5144541263580322,-0.3853789269924164,-0.010699385777115822,0.06159091740846634,-0.21314187347888947,-0.4663819968700409,-1.5164835453033447,0.3556308150291443,0.4016515016555786,-0.068866066634655,0.0027324797119945288,0.21271750330924988,0.4327133297920227,-0.5800922513008118,-0.4891740381717682,0.23467789590358734,-0.23400074243545532,-0.07085534930229187,0.026250308379530907,3.2930309772491455,-0.0007434732979163527,0.0037458206061273813,0.15324684977531433,0.24595005810260773,0.4576879143714905,-0.023790715262293816,-2.2940621376037598,0.2476390302181244,0.47322359681129456,-0.6001303195953369,0.033912088721990585,2.6243717670440674,0.12669356167316437,-0.7536566257476807,0.5834664106369019,0.5163909196853638,0.04672929644584656,0.7377868294715881,0.1161118596792221,-1.2897597551345825,-0.9822244644165039,-1.5713618993759155,0.47961199283599854,-0.5221843123435974,1.5733635425567627,-0.08304896205663681,-0.07284913957118988,-0.3391624987125397,-0.025049926713109016,0.054614532738924026,0.14270955324172974,0.13540752232074738,0.0024072122760117054,0.1244402602314949,0.3360956311225891,-0.07324758172035217,-2.2315335273742676,0.06027791276574135,-0.3183481693267822,-0.05630125105381012,-0.33105823397636414,0.020794343203306198,-0.18453861773014069,-0.09412059932947159,-0.34223389625549316,0.08487361669540405,0.5138523578643799,-0.07989280670881271,0.051211580634117126,1.3428008556365967,-0.26805341243743896,-0.668257474899292,-0.5298263430595398,0.14125588536262512,0.31604450941085815,0.03816970810294151,-0.03528905287384987,0.23847296833992004,-0.05530313402414322,0.4104660153388977,0.8590620756149292,2.128382444381714,-0.6440500020980835,-0.08032345026731491,-0.08189061284065247,0.052499912679195404,-0.04324689880013466,-0.13450154662132263,0.47975945472717285,-0.1677168607711792,-1.4279083013534546,-0.2992129325866699,-0.09568574279546738,-0.09405161440372467,0.9860250353813171,0.1078367531299591,0.2481093406677246,-0.23538029193878174,-0.1343444287776947,-0.15219144523143768,-0.050225019454956055,-0.02900262363255024,-0.233421191573143,0.14441123604774475,0.028935180976986885,0.08567477017641068,-0.5353673696517944,0.20047514140605927,0.20492097735404968,-0.05868004634976387,0.19235438108444214,0.027692854404449463,0.037846293300390244,-0.23187746107578278,-0.0807381346821785,0.1475221812725067,-0.18874220550060272,0.3092361092567444,0.12974385917186737,2.5403871536254883,0.24091395735740662,0.21452999114990234,0.16982249915599823,0.3831995725631714,0.113375224173069,0.38704705238342285,-0.6342494487762451,-0.16792753338813782,-0.11812938004732132,-0.34635913372039795,-0.25592565536499023,-2.7190699577331543,0.3134377896785736,-0.13424374163150787,-0.11374568194150925,0.0260202344506979,0.14560343325138092,0.21360673010349274,-0.22082282602787018,-0.45721980929374695,0.8866833448410034,-0.3469862639904022,-0.3067166805267334,-0.27294132113456726,-1.4966065883636475,0.343093603849411,-0.17389339208602905,-0.2722353935241699,0.1146065965294838,-0.23776604235172272,-0.34455737471580505,-0.42844629287719727,0.41307422518730164,-0.05971461161971092,-0.4721607267856598,0.27310070395469666,1.3875949382781982,0.21056561172008514,0.07064300775527954,0.08965613692998886,0.009052949026226997,-0.13307137787342072,-0.16729772090911865,-0.49325084686279297,0.45253512263298035,-1.961141586303711,-0.2684890627861023,0.1937805414199829,0.25499671697616577,-2.822218418121338,-0.9230474233627319,-2.500971794128418,0.9351903796195984,-1.6686241626739502,1.3056000471115112,-2.576373815536499,0.13276371359825134,0.9249325394630432,0.7107031345367432,1.6741013526916504,0.3254649043083191,0.2657146751880646,-1.9233756065368652,-1.6136150360107422,1.0663703680038452,-0.3697451055049896,-1.6319478750228882,0.17915226519107819,0.454545795917511,1.5765180587768555,-1.596060037612915,0.8638438582420349,0.762481689453125,-1.2405974864959717,-0.15551798045635223,0.09622283279895782,-0.15037445724010468,-0.07225187122821808,0.8458489179611206,-0.79293292760849,-0.11121775954961777,-0.5823390483856201,0.26197487115859985,-0.2548123598098755,-1.1748324632644653,0.08362755179405212,3.2251243591308594,-0.18981344997882843,0.02735714800655842,0.2809373438358307,0.10208071768283844,-0.059119436889886856,-0.7935857176780701,-0.26005449891090393,-0.5769445896148682,-0.5893537998199463,-0.5174826383590698,0.08740047365427017,0.47416335344314575,7.611866474151611,-0.0919555053114891,0.2641530930995941,-0.09725458920001984,0.15934213995933533,-0.21101807057857513,0.421344131231308,0.11272258311510086,-0.2663854956626892,-0.22917905449867249,-0.039092931896448135,-0.6130549907684326,0.39287304878234863,0.3917396068572998,0.5276155471801758,-0.000939824734814465,0.2888995110988617,0.366186261177063,-0.2579139173030853,-0.2861767113208771,-0.5351729393005371,0.200314000248909,-0.004125624429434538,-0.025149405002593994,0.02109335921704769,3.5994982719421387,0.22614623606204987,0.13937553763389587,-0.2869482636451721,0.09739691019058228,-0.1693160980939865,0.42956796288490295,0.2138454020023346,-0.3013233542442322,-0.012766832485795021,0.19717717170715332,-0.4096187651157379,0.3408953547477722,0.5818501710891724,0.41640955209732056,-0.12496516853570938,0.09760892391204834,0.37323886156082153,-0.06069723516702652,-0.5221763253211975,-0.29658663272857666,-0.0628625899553299,-0.0007021587225608528,0.3263964056968689,0.1775832623243332,-3.175898551940918,0.428458034992218,0.20415136218070984,0.27636581659317017,0.041111480444669724,0.29600128531455994,-0.3749549090862274,-0.38710159063339233,0.4366810619831085,0.15362225472927094,-0.4490315616130829,0.11364046484231949,0.8253939151763916,0.38756266236305237,-0.0016584463883191347,0.1108890101313591,-0.23144187033176422,0.0984780490398407,0.11498591303825378,-1.0066635608673096,-0.2654913365840912,-0.9092468023300171,0.39838001132011414,0.1345786452293396,-0.6142876744270325,1.736873745918274,-0.07558023184537888,-0.01435988862067461,-0.05691252648830414,0.3749828338623047,-0.1671440750360489,0.31829893589019775,0.042695552110672,-0.20810410380363464,0.07323317974805832,-0.5419937968254089,-0.2611787021160126,0.7155333161354065,0.5307643413543701,0.07610927522182465,-0.07231036573648453,0.04887966066598892,0.21561765670776367,-0.5380271077156067,-0.15746746957302094,-0.4143904447555542,0.12381875514984131,-0.20633827149868011,0.11112930625677109,0.44546008110046387,-1.8075464963912964,0.22216543555259705,-0.523683488368988,-0.3732566833496094,0.12539616227149963,0.6490839719772339,0.3625596761703491,0.13614681363105774,-0.001992858247831464,-0.01587527245283127,0.20010554790496826,-0.20856456458568573,-0.044403307139873505,-0.33482563495635986,0.14774349331855774,-0.12244715541601181,0.2749582529067993,-0.054339710623025894,0.5145409107208252,-1.230097770690918,-0.6856430768966675,-0.6684533953666687,0.16786867380142212,-0.07871515303850174,0.08999359607696533,0.21997368335723877,-0.20669607818126678,-0.22460605204105377,0.036783307790756226,-0.3874911069869995,0.09050467610359192,-2.735509157180786,0.08837294578552246,0.41517025232315063,0.11104380339384079,0.30164504051208496,0.37012675404548645,-1.6482046842575073,-0.35363128781318665,-0.5096774697303772,0.25872403383255005,0.923886239528656,0.42375752329826355,0.6226897239685059,0.7109626531600952,0.47878462076187134,-1.2473655939102173,0.05155830830335617,0.13455802202224731,-0.10170819610357285,2.3363823890686035,0.6683751344680786,-0.30711838603019714,-0.36724114418029785,1.1317665576934814,0.021203406155109406,0.07877343893051147,-0.19197461009025574,-0.18671350181102753,-0.2425040900707245,-0.13540300726890564,0.520076334476471,2.7862396240234375,0.3976922035217285,0.6323051452636719,-0.06303762644529343,-0.48040175437927246,-0.09355230629444122,-2.265592575073242,-0.9124672412872314,-1.0930651426315308,-0.6733566522598267,-0.800133466720581,0.41841474175453186,0.39177897572517395,-1.1054271459579468,-0.21122024953365326,-0.4210434556007385,0.6444375514984131,-0.9006974697113037,0.8649893403053284,-0.9723567366600037,-1.281524658203125,0.9718070030212402,0.23288841545581818,0.21165356040000916,0.5437766313552856,2.403465747833252,0.09493831545114517,-0.6017908453941345,0.4110456705093384,1.2349942922592163,-0.30547526478767395,1.1392022371292114,0.029259217903017998,0.46612176299095154,-2.2185351848602295,0.33189040422439575,0.7711439728736877,-0.8005815744400024,-4.422054290771484,0.7122796773910522,-0.6707584261894226,-0.3177913725376129,0.41014012694358826,-0.6461087465286255,-0.6174593567848206,0.15480607748031616,0.026240607723593712,-0.07396649569272995,0.18303504586219788,-0.10845973342657089,-2.5228142738342285,-0.4440223276615143,1.2842092514038086,-0.4722580313682556,-0.18949873745441437,0.31242865324020386,0.3708302676677704,-0.573330819606781,0.7312179803848267,0.4193670153617859,-0.06148942559957504,-0.3324055075645447,1.3050600290298462,0.8670950531959534,0.05766674131155014,-0.022240811958909035,-0.08450250327587128,-0.2159292846918106,0.42089271545410156,0.07299958914518356,0.08581346273422241,-0.08616466075181961,0.005443552974611521,0.31903907656669617,0.17162729799747467,0.1856740415096283,-0.040032997727394104,0.10174506157636642,0.07335099577903748,-0.18951933085918427,0.1564052700996399,0.1149713471531868,0.3694878816604614,-0.18208177387714386,0.15630418062210083,-0.05258110165596008,-0.16059011220932007,-0.5026513338088989,2.0805246829986572,0.16201810538768768,-0.21039506793022156,0.029569825157523155,0.1047729030251503,0.11524410545825958,0.21550346910953522,0.031651563942432404,-0.15513820946216583,-0.08599135279655457,0.06297704577445984,0.3074284493923187,-2.220851182937622,-0.10399020463228226,0.18168865144252777,-0.2993946373462677,-0.3575505018234253,0.15641562640666962,0.16120645403862,-0.6035657525062561,-0.22866064310073853,-0.1985873132944107,0.175404891371727,-0.17147141695022583,-0.23131300508975983,-3.5770485401153564,-3.353689670562744,-4.407279014587402,-3.709106683731079,-4.213780403137207,-3.1421401500701904,-4.133409023284912,-3.474466562271118,-4.607048511505127,-3.7121219635009766,-4.273447036743164,0.7181396484375,-3.5798745155334473,-4.154284477233887,-4.244174957275391,-4.408355712890625,-4.3378214836120605,-3.1616387367248535,-4.254757881164551,-3.7733335494995117,-3.8906121253967285,-4.180800437927246,-4.224976539611816,-4.3447442054748535,4.316756248474121,4.227540969848633,3.55098295211792,3.5986263751983643,3.9801368713378906,3.5622377395629883,4.060275077819824,3.896141529083252,3.5743331909179688,4.2852783203125,3.680534839630127,3.2604076862335205,4.726632118225098,3.71890926361084,3.8728818893432617,3.567859172821045,3.523996114730835,3.4045612812042236,3.7721328735351562,2.9355740547180176,2.6330370903015137,4.092350482940674,3.6018357276916504,4.636433124542236,-0.04788833484053612,-0.46050310134887695,0.12735027074813843,0.15724074840545654,-0.1463194191455841,-0.3090939223766327,0.06946376711130142,0.1553003042936325,0.015956521034240723,-0.1444542407989502,0.294047474861145,0.27400681376457214,-0.5595951676368713,-0.44815516471862793,0.17770667374134064,-0.14071577787399292,-0.27370670437812805,-0.20096591114997864,-0.11431050300598145,0.20509231090545654,-0.25369954109191895,0.4498143792152405,0.11155469715595245,0.13782437145709991,-0.13489115238189697,0.0017044171690940857,0.07050744444131851,-0.07469375431537628,-0.12680299580097198,-0.08969170600175858,-0.02613794058561325,0.6460864543914795,-0.7233890295028687,0.007077667862176895,-0.3093505799770355,2.9804859161376953,-0.2880009412765503,-0.9981555938720703,-0.3555262088775635,-0.4206368327140808,-0.5980639457702637,0.6019409894943237,0.31183406710624695,-0.7435073256492615,0.3023015558719635,-0.04859494790434837,-0.10043865442276001,0.25027063488960266,0.0348132885992527,-0.23899906873703003,0.03141821548342705,-0.03249732777476311,0.04725523293018341,-0.14639563858509064,0.016240766271948814,0.2802724838256836,0.004394878633320332,0.0854606106877327,0.013514985330402851,0.01588163711130619,-0.40494221448898315,-0.11078256368637085,0.057345010340213776,-0.017994346097111702,-0.017782367765903473,-0.010662604123353958,0.003134690225124359,0.02259467914700508,-0.03590228781104088,0.21543991565704346,0.0005841453676111996,-0.11806508898735046,0.07869485765695572,-0.5288764238357544,0.08032755553722382,-0.06631220877170563,0.1352439969778061,-0.35117191076278687,0.03147497400641441,0.3829755485057831,0.01667214184999466,0.22141750156879425,0.03049532137811184,0.015923766419291496,-2.2508599758148193,-0.6841046810150146,0.19418612122535706,-0.0411812886595726,-0.07128650695085526,-0.015245531685650349,0.004113057628273964,0.09383662790060043,-0.04649168998003006,0.46277955174446106,0.0011811917647719383,-0.21031197905540466,-0.5099634528160095,-0.12327832728624344,0.4959490895271301,0.2808390259742737,0.26282137632369995,0.21285465359687805,-0.41266393661499023,0.12274312973022461,0.3106313645839691,0.31102877855300903,-0.13190338015556335,-1.1094224452972412,0.0502338632941246,-0.5074225664138794,0.3097894489765167,-0.24543040990829468,-0.12477333843708038,-0.39106711745262146,0.39520758390426636,-0.09718907624483109,0.20825418829917908,0.40292853116989136,-0.3099379539489746,-0.2450408786535263,-0.1315523386001587,-0.0006261827074922621,-0.25827205181121826,-0.0008877734071575105,0.4150935113430023,-0.36929360032081604,0.5740954279899597,-0.3150782585144043,-0.23599207401275635,-0.6454752087593079,0.8155373930931091,0.33598586916923523,0.24746504426002502,0.07722295075654984,-0.06998268514871597,-0.5913844704627991,-0.8163781762123108,-0.026807589456439018,-0.3282446265220642,-0.13463900983333588,0.4140945076942444,0.1184404194355011,0.5462102890014648,0.15513208508491516,0.08054143935441971,-0.15330788493156433,0.3333875238895416,0.30592080950737,-0.13956789672374725,0.1224222481250763,0.34752801060676575,0.23014745116233826,0.052328892052173615,-0.18904460966587067,0.4642477333545685,-0.16054552793502808,0.09724930673837662,-0.11239892989397049,0.013300360180437565,0.0486169196665287,-0.06934020668268204,0.08284668624401093,-0.5905010104179382,0.6746973395347595,-1.0084941387176514,0.4089202880859375,0.3496617376804352,0.4538494646549225,0.09245987236499786,-0.003455494996160269,-0.09270104020833969,-0.08978156000375748,-0.15168273448944092,-0.2636948525905609,0.11405301839113235,-0.5517675876617432,-0.18475116789340973,0.05276601016521454,0.05350856855511665,-0.663144588470459,0.012095971032977104,0.06761180609464645,0.3182201683521271,0.03861965239048004,0.18539229035377502,-0.17898669838905334,-0.1094367727637291,-0.774802565574646,-0.4240719676017761,-0.16849109530448914,0.3531082570552826,0.028282463550567627,0.2577657401561737,0.4455934464931488,-0.004222485702484846,0.3298919200897217,-0.4121924042701721,0.22668619453907013,-0.09856875985860825,-0.15602466464042664,-0.25713497400283813,-0.17025229334831238,-0.533402144908905,0.08919970691204071,0.7859170436859131,0.5215425491333008,-0.49419301748275757,0.551479697227478,0.04909685254096985,-0.3140164613723755,-0.662659764289856,-0.5594390630722046,0.4791563153266907,-0.34740889072418213,0.6149983406066895,0.5449395179748535,-0.7096330523490906,-0.4349941909313202,0.6919514536857605,0.22531169652938843,-0.2243059277534485,-1.0603692531585693,-0.797428548336029,0.2651258111000061,0.11329437047243118,0.35711732506752014,0.8402689099311829,-0.10841668397188187,0.07152695208787918,-0.49472686648368835,0.6041535139083862,0.4148640036582947,0.1881379932165146,0.3586440086364746,0.025028686970472336,-0.5262081623077393,-0.14370380342006683,-0.5752384066581726,-0.3070509433746338,-0.3226996660232544,0.1556210070848465,0.3295260965824127,-0.05004371702671051,-0.10070312023162842,0.09287533909082413,0.1799594610929489,0.059682197868824005,0.10921235382556915,0.19042736291885376,0.11856767535209656,-0.23746450245380402,-0.40088990330696106,0.2860569953918457,-0.037005551159381866,0.01804792694747448,0.09325698763132095,0.054172467440366745,0.06994262337684631,0.016876645386219025,0.07471249997615814,-0.18879809975624084,0.10276610404253006,-0.2552863359451294,-0.08095020055770874,0.06876546144485474,0.1183653250336647,0.14377014338970184,-0.1582496464252472,0.13495692610740662,-0.5857056379318237,0.11007297784090042,0.35450083017349243,-0.052491527050733566,-0.05452622100710869,-0.1523599475622177,0.3426884412765503,0.1998182088136673,0.29074838757514954,-0.10802078992128372,-0.20173051953315735,-0.1705586016178131,-0.6449316740036011,-0.17625799775123596,-0.2578878104686737,-0.029866408556699753,-0.12133727222681046,-0.1224309504032135,0.11101523041725159,-0.01554390974342823,0.5414785146713257,0.09085071086883545,0.07246904075145721,-0.38410332798957825,0.2809865176677704,-0.1462126076221466,-0.52789306640625,0.19394128024578094,-0.22291059792041779,-0.4465048015117645,0.6405402421951294,0.7563554644584656,0.35182610154151917,-0.2828328311443329,0.14228764176368713,0.16835547983646393,0.24150647222995758,-0.2385091930627823,-0.1106494665145874,0.5112857222557068,-0.3382844924926758,0.288972944021225,0.25556477904319763,-0.10539684444665909,-0.030884157866239548,0.4711414873600006,-0.12353882193565369,-0.5234942436218262,-0.32202422618865967,-0.06956622004508972,-0.6040276288986206,0.02966601960361004,-0.2598401606082916,0.07142318785190582,0.6647661924362183,-0.18197396397590637,-0.006819355767220259,0.2626882791519165,-0.0459224171936512,0.13840295374393463,-0.9730591773986816,0.5530658960342407,-0.5048903226852417,0.0906578078866005,-0.07857856899499893,-0.26720666885375977,0.34632769227027893,-0.0810423493385315,-0.3098863661289215,-0.17505839467048645,-0.5202543139457703,-0.1299053579568863,-0.7726128697395325,0.37915921211242676,-0.14229749143123627,-0.029054120182991028,0.2808239758014679,-0.26897192001342773,0.11220495402812958,-0.43246904015541077,-0.30742791295051575,-0.05290432274341583,0.07613295316696167,-0.3814029395580292,1.0127547979354858,-1.0885646343231201,-0.4060138463973999,0.48005253076553345,0.13352800905704498,0.01449501607567072,-0.19170387089252472,0.46052414178848267,-0.009163466282188892,0.6206452250480652,-0.12599879503250122,-0.006688760593533516,-0.8756542205810547,-0.14343273639678955,-0.16550305485725403,-0.06531542539596558,-0.060672808438539505,0.4344295263290405,-0.07823856920003891,0.14794036746025085,0.2890215218067169,-0.7607132792472839,-0.6215587258338928,-0.22255268692970276,0.6250320076942444,-0.0577726736664772,-0.2531565725803375,0.5285242199897766,-0.33288174867630005,-0.29387760162353516,-0.4194594621658325,-0.15057101845741272,-0.24464383721351624,0.03810153901576996,0.14785537123680115,-0.10468611866235733,-0.9092587232589722,-0.2752147912979126,0.18126115202903748,0.08680616319179535,-0.2588023543357849,0.1269872784614563,-0.5153473615646362,0.14748869836330414,0.2446860373020172,-0.17329102754592896,0.02187383361160755,0.3242703974246979,0.020654460415244102,-0.5003872513771057,0.22400231659412384,-0.1321081668138504,0.07783316820859909,-0.1759859025478363,0.28992515802383423,-0.1464117169380188,-0.042153310030698776,-0.1135832890868187,0.19356541335582733,0.361592561006546,-0.4808438718318939,0.041283104568719864,-0.05671444907784462,-0.15123973786830902,-0.2549523115158081,-0.3099668622016907,0.13237784802913666,-0.11032150685787201,-0.13369332253932953,0.2935757040977478,0.0018855489324778318,0.2112889140844345,0.021094899624586105,0.09880384802818298,0.09791221469640732,0.2492038458585739,-0.01309934165328741,-0.017826370894908905,0.005410142242908478,0.2709207236766815,0.12383994460105896,-0.021325554698705673,0.33330532908439636,-0.10942987352609634,0.16824792325496674,-0.09265288710594177,0.07352636009454727,-0.014575851149857044,-0.1787118911743164,-0.24171486496925354,-0.3794705867767334,0.24269229173660278,0.291326105594635,-0.2511431574821472,0.29388123750686646,0.28195637464523315,-0.18379531800746918,-0.28059640526771545,-0.06459995359182358,-0.08204738050699234,-0.14784684777259827,0.07821852713823318,-0.13084089756011963,-0.28762951493263245,-0.2025005966424942,0.19231799244880676,0.1959640085697174,0.3139632046222687,-0.3114348351955414,-0.17933310568332672,0.45134881138801575,0.368059903383255,-0.18653951585292816,0.19565927982330322,-0.14351938664913177,-0.016452958807349205,-0.2402433604001999,-0.15807580947875977,-0.2374412715435028,0.18204903602600098,-0.2974674701690674,-0.632411539554596,-0.8652626276016235,0.07886214554309845,-0.24191954731941223,-0.2317558079957962,-0.004620003513991833,0.08497359603643417,-0.14072348177433014,-0.05328147113323212,0.03575736656785011,-0.060979992151260376,-0.19660784304141998,-0.08770933002233505,0.48150452971458435,-0.1170487329363823,-0.39751696586608887,-0.17175567150115967,0.40194007754325867,-0.26864901185035706,0.020163483917713165,0.17578645050525665,-0.03934311494231224,-0.03982336446642876,-0.07296411693096161,0.06582879275083542,-0.08441480994224548,-0.1741815209388733,0.21095256507396698,0.322954386472702,-0.03640938177704811,0.009405456483364105,0.08444872498512268,0.10633821785449982,0.05703332647681236,0.6968826651573181,1.2946372032165527,0.2561282813549042,0.08683570474386215,0.038296107202768326,0.06696142256259918,-0.07834825664758682,0.08373332768678665,-0.03098098374903202,-0.11349275708198547,-0.030031004920601845,0.03639841079711914,0.16684918105602264,0.12709343433380127,-0.22460032999515533,-0.16686338186264038,-0.6057926416397095,0.13389348983764648,0.11023832857608795,-0.11171654611825943,-0.04032070189714432,0.04867321252822876,0.09162372350692749,0.46544334292411804,-0.18145202100276947,0.40929511189460754,-0.3447994589805603,-0.08742297440767288,-0.14171066880226135,-0.24576032161712646,-0.04804070293903351,-1.0243905782699585,0.08609995245933533,-0.26864778995513916,-0.00020820049394387752,-0.02140789106488228,0.08969292789697647,-0.1210264340043068,0.03982086107134819,-0.3700317442417145,-0.5897076725959778,0.11100812256336212,-0.023396139964461327,0.5252254605293274,-0.05178007110953331,-0.076448455452919,-0.06364037841558456,-0.17118686437606812,0.2044985592365265,-0.04855300113558769,-0.020471397787332535,-0.4903884530067444,-0.584017276763916,-0.33607450127601624,-0.30429986119270325,-0.4186033308506012,-0.19470153748989105,-0.2499147355556488,0.2562277019023895,-0.171453058719635,-0.23555593192577362,-0.5905042886734009,-0.20645494759082794,-0.06998245418071747,0.3510562777519226,-0.0904739648103714,0.9428728818893433,-0.3812941312789917,0.009413309395313263,-0.6804405450820923,0.645820140838623,-0.3309103548526764,0.4592895805835724,-0.855567216873169,0.4045478105545044,0.8274193406105042,0.2509249746799469,0.6964655518531799,-0.34386146068573,1.913114070892334,-1.1014463901519775,-1.018672227859497,0.3214769661426544,0.057354141026735306,-0.5508825182914734,0.00710404384881258,0.42919105291366577,-0.2570236325263977,0.4953309893608093,1.3347406387329102,0.7964122891426086,0.029458725824952126,0.681318998336792,0.832974374294281,-0.3262118697166443,-0.4551708996295929,0.08937713503837585,0.7920868992805481,0.6499024033546448,-0.2704327702522278,0.1413220316171646,-0.20060154795646667,0.537061870098114,-0.6869952082633972,-0.043145518749952316,0.4733400046825409,-0.3051854074001312,-0.42547059059143066,0.4193469285964966,0.3068336248397827,0.5154539346694946,1.0894216299057007,-0.8599275350570679,0.32413333654403687,-0.17799252271652222,-0.5069849491119385,-0.09161917865276337,-0.0915641188621521,-0.4362797141075134,0.39926275610923767,-0.2727925777435303,0.1395879089832306,-0.2011670470237732,-0.06369367241859436,0.01377074420452118,-0.5987129211425781,-0.30900838971138,-0.12381348758935928,0.33944815397262573,0.5553344488143921,-0.6940697431564331,0.21556152403354645,0.031845107674598694,0.1312161237001419,-0.2734176516532898,-0.755130410194397,0.7759010195732117,-0.6449130773544312,0.1360422521829605,0.3865574598312378,-0.18978199362754822,0.02142992429435253,-0.308074951171875,1.2168493270874023,-0.9143616557121277,-0.6352270841598511,-0.6346628069877625,0.5778445601463318,0.17767362296581268,-0.9946184754371643,0.45414429903030396,-0.477878212928772,0.04987644404172897,-0.23401695489883423,-0.3226498067378998,0.36320456862449646,0.7469033598899841,0.3380582332611084,-0.3942472040653229,-0.22603072226047516,-0.704505980014801,-0.38525357842445374,0.31167468428611755,0.3954181969165802,-0.08838897198438644,0.12817420065402985,-0.4029861092567444,-0.12624822556972504,0.1577729880809784,0.7008622288703918,0.008800731971859932,-0.1295546591281891,0.2502313256263733,0.14485163986682892,0.014093474484980106,-0.7591791749000549,0.13420619070529938,0.06985369324684143,0.010901305824518204,0.14744165539741516,0.18599961698055267,-0.18173673748970032,0.02762826532125473,-0.018541906028985977,0.21453243494033813,0.1382126659154892,0.2698526680469513,0.7008063197135925,0.12684181332588196,-0.013269925490021706,0.3833102285861969,-0.09580942243337631,-0.02946353144943714,-0.8657738566398621,-0.08036299794912338,0.2142542004585266,-0.059310685843229294,-0.1505899727344513,-0.09514518082141876,0.021788783371448517,0.22674593329429626,0.15425042808055878,0.010880417190492153,-0.24574978649616241,-0.07434962689876556,-0.31469765305519104,0.09969960898160934,-0.0923159122467041,0.484303742647171,-0.12487299740314484,0.09659726172685623,0.08697035163640976,0.24662500619888306,0.13015757501125336,0.17728540301322937,0.2815626263618469,0.08837827295064926,0.27321857213974,-0.04480142891407013,-0.07344573736190796,0.2801739275455475,-0.07854437828063965,0.04520155489444733,-0.565085768699646,0.11230862885713577,-0.06996918469667435,-0.04625081643462181,-0.16675926744937897,0.27723583579063416,-0.06067381799221039,-0.015081269666552544,-0.46844157576560974,0.15332046151161194,0.15485075116157532,0.21190008521080017,0.317920982837677,0.1915244162082672,0.13980358839035034,-0.1022762805223465,-0.1287950873374939,-0.05118101090192795,-0.7201074957847595,0.2114942967891693,-0.11642605066299438,-0.2529778778553009,-0.22297482192516327,-0.6458949446678162,-0.04168853536248207,0.027929384261369705,0.351961612701416,0.4199601709842682,-0.37884756922721863,-0.26229339838027954,0.05036943405866623,0.22322918474674225,-0.5870421528816223,-0.07889842242002487,0.013020150363445282,-0.006602207198739052,0.10583183169364929,-0.03207642585039139,0.09022750705480576,0.03547517955303192,-0.3242141902446747,0.14046084880828857,0.1747351735830307,-0.06746514141559601,-0.33691534399986267,0.20827162265777588,-0.04953023046255112,-0.05092814564704895,-0.17443960905075073,-0.1539286971092224,-0.15907497704029083,0.06994829326868057,0.06842034310102463,0.01331170555204153,0.3165205717086792,0.06442713737487793,-0.28880032896995544,-0.08456975966691971,-0.034246254712343216,-0.024317748844623566,-0.023211434483528137,0.5277227163314819,-0.19491168856620789,0.3990941047668457,-0.04424205794930458,0.8371717929840088,-0.3949204981327057,0.04885673522949219,-0.658804714679718,-0.1047951877117157,0.16850464046001434,0.08768198639154434,-0.11837618052959442,-0.038138095289468765,0.023462897166609764,0.23323315382003784,-0.44814613461494446,-0.3446487784385681,0.09290096163749695,-0.36605241894721985,0.04150444641709328,0.3639097213745117,-0.310219943523407,0.17467035353183746,-0.28186145424842834,0.3078942894935608,-0.6315706968307495,0.3327934741973877,-0.15377533435821533,0.0472782626748085,-0.7253506183624268,-0.04610144719481468,0.3553999066352844,0.4088357388973236,-0.19101984798908234,0.10557340830564499,-0.35512828826904297,-0.07741724699735641,-0.0558476522564888,0.45148929953575134,-0.25217103958129883,-0.4692680239677429,0.12105796486139297,0.0727374404668808,0.3236624300479889,-0.440375417470932,0.0932285264134407,0.06976308673620224,-0.1355644166469574,-0.0063782017678022385,0.0695379227399826,0.22227206826210022,-0.16287930309772491,0.05311093106865883,0.07227017730474472,0.16630512475967407,0.38931146264076233,0.19610917568206787,-0.24880272150039673,0.500873327255249,0.0221910048276186,0.04900110885500908,0.3861890435218811,-0.41098496317863464,-0.3469063341617584,-0.3632224500179291,0.11772831529378891,0.10709798336029053,-0.04497746378183365,0.27024975419044495,0.12161271274089813,-0.6939331889152527,0.29520660638809204,0.5109938979148865,-0.15447171032428741,0.07650132477283478,-0.3220861554145813,0.292052298784256,-0.44210878014564514,0.09402662515640259,0.24561567604541779,-0.08610246330499649,-0.013761153444647789,0.0034584798850119114,-1.2105973958969116,-0.06302259862422943,-0.0292530320584774,-0.023466823622584343,-0.4513331949710846,-0.11411917209625244,-0.259030818939209,-0.7886923551559448,0.14166252315044403,-0.04557894542813301,0.04471896216273308,0.39191898703575134,-0.11686039716005325,-0.5765039324760437,0.48722144961357117,0.21982024610042572,-0.18173915147781372,0.16598980128765106,-0.12107021361589432,0.020887119695544243,0.36950042843818665,0.4629049003124237,-0.1662154197692871,0.17213577032089233,-0.24300867319107056,0.12143701314926147,0.3682659864425659,0.2438054233789444,-0.28223222494125366,-0.029913170263171196,-0.19873644411563873,0.039696212857961655,0.41255080699920654,0.2615351378917694,0.06682514399290085,-0.6667090058326721,-0.2661702334880829,-1.0687443017959595,-0.6011318564414978,-0.3710954785346985,0.2563537359237671,-0.5172296166419983,-0.9761030673980713,-0.10479187965393066,0.22521749138832092,0.2849448323249817,-0.45303383469581604,-0.22837375104427338,3.472231864929199,-0.8233656883239746,0.1338212788105011,-0.32133427262306213,-0.7112274169921875,-0.02773704007267952,-0.1098654493689537,0.8530048727989197,-0.8889346718788147,1.8187872171401978,-0.36173978447914124,0.24793411791324615,0.9783022999763489,0.07117948681116104,0.611189067363739,-1.869137167930603,-0.4094778001308441,-0.5014998912811279,-0.34667646884918213,-0.22106009721755981,-0.2538900077342987,-0.28691574931144714,-0.9948353171348572,0.5004786252975464,-1.8079127073287964,0.6622315049171448,0.4542798697948456,0.22031602263450623,1.5829925537109375,1.3036627769470215,0.7823151350021362,-0.7550739049911499,1.3831127882003784,-2.166985511779785,-0.06128683313727379,0.7882762551307678,-0.06532146036624908,0.7717352509498596,0.082724429666996,-0.25875985622406006,0.35264191031455994,-0.1348467618227005,0.13888007402420044,0.4304073452949524,-0.7671651244163513,0.013218134641647339,-0.08758474141359329,-0.12103794515132904,0.7150874733924866,0.17288950085639954,0.41184377670288086,-0.27578005194664,0.06563887745141983,0.12386540323495865,0.17874492704868317,-0.636772096157074,-0.23276230692863464,-0.1839154213666916,-0.33978965878486633,-0.03012925013899803,0.43416890501976013,0.13206027448177338,-0.06627339869737625,0.2161710262298584,0.2748703360557556,-0.2489592432975769,-0.04982393607497215,-0.5244380235671997,-0.8669948577880859,0.40764784812927246,0.5713768601417542,-0.18758778274059296,0.22763939201831818,0.1658642292022705,0.019504491239786148,-0.07070962339639664,0.03853201866149902,0.23506154119968414,0.4302477240562439,-0.014062156900763512,-0.02760946936905384,-0.2549503743648529,-0.19662374258041382,0.006400384474545717,0.6773918271064758,-0.1422361135482788,-0.6310063600540161,0.23632940649986267,-0.3019554913043976,-0.12984922528266907,-0.4006209969520569,-0.1875980645418167,0.5110660791397095,0.24293328821659088,-0.028006702661514282,-0.09842711687088013,2.5493438243865967,-0.3724481761455536,-0.32830461859703064,0.25595590472221375,0.18141402304172516,-0.4708448648452759,-0.3734663724899292,0.4051504135131836,1.5088412761688232,-1.3608914613723755,0.2528891861438751,0.23347033560276031,0.37625035643577576,-0.0630974993109703,0.33924511075019836,0.1493225395679474,0.08159138262271881,-0.02618497423827648,-0.1908423900604248,0.01274881325662136,-0.30261725187301636,-0.12665614485740662,-0.23140820860862732,0.4212130904197693,-0.36762258410453796,0.2785925567150116,0.23171010613441467,0.9812971353530884,-0.332662433385849,-0.527327835559845,-0.702057421207428,0.5599890351295471,1.0493800640106201,-0.1333196759223938,0.049313321709632874,0.5091276168823242,-0.04284830763936043,0.29917827248573303,0.4583112895488739,-0.03891438990831375,-0.5799219012260437,0.7706199884414673,-0.45061931014060974,0.2215992957353592,-0.004560837056487799,0.292141318321228,0.9203600287437439,-0.20516832172870636,-0.029565809294581413,0.23560819029808044,-0.3069392144680023,0.21264593303203583,0.1497165411710739,-0.41921040415763855,0.4270024299621582,0.05340544134378433,0.027054285630583763,0.5750212073326111,0.0343567356467247,-0.301554411649704,-0.4530352056026459,0.06464128941297531,0.22828960418701172,0.5742148756980896,0.00996335968375206,-0.044322945177555084,0.20238712430000305,0.12342412024736404,0.08778563141822815,0.32666629552841187,-0.28223085403442383,0.37761974334716797,0.04836628586053848,0.7029853463172913,0.36977189779281616,-0.047592196613550186,-0.39834004640579224,-0.17293228209018707,0.10517348349094391,0.28352341055870056,-0.18169713020324707,0.2348698526620865,0.06476343423128128,-0.35896193981170654,-0.27247849106788635,-0.018380969762802124,0.07668812572956085,-0.16805776953697205,0.29089871048927307,-0.26919326186180115,-0.4651404619216919,0.007982616312801838,-0.1768166571855545,0.188779816031456,-0.18494953215122223,0.030152566730976105,0.053017303347587585,0.18693506717681885,0.2907291352748871,-0.24955427646636963,-0.14937898516654968,0.1578584760427475,0.0654502883553505,-0.16543516516685486,-0.05583701282739639,-0.0972852110862732,-0.13138234615325928,0.39941221475601196,0.22879880666732788,-0.0019592291209846735,-0.06660371273756027,-0.018484607338905334,0.04919169843196869,-0.3929594159126282,-0.21586978435516357,-0.044589076191186905,-0.1628129780292511,0.15111911296844482,-0.031612295657396317,0.18900181353092194,0.13271552324295044,-0.09223666787147522,-0.0338578037917614,0.24939502775669098,-0.02115560881793499,-0.14241890609264374,-0.20308880507946014,-0.3224163353443146,-0.050495944917201996,-0.06291615962982178,-0.11748993396759033,-0.14265260100364685,0.062061913311481476,0.16174624860286713,0.15465018153190613,-0.1410878300666809,-0.09018392860889435,0.1132841408252716,0.17768925428390503,-0.3400985598564148,-0.07801804691553116,0.2556171417236328,-0.05357651039958,-0.44540083408355713,-0.08505134284496307,0.3763752281665802,0.1254839450120926,-0.06615149229764938,0.2402910590171814,0.13149528205394745,0.054385438561439514,0.2024577260017395,-0.3673114776611328,0.4929739832878113,-0.285062700510025,0.3558898866176605,0.055167388170957565,-0.5888780951499939,-0.1112925186753273,0.29866737127304077,0.07803722470998764,0.32392507791519165,-1.122941255569458,0.1639237105846405,0.20525716245174408,0.2797575294971466,-0.3609429597854614,1.19579017162323,0.0073417359963059425,0.2996194064617157,-0.06646756082773209,-0.05905541032552719,-0.18819382786750793,-0.32334625720977783,-0.42760446667671204,-0.38639289140701294,-0.5242529511451721,0.12884192168712616,-0.2488694041967392,0.13337963819503784,0.02090313844382763,0.10265807807445526,0.16314637660980225,-0.3468611538410187,0.2551182508468628,-0.24981386959552765,0.5138455033302307,-0.09644141048192978,-0.12256702780723572,-0.16610784828662872,-0.5845011472702026,-0.11989796906709671,-0.11851518601179123,0.5602027773857117,0.22486945986747742,-0.26462265849113464,-0.16163474321365356,0.31963014602661133,-0.014809057116508484,-0.1230183020234108,-0.20537683367729187,0.11257673054933548,-0.2171820104122162,-0.04139934480190277,0.057284366339445114,-0.29744189977645874,0.02232905477285385,0.2483057975769043,-0.0682891383767128,-0.48820996284484863,-0.48515427112579346,0.2898688316345215,0.9603116512298584,0.09837744385004044,-0.029818706214427948,-0.016735590994358063,0.11436068266630173,0.2954840064048767,-0.01822342723608017,-0.06683831661939621,0.7310746908187866,0.8342067003250122,-0.06940855085849762,-0.3556479513645172,-0.041238002479076385,-1.244525671005249,-0.11716162413358688,0.37500590085983276,0.08912743628025055,0.09572632610797882,0.300393670797348,0.346057653427124,0.00815134309232235,0.01658538728952408,0.6779677271842957,-0.4916289150714874,-0.03254292905330658,0.15361548960208893,-0.07343140244483948,-0.03506395220756531,-0.799135148525238,0.46519914269447327,-0.16202855110168457,0.064665287733078,-0.061506178230047226,0.03891148790717125,0.019200198352336884,0.4606018364429474,-0.526861846446991,0.6979516744613647,-0.07801376283168793,-0.48800674080848694,-0.21762047708034515,-0.6934407353401184,0.14558100700378418,-0.10424866527318954,0.24247200787067413,0.13344065845012665,0.944212019443512,0.49397310614585876,-0.22624506056308746,-0.25071531534194946,-0.5881659388542175,0.14424629509449005,0.09971559792757034,0.30066269636154175,-0.10592837631702423,-0.322622150182724,0.08955096453428268,-0.029101088643074036,0.29891639947891235,-0.07811307162046432,0.15861861407756805,0.06690408289432526,0.13974912464618683,0.5176234841346741,0.12491679191589355,0.33810439705848694,0.375823438167572,0.27595603466033936,0.31695282459259033,-0.0925217792391777,0.33301329612731934,0.2795437276363373,-0.09295126795768738,-0.0010349367512390018,-0.04103810340166092,-0.12558552622795105,-0.5483295917510986,0.18081547319889069,-0.11145970225334167,0.045323196798563004,-0.4594241976737976,0.18232661485671997,0.18457908928394318,-0.4254648685455322,0.22295808792114258,-0.4329637885093689,0.23592209815979004,0.21421200037002563,0.59735107421875,0.1985779106616974,0.014106394723057747,-0.03352998569607735,-0.02927292510867119,-0.370413213968277,0.0009222290245816112,0.2077418714761734,-0.3409152626991272,-0.5065515041351318,-0.07062122225761414,-0.18617486953735352,-0.3996264636516571,-0.01320206094533205,0.034942347556352615,0.21900184452533722,0.29524025321006775,0.0824657678604126,0.18754932284355164,0.06108478456735611,-0.5524590015411377,-0.31141987442970276,-0.17690441012382507,0.020562227815389633,-0.22379626333713531,1.0683945417404175,-0.890770673751831,0.5672227740287781,-0.5825833678245544,0.10192141681909561,-1.3135840892791748,0.566298246383667,1.2397655248641968,0.20680896937847137,-0.05080127716064453,0.6962518692016602,1.1119780540466309,-0.6598203778266907,-0.6069148778915405,0.5346646308898926,-0.2540019154548645,-0.763690710067749,-0.238766610622406,-0.329531192779541,0.6540442109107971,-1.6145132780075073,1.291130781173706,1.2599908113479614,-0.12870188057422638,1.654423475265503,0.7836000919342041,-0.09071014076471329,-0.6038657426834106,0.25039318203926086,1.6073024272918701,1.0812216997146606,0.038238659501075745,0.5661543607711792,-0.13021220266819,-0.6554849147796631,-0.8998619914054871,-0.16444051265716553,0.4963732361793518,-1.1906073093414307,-0.4647843837738037,-0.05674487352371216,0.5319308638572693,0.37637534737586975,1.0631457567214966,0.08363349735736847,0.8144845366477966,-0.2607363760471344,-0.12548696994781494,0.19098986685276031,0.05224805325269699,0.057948578149080276,-0.0011009692680090666,0.20365305244922638,-0.2088446468114853,-0.08643121272325516,0.26307401061058044,0.11452074348926544,0.22537387907505035,0.04381997883319855,-0.09752947837114334,0.03499044477939606,-0.23343943059444427,0.12932148575782776,-0.05280393362045288,0.21540145576000214,-0.030702505260705948,-0.1863528937101364,-0.04195135831832886,0.20047160983085632,0.05784594267606735,-0.16233249008655548,-0.16761867702007294,0.13885149359703064,-0.021784044802188873,0.2257482260465622,-0.003997316118329763,-0.23835806548595428,-0.3912435472011566,0.25376445055007935,0.3262116611003876,-0.026857925578951836,-0.3081837296485901,-0.10581480711698532,0.45410895347595215,0.2154206782579422,0.15918727219104767,0.06304710358381271,-0.24622026085853577,-0.47294747829437256,-0.6405259370803833,-0.11523112654685974,-0.22590695321559906,-0.0026485593989491463,0.12878885865211487,-0.2335917353630066,0.15155664086341858,0.0973711609840393,0.26923561096191406,-0.013726466335356236,-0.45343461632728577,0.012891137041151524,-0.1549757570028305,0.0014368713600561023,-0.5021004676818848,0.1518847793340683,0.2648415267467499,-0.44465017318725586,-0.5301651358604431,0.30022358894348145,-0.32350438833236694,-0.02247610129415989,0.13604238629341125,-0.12675417959690094,0.2769782841205597,-0.4111383855342865,0.21145732700824738,-0.41996920108795166,-0.13697583973407745,0.3255870044231415,0.11350242793560028,0.29240134358406067,0.38037559390068054,0.5491822957992554,0.044739507138729095,-0.3484230935573578,-0.20117589831352234,-0.16730786859989166,-0.2832018733024597,-0.12961430847644806,-0.34307441115379333,0.8332006335258484,0.28513041138648987,0.2504948079586029,0.2173037976026535,0.18731525540351868,-0.4587132930755615,-0.027332043275237083,-0.3550652861595154,1.117774486541748,-0.44312232732772827,0.41305121779441833,0.05976137891411781,-0.4166538715362549,0.2109554409980774,0.9815610647201538,0.22416330873966217,0.21786125004291534,0.5953181385993958,-0.18318310379981995,-0.32367900013923645,0.23752079904079437,-0.019320717081427574,-0.14089125394821167,-0.5110807418823242,-0.6409800052642822,-0.802597165107727,0.3856869339942932,0.20989210903644562,-0.2048407942056656,-0.28346556425094604,0.16659530997276306,1.2598237991333008,-2.183969259262085,-0.5932906866073608,0.4682934880256653,-0.07330397516489029,0.47782084345817566,0.024985499680042267,0.5052565932273865,0.051511745899915695,0.7096709609031677,0.038559455424547195,0.7033121585845947,0.33831799030303955,-0.3048824369907379,0.6592938303947449,-0.23428237438201904,-0.3727549910545349,-0.9842804670333862,-0.19638888537883759,0.3652745187282562,0.21012626588344574,-0.17328083515167236,0.11783796548843384,0.12265807390213013,1.0523102283477783,-0.7736749649047852,-0.12920479476451874,-0.1146843209862709,-0.20974476635456085,0.12747448682785034,-0.7967455983161926,0.12281814217567444,0.20372562110424042,-0.1480851173400879,-0.11039771884679794,-0.17797020077705383,-0.2786864936351776,-0.09037655591964722,0.1637604534626007,0.18629422783851624,-0.38117715716362,0.10388652980327606,-0.5776480436325073,0.22560855746269226,0.12796872854232788,-0.09890234470367432,-0.09123490750789642,0.2613338828086853,-0.0944625735282898,-0.4232456386089325,-0.02518646977841854,0.10297343134880066,-0.2379811406135559,-0.22134269773960114,0.3515269160270691,-0.5086347460746765,0.16621790826320648,-0.39189350605010986,0.1585598886013031,0.014203147031366825,-0.04514766484498978,0.11097771674394608,-0.10641544312238693,-0.06708665192127228,-0.31656119227409363,0.1185782179236412,0.18825682997703552,-0.21136556565761566,0.17317447066307068,0.2784476578235626,0.12479154020547867,0.3255363702774048,-0.0217772014439106,-0.07230785489082336,-0.07968661189079285,-0.2129967212677002,-0.1466572880744934,-0.033306971192359924,-0.08510975539684296,0.20641528069972992,-0.21772401034832,0.32494404911994934,-0.3517293334007263,0.5335851907730103,-0.6351698637008667,0.13579322397708893,0.016307860612869263,0.009253617376089096,0.40848591923713684,0.09769070148468018,-0.29198044538497925,-0.39271605014801025,-0.5313684344291687,0.27673131227493286,-0.15402136743068695,-0.3061562180519104,0.06286516040563583,-0.27825647592544556,0.23047368228435516,-0.2402740865945816,0.6025205850601196,0.3974791169166565,-0.5250188708305359,-0.05130859091877937,0.2696647346019745,0.02253248170018196,-0.08127785474061966,-0.3217083811759949,0.1516641080379486,0.3988474905490875,-0.06389585137367249,0.09534193575382233,-0.06309257447719574,0.10770539939403534,0.2717483937740326,-0.7365915179252625,0.27891045808792114,-0.19493326544761658,-0.5124043226242065,-0.22233064472675323,-0.23481008410453796,0.3729851543903351,0.240920752286911,0.2882002294063568,0.34881454706192017,-0.38797515630722046,0.6381680369377136,0.02253902144730091,-0.1809292882680893,0.02333586849272251,-0.19536809623241425,-0.07597095519304276,-0.03194205462932587,-0.22621360421180725,0.25121667981147766,0.05712715536355972,-0.27513357996940613,0.044078752398490906,-0.14401979744434357,-0.08444473147392273,-0.19443829357624054,0.032716911286115646,0.09397581219673157,0.06330303102731705,0.2781573534011841,-0.07453280687332153,-0.11595138907432556,-0.16721060872077942,0.2228759378194809,0.5229974985122681,0.28592056035995483,-0.09675833582878113,-0.08605455607175827,0.0632057636976242,0.03406042233109474,0.2699103057384491,1.2356384992599487,0.16520985960960388,-0.25052541494369507,0.23714622855186462,0.14190421998500824,0.002467257436364889,-0.2970871329307556,-0.026544231921434402,-0.11853854358196259,-0.22707602381706238,0.34161660075187683,0.20062536001205444,0.26130211353302,-0.17631688714027405,0.02762465924024582,-0.5118387341499329,0.08981819450855255,0.21921274065971375,-0.20420752465724945,0.4070633351802826,-0.22358331084251404,0.18649186193943024,0.20094642043113708,0.055047329515218735,0.10476525127887726,-0.14102020859718323,0.46134382486343384,-0.15499676764011383,-0.1878686249256134,0.11522898823022842,0.4515798091888428,-0.2762162983417511,0.1712314784526825,-0.0635959729552269,-0.01635953225195408,-0.03336246311664581,-0.07632682472467422,-1.3377147912979126,0.07176047563552856,-0.6175967454910278,0.3737642765045166,-0.08336477726697922,0.35451239347457886,-0.7751247882843018,0.13163180649280548,-0.14348232746124268,0.08648048341274261,-0.09634112566709518,0.4717305600643158,-0.3036738336086273,0.5024269819259644,0.05836014077067375,0.292277455329895,-0.2953401803970337,0.869689404964447,-0.12736329436302185,-0.23406147956848145,-0.1916440725326538,0.21651476621627808,0.05608658120036125,-0.6036441922187805,-0.10647714883089066,-0.19036425650119781,-0.1459657996892929,-0.09423080831766129,-0.30871570110321045,0.11641710996627808,0.46321505308151245,0.3017631769180298,0.09132430702447891,0.36020785570144653,-0.13945065438747406,0.6859991550445557,-0.07107026129961014,0.1824752539396286,0.15373103320598602,-0.21373698115348816,-0.4072173535823822,0.006999390199780464,0.2518143653869629,0.11120261996984482,0.00842930655926466,-0.31226980686187744,0.4455909729003906,0.09548038989305496,-0.18456225097179413,-0.48128965497016907,0.5362939238548279,-0.06339855492115021,-0.047076791524887085,0.548155665397644,-0.050596971064805984,0.18110285699367523,-1.2891457080841064,-0.050778377801179886,0.30042412877082825,0.1430591195821762,0.20138226449489594,0.6360929608345032,-0.02766074799001217,0.004734314512461424,-0.7453181147575378,-0.20295827090740204,-0.16079182922840118,0.33226218819618225,0.38844719529151917,0.5344122052192688,0.6268661618232727,0.46770763397216797,-0.15604323148727417,0.422244668006897,-1.2912875413894653,-0.09585604071617126,0.403331458568573,-0.2700027823448181,0.6851821541786194,-0.6494719982147217,0.46054351329803467,-0.5625280737876892,0.5067285299301147,-1.2702432870864868,0.09216983616352081,0.8332573175430298,0.5285651087760925,0.18346181511878967,0.10730386525392532,-0.07225694507360458,-0.6145523190498352,-0.36283499002456665,0.44497424364089966,-0.18673399090766907,-0.7251783013343811,0.3685663640499115,-0.49025657773017883,0.4415738582611084,-0.9186397194862366,0.8265785574913025,0.6069096326828003,-0.20041604340076447,0.09932200610637665,0.6767458319664001,1.0449779033660889,0.17101159691810608,0.9493745565414429,-0.2212924361228943,-0.1734924465417862,0.5907557606697083,0.40686944127082825,0.30802643299102783,0.458421915769577,0.707016110420227,0.1185462549328804,0.286717027425766,-0.6494989991188049,-0.3972398638725281,-0.5107055902481079,-0.07146552950143814,0.6563096642494202,0.06886117160320282,0.019584614783525467,0.10956741869449615,-0.855380117893219,0.7684018015861511,-0.003156341379508376,0.07568220794200897,-0.4398976266384125,0.07625111192464828,-0.04697517678141594,0.448760449886322,-0.15030820667743683,-0.17311392724514008,-0.011377466842532158,-0.02460627816617489,-0.08696398138999939,-1.0586438179016113,0.21105432510375977,0.03359222039580345,-0.10800406336784363,-0.11769312620162964,0.14789846539497375,-0.10724625736474991,-0.15648944675922394,-0.38390228152275085,-0.05800579860806465,-0.18937468528747559,0.2474670261144638,0.1785706877708435,-0.18675556778907776,0.2380482256412506,-0.15832644701004028,0.007367314770817757,0.09460780024528503,-1.0778056383132935,0.25950732827186584,0.22881583869457245,-0.2811447083950043,-0.09968966990709305,-0.02568569965660572,0.3091413974761963,0.0899832621216774,0.2926355302333832,0.06930656731128693,-0.4176333248615265,-0.32220515608787537,-0.801895022392273,-0.3242008090019226,-0.15317268669605255,-0.048768896609544754,-0.23207896947860718,-0.22111396491527557,0.127785786986351,0.42294439673423767,0.24224065244197845,0.18436439335346222,0.26977336406707764,0.20623274147510529,0.4521577060222626,-0.3654267489910126,-0.14332209527492523,-0.03949197754263878,0.016584543511271477,-0.10019078105688095,-0.7688926458358765,0.4794643521308899,-0.10301847755908966,0.012261418625712395,-0.2670838534832001,0.07853493839502335,0.16063593327999115,-0.22764898836612701,-0.6396136283874512,0.515773594379425,0.01899397186934948,0.2565305531024933,-0.012127486988902092,-0.21277475357055664,0.1854483187198639,-0.0033850492909550667,-0.08100470900535583,-0.032920170575380325,-0.8823385834693909,0.3010190725326538,0.1287984997034073,-0.24007895588874817,-0.2374257594347,-0.20766130089759827,-0.09532710909843445,0.2777266800403595,0.13329075276851654,0.3657800853252411,0.0065776752308011055,0.06956811994314194,0.25828200578689575,0.20962361991405487,-0.8183908462524414,-0.209088996052742,0.15464019775390625,-0.19773243367671967,0.1953166127204895,0.10815011709928513,0.2524023950099945,-0.2177976667881012,0.03428413346409798,-0.1040370762348175,0.30990955233573914,-0.3741229176521301,0.15768083930015564,-0.03842184320092201,-0.8858088850975037,-0.21123456954956055,0.16135665774345398,-0.03681011497974396,0.09857761114835739,0.08553356677293777,-0.014210840687155724,0.42680078744888306,0.3044680058956146,-0.5812749266624451,-0.1017807275056839,-0.41157564520835876,-0.3905471861362457,0.2180812656879425,0.3410781919956207,-0.2426169216632843,0.008992756716907024,0.20358271896839142,0.22869783639907837,1.12718665599823,-0.05789642035961151,-0.19191178679466248,-0.44733983278274536,-0.26797083020210266,0.20374304056167603,-0.7991586923599243,-0.08642224967479706,0.06099274381995201,0.11326529085636139,0.2461300790309906,0.09555927664041519,0.20015989243984222,-0.15607212483882904,0.04572182893753052,-0.30372241139411926,-0.5653055310249329,-0.21647746860980988,0.128371000289917,0.015920020639896393,0.06685309112071991,-0.5506975650787354,0.1700723022222519,-0.700986921787262,0.11568062752485275,-0.3777723014354706,0.29196301102638245,0.35345301032066345,0.17773374915122986,0.4599926173686981,-0.1757553070783615,-0.28760960698127747,-0.2697776257991791,0.14679206907749176,0.250285804271698,-0.2784988284111023,-0.7101015448570251,0.3492332994937897,-0.06094871833920479,0.494513601064682,-0.23133055865764618,0.3692038953304291,0.09435034543275833,-0.0679972693324089,0.2616605758666992,0.1591496765613556,0.03838362172245979,-0.1264217346906662,-0.04190691187977791,0.2593860328197479,0.017053799703717232,0.09224759042263031,0.22075243294239044,-0.18733368813991547,0.15172724425792694,0.20428058505058289,0.2649093568325043,0.24859748780727386,-0.24105575680732727,-0.14493441581726074,-0.4295494556427002,0.10143968462944031,0.3585110902786255,0.022013291716575623,0.6780169606208801,0.36757463216781616,-0.48030415177345276,0.24083301424980164,0.027049070224165916,-0.1756221503019333,0.3113180100917816,-0.30267712473869324,0.4828001856803894,-0.4289376139640808,0.1410001963376999,0.2152458131313324,0.2324330061674118,0.09611982852220535,0.0095170633867383,-0.2895035743713379,-0.10277804732322693,-0.3046143651008606,0.1968008279800415,-0.7381249070167542,-0.40994811058044434,-0.23627737164497375,-0.7086421251296997,0.2860241234302521,-0.08131783455610275,0.7550091743469238,0.266910195350647,-0.5129747986793518,-0.47847679257392883,0.48032596707344055,0.02334701456129551,0.10133043676614761,0.5276435017585754,-0.02492382749915123,0.015119240619242191,0.9101176261901855,1.0732349157333374,-0.6022564768791199,0.14436733722686768,-0.6937699913978577,-0.3689665198326111,0.20226018130779266,-0.20345920324325562,-0.6851258277893066,0.24259066581726074,0.4139726758003235,-0.7566726207733154,0.45732569694519043,0.43917614221572876,-0.021404990926384926,-0.19117380678653717,-0.3483524024486542,0.7190637588500977,-0.8210852146148682,0.41973188519477844,0.6537737250328064,0.0030838903039693832,-1.1144342422485352,0.15996842086315155,0.5529054403305054,0.13667593896389008,-0.22352351248264313,-0.024045690894126892,0.3194650113582611,-0.4382157027721405,-0.692200779914856,0.5184628367424011,-1.3459521532058716,-0.6604828834533691,0.6341544985771179,-1.0143636465072632,-0.3265704810619354,-0.09313865751028061,0.4395040273666382,0.3667004406452179,-0.13018131256103516,0.544130802154541,0.5358295440673828,0.9923327565193176,-0.238196462392807,0.7830684185028076,1.0309621095657349,1.0696005821228027,0.7077253460884094,0.49918726086616516,0.08977751433849335,-0.6334781646728516,-0.46074315905570984,0.7741117477416992,0.6077490448951721,-1.0515433549880981,-0.24328617751598358,0.2190576046705246,1.3353971242904663,-0.0984170213341713,0.07429615408182144,-0.23368218541145325,0.25042724609375,-0.18569953739643097,0.40222811698913574,-0.5437668561935425,-0.4142325222492218,-0.16838876903057098,-0.005420828703790903,0.500441312789917,-0.39040449261665344,0.29025405645370483,-0.2988392412662506,-0.08760900050401688,0.5839759707450867,0.028057459741830826,-0.04750550538301468,-0.22961556911468506,-0.2595789432525635,-0.07134187966585159,0.1816595196723938,-0.40720638632774353,0.08416086435317993,0.4321960210800171,0.4464043080806732,0.03942245990037918,0.24588963389396667,0.266255646944046,-0.26167017221450806,0.1117779091000557,0.3723144233226776,0.2256670594215393,0.036281563341617584,-0.308218389749527,-1.2940149307250977,-0.09663339704275131,-1.0762277841567993,0.20758163928985596,-0.11896049976348877,0.2628342807292938,-0.06501521170139313,-0.3305791914463043,0.040427982807159424,-0.08614151924848557,-0.44126757979393005,-0.6333645582199097,-0.32689282298088074,0.18203812837600708,0.015902945771813393,0.5553097128868103,0.1470254361629486,-0.5479951500892639,0.3599570691585541,0.42907339334487915,-0.08944398909807205,0.07796172797679901,0.6242929100990295,-0.45975711941719055,-0.20746617019176483,-0.21840710937976837,0.1268543303012848,0.24280408024787903,-0.3378123939037323,-0.2853129208087921,1.3182377815246582,-0.135878324508667,0.23812656104564667,-0.08896926045417786,-0.01030861958861351,-0.07783979177474976,0.027128664776682854,-0.9494360089302063,0.05500251054763794,0.42025071382522583,-0.15644975006580353,0.26374566555023193,0.16475142538547516,-0.13024020195007324,-0.01951044611632824,-0.10631892085075378,0.3431546986103058,0.25807246565818787,0.025833353400230408,0.07334087789058685,0.3605271577835083,-0.20447257161140442,0.21070966124534607,-0.22923098504543304,0.1671701818704605,0.5185539722442627,2.471655170666054e-05,0.6793280839920044,-0.05137628689408302,0.07146669924259186,0.39994826912879944,0.22254951298236847,-0.4240381419658661,-0.12116976827383041,-0.09971120953559875,0.6132180094718933,-0.13771286606788635,-0.1368744671344757,0.3440513610839844,0.11487523466348648,-0.9558972716331482,1.0037574768066406,-0.5505712628364563,0.5188630223274231,-0.09043846279382706,0.4601854085922241,1.446337342262268,-0.035399384796619415,-0.1510736495256424,-0.010234540328383446,0.017138594761490822,-0.009653356857597828,0.35424062609672546,-0.4432302713394165,0.3933843672275543,0.09086594730615616,0.3390082120895386,0.09837881475687027,0.40668973326683044,-0.007633666507899761,-0.33889344334602356,0.43333977460861206,0.30961453914642334,0.49035799503326416,-0.11889441311359406,0.07669749855995178,0.06539151072502136,0.2417638748884201,-0.16863183677196503,0.5012857913970947,-0.23068177700042725,0.07899496704339981,0.06614342331886292,0.28822746872901917,0.2567053735256195,0.14997805655002594,-0.7091960906982422,-0.04439111053943634,0.3154557943344116,0.49224668741226196,-0.21731597185134888,1.2342438697814941,0.19954857230186462,-0.34503602981567383,-0.10980688780546188,0.10079216212034225,0.20164266228675842,-0.2237662374973297,0.07322541624307632,-0.12888996303081512,-0.13214516639709473,0.18685585260391235,-0.18046747148036957,0.0859743058681488,-0.39534252882003784,0.16838303208351135,-0.25948265194892883,0.3701782524585724,0.13576959073543549,-0.034575168043375015,0.11017385870218277,0.3728164732456207,0.12099519371986389,-0.28914493322372437,-0.07901585102081299,-0.05913776531815529,-0.09873214364051819,0.07233573496341705,0.6757900714874268,-0.046526793390512466,0.21405577659606934,-0.006535837426781654,-0.1459229439496994,-0.31637805700302124,-0.04194779694080353,-0.031486235558986664,0.10890457779169083,0.06850185990333557,-0.07915525883436203,0.006032282020896673,0.14315742254257202,-0.046268198639154434,-0.07359583675861359,0.07217071205377579,-0.27996790409088135,0.05800089240074158,-0.14640074968338013,0.04394655302166939,-0.3451946973800659,-0.2715264856815338,-0.13476870954036713,-0.10287921875715256,-0.008150674402713776,0.3386577367782593,-0.3473164737224579,-0.25744980573654175,-0.15919366478919983,0.20073947310447693,-0.3138391673564911,0.3202359974384308,0.4675580561161041,0.23677118122577667,0.202661395072937,0.15426623821258545,-0.1771133840084076,-0.3292546272277832,-0.005801037419587374,0.04685845226049423,0.010421214625239372,-0.034860722720623016,-0.3550978899002075,-0.47548991441726685,-0.10135971754789352,0.07103291898965836,0.8102676868438721,0.4076975882053375,-0.03122715838253498,0.27999743819236755,0.15199331939220428,0.3184221088886261,0.02187027409672737,-0.08343993872404099,0.30025210976600647,0.3634497821331024,0.2936300039291382,0.10383173078298569,0.23052819073200226,0.14216800034046173,0.3315611183643341,-0.09360258281230927,0.27765974402427673,-0.2900039255619049,-0.6445642113685608,-0.42299720644950867,-0.7190150618553162,0.0013385516358539462,0.1296447068452835,0.16954465210437775,-0.020531177520751953,-0.275654137134552,0.03107401728630066,0.4352400600910187,0.0328560546040535,-0.08037945628166199,-0.17238597571849823,-0.1714983433485031,-0.474282443523407,-0.14748014509677887,0.6627063155174255,0.11991371959447861,-0.23771171271800995,0.15492002665996552,0.758013129234314,-0.3314627408981323,-0.08896820992231369,-0.028643453493714333,0.09559860825538635,0.06654240936040878,0.17381997406482697,-0.05560190603137016,0.11172950267791748,-0.28835123777389526,-0.08724735677242279,0.2839113771915436,0.10315895080566406,0.027852965518832207,0.1284676492214203,0.9250630140304565,0.23067806661128998,-0.08767340332269669,-0.2799762487411499,0.3165166974067688,0.8201101422309875,0.022014189511537552,0.2804778218269348,0.1345224380493164,0.8071619272232056,0.14775703847408295,0.12635739147663116,0.07534193992614746,0.6117870211601257,0.8358727097511292,-0.46277332305908203,0.005530093796551228,-0.13272079825401306,-1.179076075553894,0.07753827422857285,-0.16861246526241302,0.39029303193092346,-0.06617157906293869,-0.32597753405570984,-0.09521985799074173,0.02505277469754219,0.09603684395551682,-0.1913752406835556,-0.07628104835748672,-0.025131359696388245,-0.08380789309740067,0.14487113058567047,-0.12193328142166138,-0.20567555725574493,-0.12771683931350708,-0.15137365460395813,-0.044755227863788605,-0.13917884230613708,-0.11747465282678604,0.021361714228987694,0.11684019863605499,-0.08083133399486542,0.8162841796875,0.06806819885969162,-0.17796844244003296,0.19669632613658905,-0.25623074173927307,0.03794258460402489,-0.43680956959724426,0.16927312314510345,0.2425210028886795,0.9065229892730713,0.09981197863817215,0.3418169915676117,-0.08366433531045914,-0.06300632655620575,-0.21459819376468658,0.09630362689495087,-0.14221994578838348,-0.24303306639194489,-0.05686741694808006,-0.049448031932115555,-0.04457411542534828,-0.18047082424163818,-0.034727443009614944,0.18805837631225586,-0.009467140771448612,0.14641980826854706,0.4878494441509247,0.29199010133743286,0.037259552627801895,-0.37094077467918396,-0.27075570821762085,-0.05860108882188797,-0.19647051393985748,-0.3237520754337311,0.12133536487817764,-0.1589004248380661,-0.1964033842086792,0.000531364290509373,0.028698666021227837,0.08105739951133728,-0.38880467414855957,0.1104256883263588,-0.11069713532924652,0.2726568281650543,-0.3117603361606598,-0.10471191257238388,-0.1274918019771576,-0.04693595692515373,-0.19041647017002106,0.14579464495182037,0.09973672777414322,0.010543706826865673,0.034977056086063385,-0.3619152009487152,-0.13009129464626312,0.13805611431598663,0.08716736733913422,0.2021765410900116,-0.11627495288848877,0.04968765005469322,0.2570871412754059,0.20540812611579895,0.23363126814365387,-0.32140129804611206,-0.15562546253204346,-0.1716175377368927,-0.028485311195254326,-0.20839817821979523,-0.10252150893211365,-0.1956949532032013,-0.050836846232414246,-0.11756610125303268,0.2922327220439911,0.026797538623213768,-0.04614386335015297,-0.05693340301513672,0.4933013319969177,-0.025105878710746765,0.13769923150539398,0.05115555599331856,0.033624015748500824,-0.02102583833038807,0.09431463479995728,0.961585521697998,-0.002959775971248746,-0.053841158747673035,0.01699305884540081,0.04878386855125427,-0.27888718247413635,-0.03067830763757229,0.06555245071649551,