{"version":"0.4.0","metadata":{"name":"Dingwall Bass","modeled_by":"Steve Atkinson","gear_type":"amp","tone_type":"clean"},"architecture":"WaveNet","config":{"layers":[{"input_size":1,"condition_size":1,"head_size":8,"channels":16,"kernel_size":3,"dilations":[1,2,4,8,16,32,64,128,256,512],"activation":"Tanh","gated":false,"head_bias":false},{"input_size":16,"condition_size":1,"head_size":1,"channels":8,"kernel_size":3,"dilations":[1,2,4,8,16,32,64,128,256,512],"activation":"Tanh","gated":false,"head_bias":true}],"head":null,"head_scale":1.0},"weights":[0.3835485577583313,0.5359688997268677,-0.9955689311027527,-0.7553601264953613,-0.1494733691215515,1.2345675230026245,-0.17867663502693176,1.0769165754318237,-0.9440643191337585,1.1597353219985962,-1.262491226196289,-0.44614842534065247,-0.6159268617630005,-1.295629620552063,-0.8408089280128479,1.2146446704864502,0.1296682208776474,-0.02778073400259018,-0.40716004371643066,0.08225637674331665,0.06481315940618515,0.05285859480500221,-0.17531780898571014,0.09560702741146088,0.052842285484075546,-0.13417649269104004,0.11460475623607635,-0.0721464604139328,-0.18950504064559937,-0.01516042836010456,0.059960588812828064,0.24698862433433533,-0.10480455309152603,-0.1958756148815155,-0.19836333394050598,-0.08295533806085587,0.13191452622413635,0.2669599950313568,0.07112390547990799,-0.022091953083872795,-0.061511967331171036,0.030655009672045708,0.29410070180892944,-0.026444345712661743,-0.15586675703525543,-0.269939661026001,-0.04665550962090492,0.08706997334957123,0.05941019579768181,-0.14402779936790466,0.08234010636806488,0.23274321854114532,-0.07999961078166962,0.016039252281188965,0.16521544754505157,-0.22580444812774658,0.023479828611016273,-0.01888315938413143,-0.22558577358722687,-0.061622921377420425,0.18578462302684784,0.10557256639003754,-0.18393409252166748,-0.21149404346942902,0.12122607976198196,-0.09941240400075912,-0.3088673949241638,0.08062585443258286,0.131083145737648,0.09197911620140076,-0.14348545670509338,-0.08474469929933548,0.11814332008361816,0.07804687321186066,0.08935104310512543,0.17650926113128662,0.016032785177230835,-0.13908147811889648,0.096205934882164,-0.07690206915140152,-0.09280462563037872,0.0546453483402729,0.02010909654200077,-0.1635543256998062,0.1999717652797699,0.006183492951095104,0.0026925033889710903,-0.14279288053512573,-0.006242784671485424,-0.05619370937347412,0.2791958153247833,0.1182280033826828,0.09175898134708405,-0.12143804132938385,-0.16937588155269623,-0.1247381791472435,0.16428712010383606,-0.001848540618084371,-0.16072241961956024,-0.031156199052929878,0.0925975888967514,0.06633695960044861,-0.011268912814557552,-0.06971736252307892,-0.16966408491134644,0.06729581952095032,-0.13812723755836487,-0.13968372344970703,0.0765482559800148,0.08089472353458405,-0.03964945301413536,-0.08280669152736664,-0.7091677784919739,-0.09469004720449448,2.065803050994873,-0.43846696615219116,-0.39207956194877625,0.7910001277923584,0.4106825292110443,0.4967099726200104,-0.7356845736503601,0.3281491696834564,0.3102262020111084,-0.6735978722572327,0.334860622882843,0.379138320684433,-0.926087498664856,-1.053750991821289,-1.1244480609893799,0.8468663096427917,0.6440409421920776,0.3873966932296753,-1.9147459268569946,-0.45816630125045776,-0.36853310465812683,0.8802012801170349,0.4796718657016754,0.11229031533002853,-1.7525925636291504,-0.41599223017692566,-0.12348524481058121,1.5773060321807861,0.8606653809547424,0.7369998693466187,-1.1790728569030762,0.5124739408493042,0.7945433855056763,-0.8411487340927124,0.2201288938522339,0.18919126689434052,-0.893737256526947,0.376769483089447,0.4880002737045288,-0.8206704258918762,0.6735700964927673,0.44184958934783936,-0.9129898548126221,-0.9786708354949951,-0.7418314814567566,1.7252787351608276,0.18798045814037323,-0.0835965946316719,-0.5365368127822876,-0.0035692155361175537,-0.020756570622324944,-0.10906600952148438,-0.18876424431800842,0.04198922961950302,-0.014995143748819828,-0.12765303254127502,0.12499478459358215,0.04674093425273895,-0.0010692375944927335,0.0350797064602375,0.00792758073657751,0.23353098332881927,0.06815255433320999,-0.16825762391090393,-0.11906954646110535,-0.1409078985452652,0.3048306107521057,0.10461632162332535,0.11473586410284042,-0.09881444275379181,-0.13874775171279907,0.11576971411705017,0.34845128655433655,0.15209823846817017,-0.159670889377594,-0.22652243077754974,-0.028586460277438164,0.06307142972946167,0.055464163422584534,-0.11649119108915329,-0.14456309378147125,0.024241339415311813,-0.21013319492340088,0.05223993957042694,0.022629955783486366,-0.13751056790351868,-0.009562487713992596,0.22552210092544556,-0.2520672380924225,-0.11789710074663162,0.07386840879917145,0.3418537676334381,0.005470446776598692,-0.16240432858467102,0.45733457803726196,0.0782751739025116,-0.48204687237739563,0.18504595756530762,0.07913316786289215,-0.25177210569381714,-0.23444817960262299,-0.05324031412601471,0.10763600468635559,-0.2888205349445343,0.055132798850536346,0.09892471134662628,-0.25397631525993347,0.06468208134174347,0.27025043964385986,0.27812060713768005,-0.022128138691186905,-0.15433785319328308,-0.5210901498794556,-0.1635621190071106,0.3167267143726349,0.23405203223228455,0.08423954248428345,-0.1078023761510849,-0.4002801775932312,0.005428156815469265,0.4456237256526947,0.2772706151008606,0.17894507944583893,-0.41232049465179443,-0.35152560472488403,-0.050602249801158905,0.30579274892807007,-0.12739358842372894,-0.11815930902957916,0.2317020446062088,-0.13012735545635223,-0.19969956576824188,0.31213849782943726,-0.3685532808303833,-0.07646430283784866,0.2080480307340622,-0.3437846302986145,-0.06732268631458282,0.3604329526424408,0.3712747097015381,0.07744491100311279,-0.3520209491252899,-0.36032184958457947,0.0832555964589119,0.697798490524292,-0.21968626976013184,-0.23487474024295807,0.2560168206691742,0.21064859628677368,0.281673789024353,-0.1318713128566742,0.07361859828233719,0.113785520195961,-0.1177031621336937,0.2515149712562561,0.1938474327325821,-0.3113115131855011,-0.30956166982650757,-0.4169439673423767,0.29041334986686707,0.2463551163673401,0.05014919862151146,-0.39312320947647095,-0.24871201813220978,-0.1934022754430771,0.2598019540309906,0.21643006801605225,-0.06742642819881439,-0.743775486946106,-0.09508554637432098,-0.08350023627281189,0.5874764919281006,0.1597914695739746,0.2644749581813812,-0.3180186152458191,0.15730391442775726,0.12641526758670807,-0.1563924252986908,0.16156867146492004,0.13073623180389404,-0.19848068058490753,0.0724882185459137,0.2828727960586548,-0.32769498229026794,0.23513062298297882,0.13609477877616882,-0.34306415915489197,-0.33500978350639343,-0.3037174940109253,0.5648471117019653,-1.1206485033035278,-0.27102670073509216,2.1717724800109863,-0.5460085868835449,-0.40471839904785156,0.852759838104248,0.5444395542144775,0.47716090083122253,-0.8826536536216736,0.5367618799209595,0.5158080458641052,-0.7613511681556702,0.6672366261482239,0.5175638198852539,-0.9383198618888855,-1.0655921697616577,-0.7533731460571289,1.1883540153503418,1.200642466545105,0.4698196053504944,-1.7262845039367676,-0.6137087345123291,-0.42687636613845825,1.0405226945877075,1.185616374015808,0.2001822590827942,-1.9437428712844849,-1.1729369163513184,-0.24038907885551453,1.6573206186294556,0.8778624534606934,0.675058126449585,-1.1270393133163452,0.9290090203285217,0.7223676443099976,-0.8965227603912354,0.5319220423698425,0.3813888132572174,-0.7079824209213257,0.8585599660873413,0.4507257342338562,-0.8998194932937622,0.9452975392341614,0.6439204216003418,-1.224736213684082,-1.4261493682861328,-0.6812862157821655,1.9406217336654663,0.2594836950302124,0.024525564163923264,0.06945129483938217,0.2374039590358734,-0.09701969474554062,0.008647255599498749,-0.2896052300930023,0.0979810580611229,-0.03465207293629646,-0.3170170187950134,-0.06477506458759308,0.18113133311271667,-0.1145716980099678,0.19519096612930298,0.15553830564022064,0.06051086634397507,-0.2593950033187866,-0.06456517428159714,-0.3953244686126709,0.1167314201593399,-0.1783294677734375,0.13153624534606934,-0.20509345829486847,-0.13115791976451874,-0.22670160233974457,0.07597660273313522,0.012686350382864475,0.4028666913509369,0.11759649217128754,-0.006060888525098562,-0.15257196128368378,0.24401861429214478,0.08836730569601059,-0.04271542653441429,0.18707908689975739,0.1568736881017685,-0.21764084696769714,0.10237985104322433,0.07364474982023239,-0.23035916686058044,-0.008324538357555866,-0.02878716215491295,-0.31734147667884827,0.18058335781097412,0.14102821052074432,0.28269678354263306,-0.14520518481731415,0.19473348557949066,-0.09436945617198944,0.06286182254552841,1.3020647764205933,-0.01084565743803978,-0.18883301317691803,0.1634834259748459,0.2943543791770935,0.3913155198097229,-0.35186588764190674,0.21960100531578064,0.16528689861297607,-0.2876240313053131,0.29906991124153137,0.29231175780296326,-0.43448805809020996,-0.41152307391166687,-0.5841859579086304,0.35088056325912476,0.39511623978614807,0.3552975058555603,-1.0393805503845215,-0.2683453857898712,-0.2928456664085388,0.41521134972572327,0.3653745949268341,0.029000526294112206,-1.0046013593673706,-0.3722553253173828,-0.30749404430389404,0.7989940047264099,0.17114102840423584,0.4647922217845917,-0.345121830701828,0.2167951762676239,0.27269816398620605,-0.376980721950531,0.1679786890745163,0.11397697776556015,-0.1764669269323349,0.06580185145139694,0.18117550015449524,-0.4859268367290497,0.20315399765968323,0.4523976445198059,-0.5353071689605713,-0.4658588171005249,-0.5454562306404114,0.9503879547119141,-0.28263160586357117,-0.21389701962471008,0.3962569832801819,-0.047076232731342316,0.09072428941726685,0.19447337090969086,0.04594184458255768,0.18552172183990479,-0.10973314195871353,0.19670146703720093,-0.059466686099767685,-0.15892769396305084,-0.012887412682175636,-0.0035411673597991467,-0.09755385667085648,-0.26795724034309387,-0.03531548008322716,0.19538260996341705,0.2787609100341797,0.009827852249145508,-0.3107512593269348,-0.19998633861541748,-0.010054086335003376,0.26181164383888245,0.3237391710281372,0.059330422431230545,-0.1853213608264923,-0.3643108904361725,-0.21205176413059235,0.24869294464588165,0.09594741463661194,0.15565724670886993,-0.23272380232810974,0.06967826187610626,-0.051972053945064545,-0.04538988322019577,0.09979262202978134,0.15652070939540863,-0.03195200860500336,0.2284449189901352,0.07348138839006424,-0.16868598759174347,0.12079703062772751,0.08678160607814789,-0.06306944787502289,-0.32390296459198,0.023068496957421303,0.17564310133457184,-0.10952354222536087,0.06067604199051857,0.40852516889572144,0.11386196315288544,-0.09599319845438004,0.12581172585487366,0.08157826960086823,0.04165634885430336,0.08870876580476761,-0.06233489140868187,0.005090742837637663,0.03626677393913269,-0.03954198956489563,0.001723535475321114,-0.09622684866189957,0.07785563915967941,-0.03566638380289078,-0.047607630491256714,0.11065885424613953,0.02179151214659214,-0.22323638200759888,-0.003922625910490751,0.1237085685133934,0.02793225087225437,0.07132416218519211,-0.12928813695907593,-0.1565169245004654,-0.1262233406305313,-0.002769534243270755,0.08766446262598038,0.15044356882572174,-0.06941530108451843,-0.04889252409338951,-0.0526544414460659,0.12711967527866364,0.13423585891723633,-0.0905986875295639,-0.15777306258678436,-0.13433140516281128,0.012604732066392899,-0.07633690536022186,-0.13255582749843597,-0.04076031222939491,-0.014740388840436935,-0.1304033398628235,-0.0044838362373411655,0.0019905713852494955,0.07122977823019028,-0.16936105489730835,0.10662101954221725,0.04537663236260414,-0.09611731022596359,-0.03886334225535393,0.2943672835826874,-0.018252898007631302,-0.15048439800739288,-0.007531935814768076,0.01061377301812172,0.013282601721584797,-0.16504767537117004,0.0995308980345726,-0.034933850169181824,-0.03986413776874542,-0.1677098274230957,-0.13286755979061127,0.04862614721059799,0.14748314023017883,0.09348887950181961,-0.21678566932678223,0.008557150140404701,-0.022457603365182877,0.12128884345293045,0.2867642343044281,0.08162878453731537,-0.026173057034611702,-0.08766170591115952,-0.05880669504404068,0.03878214955329895,0.15403412282466888,0.1151980385184288,-0.18883280456066132,0.005700685549527407,0.0431387685239315,-0.010127764195203781,0.04827258735895157,-0.13451912999153137,-0.2818538248538971,0.16721908748149872,-0.018644575029611588,-0.22031894326210022,0.17413505911827087,0.050142623484134674,-0.026568708941340446,-0.11569543182849884,-0.03970544412732124,0.0023603737354278564,-0.21100004017353058,0.16004791855812073,0.2712180018424988,0.02833976037800312,-0.11063284426927567,0.158542662858963,0.16079266369342804,0.10674216598272324,-0.1628948450088501,-0.02889271266758442,-0.12321388721466064,0.10879896581172943,-0.04202279821038246,-0.08835900574922562,0.009088230319321156,-0.14830809831619263,-0.11903346329927444,0.00762860057875514,0.07461605221033096,-0.10398793965578079,-0.03555791452527046,-0.10262273252010345,0.06337639689445496,0.17176872491836548,0.13794371485710144,-0.02168308012187481,-0.07195796072483063,-0.025104576721787453,-0.023868558928370476,0.2921740412712097,0.09074286371469498,-0.13362008333206177,-0.09694211930036545,-0.048265330493450165,0.13849113881587982,-0.045580193400382996,-0.10430452227592468,-0.034457411617040634,0.0608370304107666,0.07680140435695648,0.0347110740840435,-0.029219459742307663,0.09662934392690659,-0.04413522407412529,-0.11967484652996063,-0.19196867942810059,-0.09598740935325623,0.24642209708690643,-0.204900860786438,-0.11003027111291885,-0.35353994369506836,0.02908516861498356,0.04071790352463722,0.1469351053237915,-0.09783314168453217,-0.02137400209903717,-0.11701244115829468,-0.05037374794483185,-0.05420016124844551,-0.07075367867946625,0.11506146937608719,-0.21977953612804413,-0.09204855561256409,-0.020679986104369164,0.20412775874137878,0.09170550107955933,-0.01987956464290619,0.0712767094373703,0.23901982605457306,-0.02041223831474781,0.2417009472846985,-0.12968996167182922,0.042495571076869965,0.13347530364990234,0.22250691056251526,0.07857982069253922,-0.0013251088093966246,-0.05753244832158089,-0.14862310886383057,-0.16098544001579285,0.0372985415160656,0.02436157315969467,-0.10238566249608994,0.1200772076845169,-0.04007457569241524,-0.12819109857082367,0.08855164051055908,-0.05584973096847534,-0.014137606136500835,-0.07883871346712112,-0.031014638021588326,-0.14538435637950897,0.10561481863260269,0.11863965541124344,0.031086277216672897,-0.3638842701911926,0.5460391640663147,0.30450350046157837,-0.3203968107700348,0.02755398117005825,0.157993346452713,-0.031966790556907654,-0.11760212481021881,-0.21756292879581451,0.2764100432395935,-0.22941900789737701,-0.036640461534261703,0.17941084504127502,-0.17538051307201385,-0.015287872403860092,0.08780013024806976,0.14745312929153442,0.018070032820105553,-0.26476120948791504,-0.2186463326215744,0.044045090675354004,0.43454709649086,0.2392152100801468,0.07671881467103958,-0.2611866295337677,-0.40105652809143066,-0.24870678782463074,0.5535606145858765,0.19458582997322083,0.11174459755420685,-0.3153550624847412,-0.06057623401284218,0.012178236618638039,0.3770616948604584,-0.22373506426811218,-0.11536803096532822,0.11184520274400711,-0.19733169674873352,-0.023075755685567856,0.2907045781612396,-0.2510453462600708,0.0005231340182945132,0.12706898152828217,-0.1643870770931244,0.02696368657052517,0.20628172159194946,0.1634417176246643,-0.03936794027686119,-0.38110479712486267,-0.3179153800010681,-0.2177615463733673,0.10172806680202484,-0.21740615367889404,-0.10824494063854218,0.1400422751903534,0.23997654020786285,-0.04641706869006157,-0.06125791743397713,0.23536035418510437,0.0866287350654602,-0.2092525064945221,0.12091436982154846,-0.04099924489855766,-0.22941868007183075,-0.1686474233865738,0.09793227165937424,0.21730756759643555,0.2806709110736847,0.12697172164916992,-0.11814884096384048,-0.03321665897965431,-0.0651700422167778,0.019366184249520302,0.2815992534160614,0.17248082160949707,-0.20907635986804962,-0.09733143448829651,-0.013362268917262554,-0.016387831419706345,0.14120882749557495,0.139662504196167,-0.2183370590209961,0.09298503398895264,0.036771003156900406,-0.25496235489845276,0.1834830939769745,0.06802099943161011,-0.04122215509414673,0.05032724514603615,0.14886392652988434,-0.2060079574584961,0.3009979724884033,-0.1269034743309021,-0.24089430272579193,-0.19653624296188354,-0.08523842692375183,0.052901655435562134,0.005333690904080868,-0.09143996238708496,-0.04350585490465164,-0.12185528874397278,0.011626793071627617,0.10264702886343002,0.009851738810539246,-0.003890771185979247,0.08225823938846588,0.0653708428144455,-0.03068535588681698,-0.023805728182196617,-0.0330817773938179,0.0033014309592545033,-0.05470533296465874,-0.0010501117212697864,0.3960256278514862,-0.4785180687904358,1.4786890745162964,-0.8028815984725952,-0.19772666692733765,1.033970594406128,1.7679344415664673,-0.6415666937828064,0.4047720432281494,0.22964133322238922,-0.4389397203922272,-0.1906062662601471,0.30058541893959045,-0.66839998960495,0.03866155073046684,0.5658690333366394,0.006307676434516907,0.19997616112232208,-0.05125332996249199,0.15413501858711243,0.18047671020030975,-0.11029653251171112,0.627712607383728,0.05585433170199394,-0.08374010026454926,-0.05023224279284477,0.021584274247288704,-0.07983940094709396,0.05238822102546692,0.028579380363225937,0.25171321630477905,-0.06751525402069092,-0.07056296616792679,-0.1179531142115593,-0.22125700116157532,0.023799624294042587,0.007202811539173126,-0.04005967080593109,-0.12419389933347702,-0.11379718035459518,0.11131849139928818,0.18308429419994354,-0.06459984183311462,0.09756173938512802,0.0059587680734694,-0.11402244865894318,-0.010957634076476097,0.2991776168346405,-0.06933769583702087,0.15216529369354248,0.19484993815422058,0.2599588632583618,0.08746285736560822,-0.2737416923046112,-0.3340214192867279,-0.17261342704296112,-0.03142039105296135,-0.32608044147491455,0.20957103371620178,-0.1899956464767456,0.19713954627513885,0.09714709967374802,0.17349936068058014,-0.02835349179804325,0.05016091838479042,-0.3068552315235138,-0.06439368426799774,-0.25911960005760193,0.18273887038230896,0.1789114773273468,0.09540879726409912,0.11157537996768951,-0.1555776298046112,0.03584030270576477,-0.05961208418011665,-0.18070979416370392,0.04968191683292389,0.12034567445516586,-0.19324247539043427,-0.25105005502700806,-0.17945970594882965,-0.3276180624961853,-0.1699865758419037,0.06638777256011963,0.35387203097343445,0.4105246961116791,0.01151847280561924,-0.05339953675866127,0.2809431850910187,0.23793821036815643,-0.1479794830083847,0.035370249301195145,0.07513689994812012,-0.018535802140831947,-0.33328190445899963,-0.04028303176164627,-0.2270411103963852,-0.08045518398284912,-0.09773784875869751,-0.0010506383841857314,0.38386937975883484,0.36785009503364563,0.5751628279685974,0.10286634415388107,0.19351407885551453,-0.09380846470594406,-0.0918707475066185,-0.07712415605783463,0.007803882006555796,-0.10168810933828354,-0.06047695875167847,0.014831524342298508,0.1201854795217514,0.15915825963020325,0.24628250300884247,0.1988690197467804,-0.09472011774778366,-0.2519393861293793,0.4097942113876343,0.1850043386220932,0.004784710239619017,-0.2801516354084015,-0.16578184068202972,0.17071421444416046,0.12971775233745575,-0.22382324934005737,0.33859682083129883,-0.24505393207073212,0.26736047863960266,0.05476859211921692,-0.07982169091701508,-0.1318850964307785,0.14089635014533997,-0.046884313225746155,0.08275775611400604,0.22663989663124084,-0.03576817736029625,-0.41998618841171265,0.19777549803256989,-0.260351300239563,0.04634815827012062,0.040375418961048126,0.0562467947602272,-0.15064918994903564,-0.1702726036310196,-0.001108681783080101,-0.5383455157279968,-0.1696404367685318,0.5151602625846863,-0.30700814723968506,-1.3501046895980835,-0.15022267401218414,-0.24961324036121368,-0.3295072615146637,0.15328547358512878,0.1562047004699707,0.03653886541724205,-0.10603073239326477,0.12780366837978363,-0.008179614320397377,-0.14488844573497772,-0.015452051535248756,0.2813165485858917,-0.3437614142894745,-0.7582661509513855,0.2514113187789917,1.2704509496688843,-0.22926019132137299,0.062604159116745,0.37122300267219543,0.10929052531719208,0.06055835634469986,0.18959468603134155,0.06685365736484528,-0.25119560956954956,0.13967864215373993,0.17938299477100372,0.31000980734825134,-0.11428554356098175,0.18150891363620758,-0.5644747614860535,-0.3747499883174896,-0.5951842665672302,-0.2368815839290619,0.03387513384222984,0.029302604496479034,-0.2369634062051773,0.07598081231117249,-0.11940627545118332,0.041973765939474106,0.1978740692138672,0.4509996175765991,0.06511642783880234,-0.08579356223344803,0.06382623314857483,0.049055855721235275,0.16125735640525818,-0.13321910798549652,-0.15831884741783142,-0.021433327347040176,-0.11356446892023087,-0.138685405254364,-0.12465832382440567,-0.17446058988571167,-0.20630665123462677,0.08879997581243515,-0.12499573081731796,-0.18148855865001678,-0.005786635912954807,0.006353370379656553,0.1182514950633049,0.02347913756966591,0.1125493273139,-0.07048462331295013,0.21260978281497955,0.2231549620628357,0.12030709534883499,-0.10518565773963928,0.12173904478549957,0.013416854664683342,0.3279149830341339,-0.13920986652374268,-0.12359490245580673,0.04801570624113083,-0.026493608951568604,-0.19078725576400757,0.10238586366176605,0.0883304551243782,-0.3108767569065094,0.18937355279922485,0.280231237411499,0.1575639247894287,-0.010924625210464,-0.013389002531766891,0.05353483185172081,0.01119492668658495,-0.12434117496013641,-0.12506240606307983,-0.152983620762825,0.2295454740524292,-0.1721346527338028,0.22491823136806488,-0.062862329185009,-0.10426550358533859,0.25589659810066223,-0.09860855340957642,0.04536394029855728,0.14458058774471283,-0.3017381727695465,-0.010267688892781734,0.04673885926604271,-0.13979053497314453,0.23936334252357483,0.0143722053617239,-0.06038452684879303,-0.15582245588302612,0.05628532916307449,0.033966727554798126,0.16379676759243011,-0.07204379141330719,0.648037850856781,0.2728334069252014,-0.2755165100097656,0.3310399353504181,-0.11367498338222504,-0.35552629828453064,0.0593661405146122,-0.3076842725276947,0.11933158338069916,0.0998016744852066,-0.1326870173215866,-0.3368830978870392,0.08292905986309052,-0.09774726629257202,0.1379462331533432,-0.08886734396219254,-0.131831094622612,-0.06723769009113312,0.11056260764598846,-0.03172513470053673,0.060308992862701416,-0.12439346313476562,0.07400243729352951,0.012045212090015411,0.016951410099864006,0.14761468768119812,0.05835254117846489,-0.018168391659855843,-0.06652409583330154,-0.1853712648153305,-0.11515363305807114,0.19289034605026245,0.09094472974538803,0.2161824256181717,-0.11898697167634964,-0.016539009287953377,-0.012204435653984547,-0.17152899503707886,-0.021728649735450745,-0.00917394645512104,0.06770417094230652,0.01686212234199047,0.19244778156280518,0.28691554069519043,0.008437955752015114,-0.11124329268932343,-0.13444247841835022,-0.20922477543354034,0.02154488116502762,0.04530060291290283,-0.08326230198144913,-0.2444133460521698,0.08312653750181198,0.21058443188667297,-0.06700406223535538,-0.14821858704090118,-0.02267972193658352,-0.04356957599520683,-0.13184016942977905,0.013068974949419498,0.18884190917015076,-0.19417409598827362,-0.1629897654056549,-0.06829990446567535,-0.08519262820482254,-0.052575696259737015,0.0048597934655845165,-0.16619765758514404,-0.014389465562999249,-0.11477433145046234,-0.18806426227092743,0.07472199201583862,-0.01842392608523369,0.2791248559951782,-0.008493696339428425,-0.15948311984539032,0.029798155650496483,-0.0323159322142601,0.2045917809009552,-0.24148739874362946,-0.06526689976453781,-0.10761906206607819,-0.0695091038942337,0.01740107126533985,0.03557891771197319,-0.0350603349506855,0.16956941783428192,0.024179188534617424,0.06346960365772247,-0.13469478487968445,0.1156296655535698,-0.004593380726873875,0.003720182692632079,0.19867557287216187,0.09208469092845917,-0.21688200533390045,0.01653539575636387,0.20756582915782928,0.06223968788981438,0.1745605170726776,-0.14327393472194672,0.056633155792951584,-0.2236814796924591,0.14755100011825562,-0.04141814261674881,-0.010749686509370804,-0.0422591008245945,-0.07708602398633957,-0.21629242599010468,-0.2525039613246918,-0.10947421938180923,0.0035092588514089584,0.002581448294222355,-0.0790940672159195,0.13272565603256226,0.03345075994729996,0.018026340752840042,0.04923156648874283,0.03648582100868225,0.06319916993379593,-0.02478758990764618,0.0018219489138573408,0.210109680891037,-0.05316207557916641,-0.03339309245347977,-0.11314571648836136,0.02968657575547695,0.1550922691822052,0.18894755840301514,-0.0866561084985733,0.024353796616196632,0.15358901023864746,0.08433964848518372,0.1566806137561798,0.03744687885046005,-0.04167015105485916,0.03176560252904892,-0.11093714833259583,0.05918965861201286,-0.03446577116847038,-0.00903385877609253,0.14147405326366425,0.18940089643001556,-0.12269807606935501,0.057256534695625305,-0.07194065302610397,-0.15151497721672058,0.060714416205883026,0.019981060177087784,0.028572477400302887,-0.08810775727033615,-0.09264323860406876,0.00040495183202438056,-0.0995950922369957,-0.08069146424531937,-0.000803030445240438,0.16784459352493286,0.19361557066440582,0.06195693090558052,0.13286060094833374,0.10416600853204727,-0.03287188336253166,0.05452222004532814,-0.03590983897447586,-0.06391805410385132,0.055329829454422,-0.07126475125551224,0.12960080802440643,0.09293487668037415,-0.02824551984667778,0.1379491537809372,0.09162972122430801,-0.11301007866859436,-0.03389063850045204,-0.06205473095178604,-0.054497431963682175,0.044255178421735764,0.09226547926664352,0.18639008700847626,-0.22580964863300323,-0.19972115755081177,0.07592770457267761,0.04078084975481033,-0.19736874103546143,-0.14360453188419342,-0.06800897419452667,-0.030305765569210052,-0.32578250765800476,-0.050698455423116684,-0.0865449607372284,0.08360709249973297,0.23685792088508606,-0.03172411769628525,-0.17433975636959076,0.03791750222444534,0.06932619214057922,0.25050678849220276,-0.29941150546073914,0.06482477486133575,-0.06415657699108124,-0.039874449372291565,0.05748412385582924,0.20344719290733337,-0.13003769516944885,0.0007621885742992163,0.3337222933769226,0.08658739179372787,0.18372416496276855,-0.06742062419652939,0.10526945441961288,-0.20315827429294586,0.03016735054552555,-0.13647080957889557,-0.13477954268455505,0.032982129603624344,-0.1964443176984787,-0.009683281183242798,0.16747988760471344,0.09549902379512787,0.14798176288604736,-0.07564277946949005,-0.08160798996686935,0.05987480282783508,0.07031144201755524,0.17263251543045044,-0.040077727288007736,-0.03910244628787041,0.2059442102909088,-0.039081599563360214,-0.07884573936462402,0.08460846543312073,0.09184563159942627,0.01881806179881096,-0.007143290247768164,-0.09021738916635513,-0.2715773284435272,-0.3047713339328766,0.29263144731521606,0.2031879872083664,-0.1775318831205368,0.06964529305696487,-0.14333245158195496,-0.06739573925733566,0.19525055587291718,-0.027862131595611572,0.2074977308511734,-0.18845804035663605,0.004901310428977013,-0.19957567751407623,0.10496997088193893,0.17994143068790436,0.1210131123661995,-0.20979900658130646,-0.13223567605018616,0.12284500151872635,0.12955889105796814,-0.04602289944887161,-0.16375412046909332,0.19648166000843048,0.09592880308628082,-0.012703009881079197,0.02784683182835579,-0.06407426297664642,-0.07572237402200699,-0.18734756112098694,-0.038125839084386826,-0.0796690359711647,0.006537127774208784,0.01558300293982029,0.06455279886722565,-0.29232853651046753,-0.3559378683567047,-0.13377177715301514,0.4579095244407654,-0.3581312596797943,-0.3845745921134949,0.16476687788963318,-0.08143764734268188,0.048620861023664474,0.059888068586587906,-0.19116216897964478,0.024019937962293625,0.08170562237501144,1.3030540943145752,0.5740175247192383,-1.6756898164749146,0.046327680349349976,0.12266699969768524,-0.3374677002429962,1.0619138479232788,0.3283770978450775,-1.2157684564590454,-0.3750995099544525,-0.4968339800834656,0.998523473739624,0.3028694689273834,0.2969116270542145,-0.6493255496025085,-1.2236475944519043,-0.544842541217804,1.8343640565872192,0.43463727831840515,-0.06686778366565704,-0.17064768075942993,0.003118675434961915,0.3704812228679657,-0.23773902654647827,-0.23250894248485565,-0.18642830848693848,0.03419195115566254,-0.13667508959770203,-0.07640073448419571,0.11904102563858032,0.6413518786430359,0.35959747433662415,-0.5288152694702148,-0.06599093973636627,0.0797286257147789,-0.06234857812523842,0.07011635601520538,0.08181910216808319,-0.09695024788379669,0.050704654306173325,-0.09955326467752457,0.17935927212238312,0.18022187054157257,0.03573457524180412,-0.04540891572833061,-0.1252928227186203,0.0587337352335453,-0.1366405338048935,0.001785770058631897,0.03178992494940758,0.15853753685951233,0.05183243378996849,-0.011324618943035603,0.005884669255465269,-0.10843092203140259,0.10217254608869553,0.0644206628203392,0.039876628667116165,-0.24792024493217468,-0.044162292033433914,-0.013441869989037514,0.10503045469522476,-0.09825900197029114,0.1612570732831955,-0.10672863572835922,-0.0347718670964241,-0.005001189187169075,0.08781081438064575,0.10177967697381973,0.020711908116936684,0.19274213910102844,-0.015273507684469223,-0.03952062875032425,0.07657822966575623,-0.22940924763679504,-0.04406767338514328,-0.04879492521286011,0.001984383910894394,-0.17199544608592987,-0.049122899770736694,0.047496963292360306,-0.2041667401790619,0.0528210885822773,0.040779124945402145,0.16950345039367676,-0.012986825779080391,-0.035153456032276154,-0.04953619837760925,0.025547122582793236,0.0981922522187233,-0.06693891435861588,-0.053040869534015656,-0.08220833539962769,-0.137681782245636,-0.258113831281662,-0.1555158793926239,0.16780687868595123,-0.06778521835803986,-0.20167092978954315,-0.039561960846185684,-0.041856296360492706,0.015255060978233814,0.07918164134025574,-0.04552878439426422,-0.07257617264986038,0.24087655544281006,-0.11772385239601135,0.18243353068828583,-0.052336711436510086,0.11929409205913544,-0.04069742187857628,0.09275729209184647,-0.10712043195962906,0.10374578833580017,0.058966249227523804,-0.03390221297740936,0.02200133726000786,-0.13023123145103455,-0.023764129728078842,-0.04481905698776245,-0.21633125841617584,-0.027235034853219986,-0.1184813603758812,0.05853278934955597,-0.014392116107046604,0.0015061626909300685,0.11424779146909714,0.04338212311267853,-0.005000071134418249,0.14260701835155487,0.2176007181406021,-0.08063376694917679,-0.1803487092256546,-0.23443463444709778,-0.13116799294948578,0.06786935031414032,-0.11837223172187805,0.09043055027723312,0.12029252201318741,0.031938280910253525,-0.06547674536705017,0.10645833611488342,0.14116552472114563,0.03763306885957718,-0.19349664449691772,0.2908918559551239,-0.05733572319149971,0.004956516437232494,0.15960533916950226,-0.043194323778152466,-0.05801486223936081,0.012864181771874428,0.10427432507276535,0.01269491109997034,-0.3744327127933502,0.1277872622013092,-0.05095849931240082,0.2727767527103424,-0.1423255056142807,0.019506167620420456,-0.21586661040782928,-0.08271599560976028,0.02209976501762867,-0.16698771715164185,0.13098962604999542,-0.11124380677938461,0.2678278684616089,-0.07135463505983353,-0.04046449065208435,-0.05760603025555611,-0.1265224665403366,0.00247018039226532,-0.17228180170059204,0.01953289471566677,0.0630398690700531,0.007507833652198315,-0.08469229191541672,0.2557535469532013,-0.0235701035708189,-0.016133833676576614,-0.19779866933822632,0.10061967372894287,0.036464642733335495,-0.15651215612888336,0.2107168436050415,-0.011676182970404625,0.0051588271744549274,0.17981378734111786,0.05481218546628952,0.1886460930109024,-0.018448783084750175,0.08720696717500687,0.26367461681365967,-0.06528660655021667,0.08620363473892212,0.24706190824508667,-0.13723929226398468,0.24252796173095703,-0.03683922067284584,0.009162872098386288,0.07744427770376205,-0.33919188380241394,0.36927491426467896,-0.10345321148633957,0.08735106885433197,-0.31298404932022095,0.11947105824947357,-0.31331297755241394,0.04475007206201553,0.09514207392930984,0.018517274409532547,0.21179857850074768,0.06137511879205704,0.23153181374073029,-0.11010397225618362,0.17605866491794586,-0.047934405505657196,-0.0017883236287161708,0.10022511333227158,-0.09315357357263565,0.0968145877122879,0.07054594159126282,-0.014540953561663628,0.09220745414495468,-0.08904620260000229,-0.04283425956964493,0.0036907957401126623,-0.06681210547685623,-0.12292828410863876,0.12228938192129135,-0.11805722862482071,-0.11030415445566177,-0.0073532662354409695,0.03822468966245651,-0.09748148918151855,-0.039827823638916016,0.01893797516822815,0.05847916752099991,0.04718976095318794,-0.09121020883321762,-0.038962654769420624,-0.09114077687263489,0.1805589348077774,-0.10151877999305725,0.011138522997498512,0.136169895529747,-0.02574242651462555,0.08119235932826996,0.16173525154590607,-0.2547457814216614,0.049152471125125885,0.05013379827141762,0.13641580939292908,-0.16613851487636566,0.047689177095890045,0.07586561143398285,0.0039183772169053555,-0.19674000144004822,-0.07057072222232819,-0.028621405363082886,-0.19459745287895203,0.10192893445491791,0.017624296247959137,0.13695140182971954,0.08067842572927475,-0.09603412449359894,0.04212883114814758,-0.027862008661031723,0.06339156627655029,-0.04290666803717613,-0.11527382582426071,-0.13532954454421997,0.050065185874700546,0.06538069248199463,0.042671091854572296,-0.07869211584329605,0.019744955003261566,-0.034980952739715576,-0.13470067083835602,-0.044291626662015915,0.11000779271125793,0.16108308732509613,-0.028132891282439232,-0.04836608096957207,-0.10058175772428513,0.03636229410767555,0.019090941175818443,-0.18858185410499573,-0.2592288553714752,-0.05774206668138504,0.22671222686767578,-0.11131295561790466,-0.06637287884950638,0.059649255126714706,-0.039112638682127,0.09037955105304718,0.28994128108024597,0.004910995718091726,-0.20494741201400757,-0.10497929900884628,-0.1471729725599289,0.138406902551651,-0.09726613014936447,0.15095287561416626,0.1429523080587387,-0.3595406413078308,-0.17173995077610016,0.028650036081671715,0.07690435647964478,-0.13581018149852753,-0.05032739043235779,-0.03017006628215313,0.10683431476354599,0.014525088481605053,-0.1562250852584839,0.10250887274742126,-0.01694297231733799,-0.10000534355640411,-0.3904028534889221,-0.09140267968177795,0.16437502205371857,-0.16086435317993164,-0.05280875042080879,-0.12311011552810669,0.1303686499595642,0.11067115515470505,-0.010011990554630756,0.11654269695281982,0.06804105639457703,-0.06987418979406357,-0.09058897942304611,-0.1251593828201294,-0.1370784044265747,0.15385279059410095,-0.002021778142079711,-0.19170312583446503,0.005921703297644854,-0.16970546543598175,0.29595616459846497,-0.0994773656129837,-0.16908903419971466,-0.03990386053919792,-0.1573033481836319,-0.11390715837478638,0.19347280263900757,-0.21908354759216309,0.02485039457678795,0.032627515494823456,0.04529909789562225,0.08568829298019409,-0.04706120491027832,0.17529386281967163,0.19092442095279694,-0.05774007365107536,0.14561419188976288,-0.16889740526676178,0.048867788165807724,0.06331250816583633,-0.10161401331424713,0.09822417795658112,-0.020122306421399117,-0.056229978799819946,-0.1591000109910965,0.08941145241260529,-0.09224579483270645,0.025530904531478882,-0.07706401497125626,0.04293900728225708,0.10504748672246933,-0.0745038166642189,-0.06331534683704376,0.03562935069203377,0.03548441454768181,0.10128471255302429,0.07634611427783966,0.036498356610536575,-0.2257751077413559,0.07012534141540527,-0.06622588634490967,-0.03945787996053696,0.001317775109782815,-0.007593498565256596,0.060468390583992004,0.13129308819770813,-0.03845244273543358,0.2530192732810974,-0.189422607421875,-0.01997726783156395,0.15050415694713593,0.03477518633008003,0.18575456738471985,0.15072223544120789,-0.03004073165357113,0.05623038858175278,-0.17418597638607025,0.18919020891189575,0.04261016100645065,-0.06353617459535599,0.06915543973445892,-0.017696650698781013,-0.10546093434095383,0.02407359704375267,-0.08401447534561157,-0.07252286374568939,-0.12444278597831726,-0.19078375399112701,-0.04745929315686226,-0.129531130194664,0.07183696329593658,0.09447075426578522,-0.10860133171081543,-0.03740439936518669,-0.1126430407166481,-0.08259604871273041,-0.014898600988090038,-0.0578649677336216,0.028104769065976143,-0.21458838880062103,0.05177522823214531,-0.0845695286989212,0.05164783075451851,0.09862203896045685,-0.028490861877799034,-0.03943055123090744,-0.05916040390729904,-0.048205431550741196,-0.1447947919368744,-0.16518756747245789,-0.1502368003129959,0.068272165954113,0.15639512240886688,-0.0487278588116169,0.09512332826852798,-0.07289900630712509,-0.03579886257648468,-0.08205477148294449,0.1660802811384201,0.11072143912315369,-0.07578373700380325,-0.013047538697719574,-0.03804462030529976,0.0764499306678772,-0.3071686029434204,-0.0357530377805233,-0.1286855936050415,0.05305509269237518,0.10035113990306854,0.06186543405056,0.06830886006355286,0.05707184970378876,0.06937802582979202,-0.014383919537067413,0.004103574901819229,-0.04977305233478546,0.10623665899038315,-0.07820599526166916,-0.0649837777018547,0.01579938642680645,-0.09696968644857407,-0.11677761375904083,-0.13599443435668945,-0.16722269356250763,-0.03411344811320305,-0.11984933167695999,0.03789090737700462,-0.1698758602142334,0.19913217425346375,-0.03880676254630089,0.1283423900604248,0.0208356324583292,0.11795728653669357,-0.028526246547698975,-0.1526961624622345,0.007568829692900181,0.006545131094753742,0.047910451889038086,-0.1243768110871315,0.03945837542414665,0.09774761646986008,0.03019728511571884,0.07794652879238129,0.1314755231142044,-0.1321919560432434,-0.11910261958837509,0.22401639819145203,-0.14691253006458282,0.07109194993972778,-0.08277527987957001,-0.18996229767799377,-0.012569158338010311,-0.314724326133728,0.0018117963336408138,-0.1624646782875061,0.3072264492511749,0.16417154669761658,0.002656749915331602,-0.04003588482737541,-0.007312978617846966,-0.012063441798090935,-0.08615275472402573,-0.012090424075722694,-0.2705291509628296,-0.0538618266582489,-0.035932015627622604,-0.011423972435295582,0.14984384179115295,-0.09170214831829071,0.07013416290283203,-0.2003926783800125,0.0560976006090641,-0.02281583473086357,0.08250684291124344,0.043912388384342194,0.06280357390642166,0.09818996489048004,-0.02588418498635292,0.08608901500701904,-0.0800003856420517,0.09193941950798035,0.0812193900346756,0.12200450897216797,-0.06688965857028961,-0.035279497504234314,0.016488147899508476,0.027211135253310204,0.0665443167090416,0.02829514816403389,0.05175873264670372,-0.08168531954288483,-0.13034604489803314,0.12366607785224915,0.09979674220085144,-0.4564920663833618,0.7549878358840942,-1.6925926208496094,-0.5199211835861206,-0.1586487591266632,0.6870471835136414,-1.171505331993103,-0.47069621086120605,-0.6053449511528015,0.32109570503234863,-0.8418843150138855,0.35220545530319214,-0.8130466341972351,-0.2556254267692566,0.037944208830595016,-0.08639957010746002,0.07206698507070541,0.05865755304694176,0.06084790825843811,-0.23967447876930237,-0.1832573115825653,-0.2286054491996765,0.28736352920532227,0.1556987464427948,0.09999095648527145,0.020062711089849472,0.060636937618255615,-0.20026251673698425,-0.24545300006866455,-0.10828491300344467,0.02268560416996479,-0.10528028011322021,0.017792172729969025,-0.25627240538597107,0.5612792372703552,0.19769448041915894,-0.10607124865055084,0.13212528824806213,-0.30783334374427795,0.11365322023630142,0.3448229730129242,0.11237768083810806,0.07942993193864822,0.21473516523838043,0.1443319469690323,-0.31247764825820923,-0.14762388169765472,0.014450370334088802,0.16000261902809143,0.07863306999206543,0.4250571131706238,0.06087354198098183,0.11962569504976273,0.1435292661190033,0.031446851789951324,-0.2971258759498596,-0.10173632204532623,-0.10992737859487534,-0.020200900733470917,0.19700577855110168,0.031379587948322296,0.2836964428424835,0.09038373082876205,-0.1309674084186554,-0.05168638005852699,-0.09396903961896896,-0.002136010443791747,-0.08225500583648682,0.01667666621506214,-0.03727424889802933,-0.06130600720643997,0.09479735046625137,0.20101343095302582,0.3470359146595001,-0.040806159377098083,0.060704078525304794,0.012879852205514908,0.24065697193145752,-0.011345232836902142,-0.13000419735908508,-0.016169816255569458,0.032849762588739395,-0.08883798122406006,-0.003929491154849529,0.28523024916648865,0.04410921782255173,-0.08160354197025299,-0.035146284848451614,0.12286115437746048,0.126474991440773,0.00809424463659525,-0.14652033150196075,-0.29251596331596375,-0.3089075982570648,-0.11151296645402908,-0.31616780161857605,-0.019479526206851006,0.046631280332803726,-0.15184150636196136,0.12464340031147003,-0.1613347828388214,0.027832195162773132,0.09643848985433578,0.0023907399736344814,0.06690984964370728,0.03182467818260193,-0.06365768611431122,0.13924576342105865,0.08615756034851074,0.08456449955701828,-0.11635160446166992,0.2177937626838684,-0.18356874585151672,0.2611161470413208,0.16939277946949005,-0.2629461884498596,-0.137902170419693,0.1581633985042572,-0.005176002625375986,-0.21521861851215363,0.172052800655365,-0.09756015986204147,-0.25432389974594116,-0.06727682799100876,0.20421744883060455,0.2856541574001312,-0.004384803585708141,0.0010403721826151013,-0.12322928756475449,0.16916953027248383,-0.27333253622055054,-0.18632663786411285,-0.05145909637212753,-0.17786060273647308,0.48368096351623535,-0.19023244082927704,-0.06688831746578217,0.10639501363039017,0.09494278579950333,0.13100196421146393,0.14907443523406982,-0.17523075640201569,0.21281450986862183,-0.17213167250156403,-0.31024426221847534,-0.09398593008518219,0.17471596598625183,-0.015235234051942825,-0.17354385554790497,0.013681817799806595,0.12885674834251404,0.18779025971889496,-0.1192815750837326,-0.005746517796069384,-0.028176380321383476,0.01710338331758976,0.1907777637243271,-0.3835400640964508,-0.06676047295331955,-0.0399838387966156,0.12236008048057556,0.16017843782901764,-0.11124525219202042,0.2616467773914337,0.00026043556863442063,-0.04726344719529152,-0.1460111141204834,0.1663142889738083,0.6173412203788757,0.03558832034468651,0.10679854452610016,0.19188645482063293,0.006792465690523386,-0.08046208322048187,-0.029898125678300858,-0.10272911190986633,-0.06895431131124496,-0.23302029073238373,0.09536860883235931,-0.07661163806915283,-0.034484390169382095,0.339219868183136,0.30397871136665344,-0.05581562966108322,0.004638077691197395,-0.08206766843795776,0.11260536313056946,-0.11909551918506622,0.020058268681168556,0.04012509435415268,0.30738797783851624,-0.20735351741313934,0.02244359441101551,-0.08394809812307358,-0.2122899442911148,0.02094995230436325,0.07092997431755066,-0.31914013624191284,0.12908925116062164,0.15864814817905426,-0.16753986477851868,-0.027551399543881416,-0.09729799628257751,0.07751654088497162,-0.19028693437576294,0.0629488006234169,-0.2967452108860016,-0.012516019865870476,0.5007864832878113,-0.03139447048306465,-0.19436174631118774,-0.21761378645896912,0.22993816435337067,-0.014670880511403084,-0.29250454902648926,-0.4900653064250946,-0.32319921255111694,-0.1712222546339035,-0.042420756071805954,0.012356027029454708,0.05171706900000572,0.16836045682430267,0.044157519936561584,-0.1723899096250534,0.20632648468017578,-0.20918402075767517,0.20620611310005188,-0.01539840642362833,0.08942259848117828,0.17273299396038055,0.12764094769954681,0.09618723392486572,-0.0893811583518982,0.08653873205184937,0.017168546095490456,0.023558340966701508,-0.1360466331243515,-0.12539362907409668,0.13573773205280304,0.03541964292526245,0.05077667161822319,-0.3084135055541992,-0.03854157403111458,0.18918149173259735,0.08324609696865082,0.07361271232366562,0.079680897295475,-0.289725661277771,0.10226753354072571,-0.25870028138160706,-0.014505788683891296,0.18617235124111176,0.17546936869621277,0.2009994238615036,-0.23216915130615234,0.015396512113511562,0.20111648738384247,-0.12279500812292099,0.08031037449836731,-0.10115222632884979,0.21842633187770844,0.08950327336788177,-0.2091359943151474,0.09147418290376663,0.12359033524990082,-0.009341660887002945,0.07963326573371887,-0.07556174695491791,-0.13829943537712097,-0.05442890524864197,0.0252032820135355,-0.0061654564924538136,-0.0277105700224638,-0.038135554641485214,-0.011559641920030117,0.09878285229206085,0.10481861978769302,0.10160387307405472,0.008421601727604866,0.033546943217515945,-0.12591023743152618,0.04774313420057297,-0.2175658792257309,-0.05542219430208206,-0.027197809889912605,0.22368210554122925,0.19098934531211853,-0.12963064014911652,-0.0557982362806797,-0.21176519989967346,-0.08137056976556778,0.02120831236243248,0.032793641090393066,0.039176080375909805,0.14479412138462067,-0.02519168145954609,0.042955320328474045,0.16728709638118744,0.08691898733377457,-0.012869516387581825,0.037313900887966156,0.01496223732829094,-0.02152310311794281,-0.07997267693281174,0.12397947162389755,0.17567425966262817,-0.033830124884843826,0.15501073002815247,-0.1280231922864914,-0.11792568862438202,0.08294117450714111,-0.10921326279640198,0.13199375569820404,-0.07832762598991394,-0.020447641611099243,-0.008449065499007702,-0.06338395923376083,-0.1621491014957428,0.015542324632406235,0.11482272297143936,-0.062328994274139404,-0.10742532461881638,-0.049117352813482285,0.07091166824102402,0.08935955911874771,0.19324694573879242,0.10515808314085007,0.045661672949790955,-0.01732134260237217,-0.013608350418508053,-0.07233468443155289,-0.10263051837682724,0.07230748236179352,-0.1307314932346344,-0.11255528032779694,-0.031168257817626,-0.042321525514125824,0.17813044786453247,-0.17146985232830048,0.08237522840499878,0.10534307360649109,0.12790381908416748,0.015524889342486858,-0.10911571234464645,-0.16540876030921936,0.1631883978843689,-0.007849471643567085,0.08200373500585556,-0.009449432604014874,0.009824361652135849,-0.1303100883960724,0.07744520157575607,-0.13983570039272308,0.13913245499134064,-0.06813954561948776,-0.055570464581251144,0.02081669494509697,-0.03360309079289436,-0.06457293033599854,-0.1815936267375946,0.2748236358165741,0.2229795902967453,0.006344956811517477,0.06348869204521179,0.0043337661772966385,-0.11838862299919128,-0.10937726497650146,-0.17284949123859406,-0.07574567943811417,-0.04107004776597023,0.10592607408761978,0.12158245593309402,0.041963279247283936,0.027736715972423553,-0.20960387587547302,-0.013321127742528915,0.22655554115772247,0.019960053265094757,0.0852585881948471,0.14059732854366302,0.14317959547042847,-0.004501987714320421,-0.05799461901187897,0.07737890630960464,0.08827869594097137,0.06871092319488525,-0.17836521565914154,0.19655607640743256,0.012276722118258476,0.059751056134700775,-0.1533828228712082,0.05694034323096275,0.05021641030907631,-0.013841461390256882,-0.05562416464090347,0.1416395604610443,0.02623722516000271,0.03684466704726219,0.011654091998934746,0.01785101927816868,0.12388906627893448,-0.14342008531093597,-0.10798389464616776,0.00849888101220131,0.09901401400566101,0.03256240487098694,-0.09997943043708801,-0.02361663430929184,-0.0028703687712550163,0.21458053588867188,-0.12654739618301392,0.013174471445381641,0.12348651140928268,-0.07993585616350174,0.04762805625796318,0.036052875220775604,0.15063084661960602,0.21441762149333954,-0.01050790585577488,0.02453531138598919,0.019580477848649025,0.25465551018714905,0.011915536597371101,0.08832868188619614,-0.053185004740953445,-0.16035957634449005,-0.18932625651359558,-0.08295705169439316,0.09340349584817886,-0.10559620708227158,-0.04059634357690811,0.10256249457597733,-0.24489685893058777,-0.07773472368717194,0.07343607395887375,0.029724853113293648,0.024343011900782585,-0.15382851660251617,0.035481471568346024,0.05362788587808609,-0.08254682272672653,0.007634872570633888,-0.07177703827619553,-0.12403527647256851,-0.02184009552001953,-0.06545406579971313,0.12123148888349533,0.1737462431192398,0.01466792169958353,-0.11524631828069687,0.020872335880994797,0.05304654315114021,0.09124485403299332,-0.008956070058047771,0.10033641010522842,0.17628097534179688,-0.14667540788650513,-0.1970251500606537,-0.15206262469291687,-0.010072480887174606,0.0835457518696785,0.22220128774642944,0.08066952973604202,0.10153862833976746,-0.15024502575397491,0.10430490970611572,-0.09868165105581284,-0.16809797286987305,-0.16670744121074677,-0.09085454791784286,0.18982861936092377,-0.019391894340515137,-0.344264954328537,0.25969067215919495,-0.005683329422026873,-0.006013805046677589,-0.10311125218868256,0.22638745605945587,-0.12773136794567108,0.1175331324338913,-0.05086352303624153,0.17021949589252472,-0.15170840919017792,0.049139250069856644,0.14910604059696198,-0.11005423963069916,0.009552468545734882,0.16630281507968903,-0.04356934502720833,-0.12117268145084381,0.029195042327046394,0.03330330550670624,-0.00937976036220789,0.034433282911777496,-0.03720470517873764,0.013742832466959953,0.0879756435751915,0.08147246390581131,-0.04218883812427521,-0.09928852319717407,0.15653598308563232,-0.07300084829330444,-0.18074826896190643,-0.012474759481847286,0.20523113012313843,0.04359398037195206,0.040326621383428574,-0.11162739992141724,-0.11122714728116989,-0.0934409499168396,-0.0070136007852852345,0.006317608058452606,-0.022769931703805923,-0.14234045147895813,-0.03247863054275513,0.031814318150281906,0.40471115708351135,0.2666236460208893,0.009697389788925648,-0.22735586762428284,-0.21286369860172272,-0.014977874234318733,0.0011225267080590129,-0.038935836404561996,-0.057803165167570114,0.12658952176570892,0.01451353169977665,-0.1439017653465271,-0.0625566691160202,-0.2555868923664093,0.031130190938711166,-0.11435432732105255,-0.18006378412246704,-0.08881444483995438,-0.032642338424921036,-0.10013311356306076,0.11836356669664383,0.0030445451848208904,-0.009533938020467758,0.023997198790311813,-0.12817859649658203,-0.10182265937328339,0.15973429381847382,-0.1749180555343628,0.041874952614307404,0.27832478284835815,-0.04858553037047386,-0.07121865451335907,0.003312523476779461,0.09448033571243286,0.026841318234801292,-0.234398752450943,-0.16571882367134094,-0.13319699466228485,0.24994096159934998,0.11985576152801514,0.17924585938453674,-0.10569100826978683,0.11777018755674362,0.2587517499923706,-0.04990347474813461,0.15596795082092285,0.022186536341905594,0.01474012155085802,-0.1844538152217865,-0.05209336802363396,0.21516188979148865,0.04724354296922684,-0.16372892260551453,0.006839212030172348,0.11845694482326508,-0.12375795841217041,-0.0697435811161995,-0.1565631777048111,0.344348281621933,0.1374761164188385,0.06617966294288635,-0.039409440010786057,0.04342217370867729,0.08312410116195679,-0.05790111422538757,-0.1253158450126648,-0.08601737022399902,0.12668272852897644,0.1470828354358673,-0.03547031432390213,-0.0830148309469223,-0.04378398135304451,-0.06265510618686676,0.07878342270851135,0.06741297245025635,-0.16421401500701904,0.19324351847171783,-0.08903494477272034,0.10561978816986084,0.07331434637308121,-0.23999029397964478,-0.043616946786642075,0.09654216468334198,0.17581789195537567,-0.12411145120859146,-0.0020355843007564545,-0.00460018077865243,-0.16805540025234222,0.07189112901687622,-0.0027491115033626556,-0.054767169058322906,0.0459304079413414,0.046707428991794586,-0.07614163309335709,-0.21087197959423065,-0.10591462254524231,-0.28822392225265503,-0.10612712055444717,0.2165616899728775,0.11655233800411224,-0.13124403357505798,-0.07495848089456558,0.34857091307640076,-0.09095512330532074,-0.178704634308815,0.00722004659473896,-0.07095248997211456,-0.25346165895462036,-0.040699589997529984,0.03814348205924034,-0.0005723858484998345,-0.04081660136580467,0.15289172530174255,-0.009431412443518639,-0.11811133474111557,0.07789601385593414,0.045909345149993896,-0.1387273371219635,0.02815104089677334,-0.015461797825992107,-0.00125637068413198,0.07993794232606888,-0.012914374470710754,-0.021817509084939957,0.05028844252228737,0.18306641280651093,-0.0908144861459732,0.04859257861971855,0.044856537133455276,0.0022533296141773462,0.06228595972061157,-0.11855929344892502,-0.10124581307172775,0.15734682977199554,-0.1628507673740387,0.06011592224240303,-0.09557339549064636,-0.14790618419647217,-0.0031853148248046637,-0.12384496629238129,-0.1780974417924881,0.06276652961969376,0.12573014199733734,0.27608177065849304,-0.11794740706682205,-0.054681822657585144,0.24049890041351318,0.13934959471225739,0.17599651217460632,-0.13091658055782318,-0.15905240178108215,-0.042807597666978836,0.08406679332256317,0.14473581314086914,0.18924042582511902,0.13735486567020416,0.1637340635061264,0.1169472262263298,0.05157726630568504,-0.014675486832857132,0.21497315168380737,0.009290714748203754,0.06696223467588425,0.10757594555616379,0.1698514223098755,-0.21235911548137665,-0.12032969295978546,-0.015753740444779396,0.06298099458217621,-0.0835471972823143,-0.15579260885715485,0.07134123146533966,0.1043599396944046,-0.09295648336410522,0.029712935909628868,-0.16715937852859497,-0.032260384410619736,0.0742662325501442,0.01201675646007061,0.16632524132728577,0.11026035249233246,0.007809521164745092,-0.026666967198252678,0.025424601510167122,0.10619961470365524,0.1450502872467041,0.1438043862581253,0.1233898475766182,0.19346512854099274,-0.2739497721195221,-0.09466593712568283,-0.13896135985851288,0.14605894684791565,0.017369743436574936,0.16143769025802612,0.16359375417232513,0.19002413749694824,-0.03163234516978264,-0.011488559655845165,0.09926892817020416,-0.12062927335500717,0.04885579273104668,0.2628810703754425,-0.014108060859143734,0.14674393832683563,0.10331693291664124,0.0239835437387228,-0.056068260222673416,0.054145447909832,0.08995269238948822,0.030864158645272255,-0.1439017802476883,-0.04669688642024994,-0.021095488220453262,0.02001439966261387,0.052920885384082794,-0.005372228566557169,0.02314453199505806,-0.0061523825861513615,-0.2659919857978821,0.15030845999717712,-0.14224913716316223,0.06471556425094604,-0.05707752704620361,-0.058310579508543015,0.018572021275758743,-0.1473061740398407,0.06094302237033844,0.1812216341495514,-0.13509921729564667,0.07836047559976578,-0.03510444983839989,-0.10504282265901566,-0.06591444462537766,0.09938539564609528,0.2423761785030365,0.0462224967777729,-0.18907926976680756,-0.04138907045125961,-0.09298011660575867,0.0008010407909750938,-0.20275890827178955,-0.019757656380534172,-0.08707667142152786,-0.06340768188238144,-0.028539370745420456,0.10206425935029984,0.09134945273399353,-0.13306787610054016,-0.016540706157684326,0.0733228400349617,0.07054299861192703,0.00962564442306757,0.0746690183877945,0.19014179706573486,0.014892705716192722,0.05030447244644165,0.041457340121269226,0.052994199097156525,0.03936560079455376,0.044583357870578766,0.18115749955177307,-0.1428554803133011,-0.0016989761497825384,0.046438951045274734,0.001176871475763619,0.06578116118907928,0.0049138618633151054,0.10329832136631012,-0.24715694785118103,0.10188525170087814,0.07898203283548355,-0.01266179047524929,0.05276728421449661,0.19561925530433655,0.03912067040801048,-0.19918131828308105,-0.1799965798854828,0.11758128553628922,0.013235247693955898,0.0702352523803711,0.22148582339286804,0.15649110078811646,0.04468870535492897,0.08983823657035828,0.11080028861761093,-0.05116747319698334,-0.12270503491163254,-0.06867191940546036,-0.16376374661922455,-0.1686640977859497,-0.016959449276328087,-0.010213552974164486,-0.022598953917622566,0.14951872825622559,-0.10197292268276215,-0.10538718104362488,-0.002047299174591899,0.12521244585514069,-0.04873722791671753,-0.0056313201785087585,-0.12294942885637283,-0.02028176747262478,-0.04828234016895294,0.0037969443947076797,0.08125616610050201,-0.1244208961725235,-0.06250186264514923,0.021333087235689163,0.03036479279398918,-0.07187855988740921,-0.028449995443224907,0.06887143850326538,-0.09041246771812439,0.036476001143455505,-0.1333056092262268,0.17686627805233002,0.1972743719816208,0.17908312380313873,-0.014830230735242367,-0.1891036331653595,-0.08039354532957077,0.18643175065517426,-0.14184093475341797,-0.06065988540649414,-0.18171168863773346,-0.057862550020217896,-0.1901296079158783,-0.04721086472272873,0.004360630642622709,0.14557825028896332,-0.00694825267419219,0.06297484785318375,-0.08406740427017212,-0.05171374976634979,0.0029174326919019222,-0.1454419493675232,-0.2037513554096222,0.235100656747818,0.024658456444740295,-0.15996403992176056,0.10912246257066727,-0.012621166184544563,-0.16380000114440918,-0.29114654660224915,-0.07395287603139877,-0.2297668308019638,0.146534264087677,-0.004042236600071192,0.10537988692522049,-0.1109396368265152,-0.04235227778553963,-0.1522083282470703,-0.04455256462097168,-0.08363641053438187,0.03859562426805496,-0.033967044204473495,0.14461399614810944,0.14508993923664093,0.1539156287908554,-0.0062353298999369144,-0.01475295890122652,0.0282012689858675,-0.02881423756480217,0.21601976454257965,-0.07524518668651581,0.021482501178979874,-0.24293802678585052,0.03701784834265709,-0.04129953682422638,-0.14410853385925293,0.05178502947092056,0.00706307590007782,0.08328724652528763,-0.011487000621855259,0.22883807122707367,0.18858389556407928,-0.07307729125022888,0.008790826424956322,-0.09005647897720337,0.08197804540395737,0.0006482307217083871,-0.02457306906580925,-0.0964125245809555,0.07627613842487335,0.42466363310813904,0.11388194561004639,0.010502299293875694,0.000836361083202064,-0.14267762005329132,0.03301127627491951,-0.03909480944275856,0.26259732246398926,-0.12354886531829834,-0.04257867857813835,0.007409822195768356,0.010852682404220104,-0.03514730930328369,-0.01698547787964344,-0.004623428452759981,0.01960132271051407,-0.09433957934379578,-0.058428481221199036,-0.00952186156064272,0.1532943993806839,-0.046357978135347366,0.15106502175331116,0.2124273031949997,-0.0007902351208031178,-0.03996114060282707,-0.09623187780380249,-0.04553837329149246,0.01387930940836668,0.03735215216875076,0.032032839953899384,-0.008510316722095013,0.004009010270237923,-0.0718325600028038,-0.05001038685441017,-0.02476123347878456,0.10028000921010971,0.01982341893017292,0.09447052329778671,0.07955155521631241,-0.015614884905517101,-0.24219149351119995,0.01893114671111107,0.013659258373081684,0.05577554926276207,-0.08485978096723557,0.06759759038686752,0.0007717291009612381,0.008966428227722645,0.23698711395263672,-0.03971734642982483,0.04417400807142258,-0.06944440305233002,-0.016016686335206032,-0.17554783821105957,0.017895575612783432,0.2111767679452896,0.07646423578262329,0.04243732988834381,0.08043711632490158,-0.03718162700533867,-0.1282641887664795,-0.05637718737125397,-0.06696505844593048,-0.021499251946806908,0.0780751034617424,0.013402995653450489,-0.07294062525033951,0.012254619970917702,-0.08890382945537567,-0.07237345725297928,-0.07483141124248505,0.07747942209243774,-0.07505511492490768,-0.17678354680538177,-0.07691281288862228,-0.03207550570368767,-0.04616653174161911,0.05415058881044388,0.033785391598939896,0.1166592463850975,0.03638656809926033,-0.08314748853445053,0.032965682446956635,0.0826740562915802,-0.058876194059848785,-0.023571712896227837,-0.12241573631763458,-0.030331598594784737,0.003217498306185007,-0.018344977870583534,0.12690462172031403,-0.17520590126514435,-0.06255656480789185,0.04391314089298248,0.1641421765089035,-0.03343990445137024,-0.10118135809898376,0.06534198671579361,-0.26293817162513733,-0.42630162835121155,-0.026429766789078712,-0.06796479225158691,0.0012379598338156939,-0.11522623151540756,0.226081982254982,0.013849912211298943,-0.25409361720085144,0.07103167474269867,0.05974741652607918,0.3569871187210083,-0.0970500186085701,0.10183276236057281,0.29614824056625366,-0.08358516544103622,0.00615214928984642,0.08764643222093582,-0.13745112717151642,0.04989327862858772,0.01822821795940399,0.2959185242652893,0.07475834339857101,-0.5113818645477295,0.035764679312705994,-0.028492219746112823,0.08531884104013443,0.04095074161887169,0.12762024998664856,0.007048327010124922,-0.15580590069293976,-0.19025829434394836,0.27629995346069336,0.6160352230072021,0.27384239435195923,-0.8241607546806335,-0.17739257216453552,-0.2928967773914337,0.2864287495613098,-0.1489850878715515,-0.11749232560396194,0.16526906192302704,-0.4835466146469116,0.26266372203826904,0.053309064358472824,-0.3799187242984772,-0.20419403910636902,0.5791236758232117,0.05617024376988411,0.2298431694507599,-0.1198691874742508,-0.2694389820098877,5.100871931063011e-05,0.35469216108322144,0.011211369186639786,0.037900131195783615,0.014244544319808483,-0.07944666594266891,0.08204749971628189,-0.009311490692198277,-0.05664103105664253,-0.006115557160228491,0.009068009443581104,0.034598518162965775,0.0450940802693367,-0.009350428357720375,-0.09350236505270004,0.019517140462994576,-0.018341999500989914,0.03916143253445625,-0.5121891498565674,-0.6687004566192627,0.9917605519294739,-0.021049052476882935,-0.28932660818099976,0.12157974392175674,-0.6205708384513855,-0.0794832706451416,0.517606258392334,-0.835417628288269,1.2010480165481567,0.9594748020172119,-0.13798633217811584,-0.17959171533584595,0.602810263633728,-1.0556331872940063,0.0525154247879982,-0.3372074365615845,-0.028947245329618454,-0.035100556910037994,0.10934556275606155,0.115390345454216,0.12078513950109482,-0.12275667488574982,0.21832625567913055,0.23892275989055634,0.2164323627948761,0.13845565915107727,-0.21246083080768585,-0.014314470812678337,0.040721334517002106,-0.14049403369426727,0.06636743992567062,0.1493600755929947,0.16623350977897644,-0.3557560443878174,0.15730294585227966,0.19001778960227966,-0.17017428576946259,-0.23271623253822327,-0.2551547884941101,0.04719924181699753,-0.1580115407705307,-0.11237388104200363,-0.033408425748348236,0.2448110431432724,-0.04377264156937599,0.0760040432214737,0.010164388455450535,0.011739794164896011,0.1600225269794464,-0.4854849576950073,0.14240869879722595,-0.023348305374383926,0.060606494545936584,-0.21237429976463318,-0.32310256361961365,-0.17937728762626648,-0.11000145971775055,0.20142675936222076,0.2763957977294922,-0.10411841422319412,-0.2521914839744568,0.08957172185182571,0.11207873374223709,0.025419417768716812,0.3683822751045227,0.003492662450298667,-0.012340557761490345,0.04079809784889221,-0.20313069224357605,-0.11217162013053894,0.15035171806812286,-0.008449303917586803,0.123685322701931,0.21051964163780212,0.22931437194347382,0.031070532277226448,0.028722435235977173,0.025184160098433495,0.09398376941680908,-0.16407807171344757,0.11114223301410675,0.256575345993042,0.07046113908290863,-0.052518028765916824,0.16642431914806366,0.030938738957047462,0.08495507389307022,-0.12491906434297562,0.019125783815979958,0.05513489618897438,-0.2050010710954666,-0.1683284491300583,0.07817716151475906,-0.10313078761100769,-0.16447234153747559,0.04296032711863518,0.035847604274749756,-0.09795680642127991,-0.06874449551105499,-0.04437730833888054,0.10436270385980606,0.16990408301353455,-0.005257527343928814,-0.17857211828231812,-0.09022659063339233,-0.020183706656098366,0.1764279305934906,-0.09905825555324554,-0.031731244176626205,-0.001629862585105002,0.014773000031709671,0.014923066832125187,0.2015572339296341,0.25119155645370483,0.30602961778640747,-0.11943957209587097,0.011277341283857822,-0.04189375415444374,-0.1402927041053772,0.17952102422714233,0.14984974265098572,-0.0812782570719719,0.2932297885417938,0.25889351963996887,0.13842293620109558,-0.04805031046271324,0.15650306642055511,0.1944381296634674,0.019270077347755432,-0.1153833419084549,0.16194431483745575,-0.19415004551410675,0.11423320323228836,-0.07843489199876785,0.13365668058395386,0.20977874100208282,-0.17240773141384125,0.10095126926898956,-0.05451226979494095,-0.03108745999634266,0.14437776803970337,-0.2667557895183563,0.004023250658065081,0.19026970863342285,-0.10234972089529037,-0.44212666153907776,0.1840081661939621,0.07204271852970123,-0.234940767288208,-0.03203711658716202,-0.11903366446495056,0.1638631969690323,-0.011831148527562618,0.16140294075012207,-0.285626083612442,0.07658574730157852,0.14247962832450867,0.6026722192764282,0.08488219231367111,-0.19687339663505554,-0.23943966627120972,0.4036809802055359,-0.0073183029890060425,0.22586476802825928,-0.04839463531970978,0.038045477122068405,-0.09894606471061707,0.0011921527329832315,0.10783880949020386,0.07649695128202438,-0.09865128248929977,-0.08740101754665375,0.1262454241514206,-0.5374607443809509,0.22461754083633423,-0.15751183032989502,-0.08417470753192902,-0.14718639850616455,0.18286162614822388,-0.18864160776138306,0.07377371191978455,-0.008779681287705898,0.1989019811153412,0.05511271208524704,-0.2258986085653305,-0.04880322515964508,0.06869333237409592,-0.11962400376796722,0.10897253453731537,0.26536184549331665,0.13477127254009247,-0.17417104542255402,-0.24572469294071198,-0.05528687313199043,-0.19071757793426514,0.23127658665180206,0.32387304306030273,0.05234517157077789,-0.2471911907196045,-0.131815567612648,-0.07404296845197678,0.4309185743331909,-0.20119427144527435,-0.13131605088710785,0.017998594790697098,0.23671786487102509,-0.6784664988517761,-0.1487080603837967,0.32545194029808044,0.21827708184719086,-0.011222016997635365,-0.1543826162815094,0.13150587677955627,-0.10672922432422638,0.02223918028175831,-0.15638309717178345,-0.11570275574922562,-0.055663734674453735,0.1869972050189972,0.05831371992826462,-0.16339366137981415,-0.12429463863372803,-0.17876607179641724,0.22870591282844543,0.12983913719654083,0.23235777020454407,0.07364129275083542,-0.2626175582408905,0.24723517894744873,-0.1583198606967926,-0.07429369539022446,-0.06732190400362015,0.07891206443309784,-0.24861235916614532,0.1570982187986374,0.049866270273923874,-0.08592859655618668,-0.1497226059436798,0.17289751768112183,0.2224266082048416,-0.08952561020851135,-0.09545827656984329,-0.04873136058449745,-0.06774332374334335,0.04414280876517296,-0.10342122614383698,0.2282506823539734,0.2710544168949127,-0.013601856306195259,0.19092415273189545,-0.10268682986497879,0.05811993405222893,-0.035999078303575516,-0.15358439087867737,-0.08550281077623367,-0.21090491116046906,-0.11135613173246384,0.05917983874678612,-0.07880795001983643,0.09454786777496338,0.005647569894790649,-0.06688535213470459,0.06587245315313339,-0.0067283096723258495,0.24764472246170044,0.009322129189968109,-0.06670567393302917,-0.08719233423471451,0.03635937720537186,-0.0041747125796973705,-0.021680371835827827,0.018112195655703545,0.032614536583423615,0.01880382001399994,-0.01771615445613861,0.03557755798101425,0.014860457740724087,-0.012744546867907047,-0.15459808707237244,-0.1388596147298813,0.055359501391649246,0.04459373280405998,0.05307364463806152,0.0477486178278923,0.03999768942594528,-0.012721416540443897,0.0071440814062952995,-0.07983451336622238,0.033155858516693115,-0.21399223804473877,-0.06890252232551575,0.37861332297325134,0.12184307724237442,0.039698850363492966,0.10307388007640839,-0.14295196533203125,-0.038229819387197495,0.07760702818632126,0.09231153875589371,-0.08365017175674438,-0.07748571783304214,0.04414840787649155,-0.14121869206428528,0.18542598187923431,0.08389916270971298,0.02248903177678585,-0.02548523247241974,-0.15985441207885742,0.021272558718919754,0.053527671843767166,-0.09101516753435135,-0.26841044425964355,0.003861937439069152,-0.07511948049068451,0.07875629514455795,-0.000425078091211617,-0.09863930195569992,-0.09427189826965332,0.1860240250825882,0.009764759801328182,-0.07684297859668732,-0.10025877505540848,-0.051929641515016556,0.011312287300825119,-0.09304755181074142,0.06016118451952934,0.003870343556627631,-0.07502203434705734,-0.03988639637827873,-0.1454940289258957,-0.02493736520409584,0.30139628052711487,-0.03410009294748306,-0.2996147871017456,-0.14059342443943024,0.06617770344018936,-0.011401423253118992,-0.04739519581198692,-0.032207340002059937,0.11638320237398148,0.06303146481513977,-0.1122179627418518,0.03127135708928108,-0.22288566827774048,0.10760955512523651,0.19759584963321686,-0.14346469938755035,0.008101308718323708,0.07295192033052444,0.17617882788181305,-0.14829802513122559,-0.12732860445976257,0.037886109203100204,0.20334240794181824,0.10804453492164612,0.03390917554497719,-0.051684461534023285,-0.12479373067617416,-0.16733355820178986,0.20570191740989685,-0.008340109139680862,-0.096693255007267,0.12622784078121185,0.07275466620922089,-0.15531229972839355,0.04171299189329147,0.22267860174179077,0.32234111428260803,0.0832938402891159,-0.20632271468639374,-0.13723209500312805,-0.024770257994532585,-0.003820735728368163,-0.0750592052936554,-0.07418350130319595,-0.13427600264549255,0.00656914571300149,-0.0002925995213445276,0.08349629491567612,0.427328497171402,0.24065403640270233,-0.3933189809322357,0.06212378293275833,-0.13765516877174377,0.0720965638756752,-0.20356224477291107,-0.020226359367370605,-0.13690054416656494,-0.2390962392091751,0.0024375389330089092,0.11150064319372177,0.06635233759880066,0.0951579138636589,-0.015590413473546505,0.15747976303100586,-0.08921822160482407,-0.09393519908189774,-0.13572031259536743,-0.14367426931858063,0.012318205088376999,0.14119434356689453,0.0951290875673294,-0.12734876573085785,0.21495336294174194,0.018403533846139908,0.15521115064620972,-0.3538873493671417,-0.019149895757436752,0.0690883919596672,0.15921521186828613,-0.013525191694498062,0.09302760660648346,-0.09338682889938354,0.0718567743897438,-0.01863427273929119,-0.3173113167285919,-0.1470428854227066,-0.09592806547880173,0.09297892451286316,-0.0032837754115462303,-0.046466078609228134,-0.008634110912680626,0.028481153771281242,-0.07345674932003021,0.09500329196453094,-0.1555994302034378,-0.02970493957400322,0.04519220069050789,0.01669604703783989,-0.06417735666036606,0.09781132638454437,0.17896157503128052,0.07473040372133255,-0.037298694252967834,0.13066114485263824,0.37280333042144775,0.11710476875305176,0.07029806077480316,-0.01762077771127224,0.014033851213753223,0.07211160659790039,-0.005935847759246826,0.02574753575026989,0.09332462400197983,-0.08358033001422882,0.1573459953069687,-0.2820206582546234,-0.16725534200668335,-0.004949936177581549,0.03467279672622681,0.026185836642980576,0.12561465799808502,0.016140850260853767,0.20659348368644714,-0.10571947693824768,-0.0857231542468071,0.022272812202572823,-0.09581204503774643,-0.0777994766831398,0.0022761765867471695,-0.10560038685798645,0.18376773595809937,0.10713698714971542,0.05229217931628227,0.10899151116609573,0.16374562680721283,0.016755977645516396,0.14546187222003937,-0.08506893366575241,0.012194568291306496,0.13259877264499664,-0.08717438578605652,-0.06532701849937439,0.0694829672574997,0.021215664222836494,0.43596675992012024,0.15394631028175354,-0.45754605531692505,0.09139538556337357,-0.13329903781414032,-0.11832652240991592,0.08693218231201172,0.08505399525165558,0.01740066520869732,-0.08160277456045151,0.2105298787355423,-0.08308445662260056,0.03496621549129486,-0.08931125700473785,-0.01989954523742199,0.16782885789871216,-0.1481136828660965,-0.048545438796281815,0.01640673354268074,0.35801962018013,0.06232727691531181,-0.0408170223236084,-0.13212934136390686,0.02271733060479164,0.1876555234193802,0.08794023096561432,-0.04895846173167229,0.006185594014823437,0.02065214328467846,-0.07291355729103088,-0.19207514822483063,-0.09663774818181992,-0.050778910517692566,0.035241346806287766,-0.07561985403299332,-0.038279492408037186,-0.04555194824934006,-0.13112294673919678,0.0012342312838882208,-0.17440949380397797,0.0610663928091526,-0.06150935962796211,-0.27185964584350586,0.0008098132093437016,-0.07490863651037216,0.10534659773111343,0.06960690766572952,0.026320572942495346,0.1878281682729721,-0.10962813347578049,-0.01382932998239994,-0.10510376840829849,0.042588651180267334,-0.06154511496424675,0.016241157427430153,-0.17432639002799988,-0.31248870491981506,0.03185013681650162,0.10682320594787598,0.12076734751462936,-0.11546935141086578,0.002735298592597246,-0.20024219155311584,0.09871227294206619,-0.08867926895618439,-0.025719407945871353,-0.009571598842740059,0.027508676052093506,0.011075742542743683,-0.18163065612316132,-0.0010726049076765776,-0.12176111340522766,0.06870720535516739,-0.06899350881576538,0.032694946974515915,-0.04782341420650482,-0.08238536864519119,-0.03029256872832775,-0.03506849333643913,0.05386465787887573,-0.12064056098461151,-0.23442529141902924,-0.16590137779712677,-0.25535112619400024,0.0414675809442997,0.09343339502811432,0.33650898933410645,-0.040348246693611145,-0.03285636752843857,-0.14820832014083862,-0.11423417925834656,-0.1975068300962448,-0.2270924299955368,-0.06950810551643372,-0.08894412219524384,-0.10173408687114716,0.29740703105926514,0.22107312083244324,0.3533378839492798,0.3502863049507141,0.05827656760811806,-0.065219447016716,-0.24066762626171112,0.03174497187137604,-0.1429625004529953,-0.0011977904941886663,0.16957172751426697,0.1050785556435585,-0.04149452969431877,0.24811671674251556,-0.13087989389896393,-0.010283068753778934,-0.10615375638008118,-0.03578741103410721,-0.013764813542366028,-0.21013318002223969,0.010487286373972893,0.014516698196530342,-0.02274182252585888,0.031025759875774384,0.18601198494434357,-0.02368520200252533,0.10544106364250183,-0.19934263825416565,0.07800577580928802,0.16713261604309082,0.14003871381282806,0.04647371545433998,-0.05439794808626175,0.09753356128931046,0.11249788850545883,-0.02165909856557846,0.16070307791233063,-0.25751933455467224,0.06959468871355057,0.2870674729347229,-0.06601858884096146,0.007423775736242533,0.016417618840932846,0.1273082196712494,-0.13531219959259033,-0.0879705473780632,0.15797321498394012,0.042368363589048386,-0.01619395799934864,-0.10036622732877731,0.06770770996809006,-0.15036188066005707,-0.21182693541049957,-0.04507531225681305,0.03530314564704895,-0.02927427925169468,0.3309778869152069,-0.08182799071073532,-0.08058612048625946,0.19004292786121368,-0.1483856737613678,-0.03430456668138504,0.0372968353331089,-0.11242569237947464,0.09987764060497284,-0.09126264601945877,0.01361284963786602,-0.1979716569185257,-0.09556747227907181,0.057922281324863434,-0.17457211017608643,0.04326341673731804,0.05183751881122589,0.06857454031705856,-0.08864808827638626,-0.07154861837625504,-0.011877530254423618,0.3031563460826874,-0.11991068720817566,-0.18279866874217987,-0.021775690838694572,-0.13945524394512177,-0.021225599572062492,0.13641054928302765,0.030754780396819115,-0.034493476152420044,0.22250014543533325,0.16116037964820862,0.029468202963471413,0.020614175125956535,0.15854336321353912,-0.062025878578424454,0.015215296298265457,0.0016174763441085815,0.01108615379780531,0.11048110574483871,0.3871656656265259,0.041952840983867645,-0.3089349865913391,-0.08541838079690933,0.19439339637756348,0.1667490452528,0.10760195553302765,-0.08377321064472198,-0.1429888755083084,-0.05655916407704353,-0.1348164826631546,-0.050836943089962006,-0.02788916416466236,0.0008612247183918953,-0.1379927694797516,-0.20740409195423126,-0.025654515251517296,0.08728823810815811,-0.11082696169614792,0.2571115791797638,-0.32750749588012695,0.06576244533061981,-0.11776398867368698,-0.1809263676404953,0.009702961891889572,-0.15380123257637024,-0.17681333422660828,-0.009708743542432785,-0.3338346481323242,-0.07550754398107529,0.0500551201403141,0.21080486476421356,-0.12232157588005066,0.015164523385465145,-0.14734838902950287,0.004163602367043495,0.2339768260717392,0.12235333025455475,-0.019911734387278557,-0.04052581638097763,-0.08408866077661514,-0.03217592462897301,-0.13157939910888672,0.03884584456682205,-0.09364542365074158,0.014633864164352417,-0.019131021574139595,-0.21377204358577728,-0.07104651629924774,-0.16832664608955383,0.4249170422554016,-0.12614305317401886,0.2949620187282562,0.03696710243821144,0.15446074306964874,-0.07108255475759506,-0.016666535288095474,0.07551548629999161,-0.08675456047058105,-0.09765897691249847,0.23947033286094666,-0.16151785850524902,0.016185229644179344,-0.027008194476366043,0.11623039096593857,0.014585803262889385,0.2266930788755417,0.057061899453401566,-0.202174574136734,-0.046305883675813675,-0.0006301868124864995,0.12567390501499176,0.20611689984798431,0.014865893870592117,0.07978574186563492,0.03966713696718216,0.03458850830793381,-0.02315862476825714,-0.13017404079437256,0.13495497405529022,0.022786740213632584,-0.23212367296218872,0.23132961988449097,0.11292625963687897,0.06951898336410522,0.036553796380758286,-0.18871340155601501,-0.11902514845132828,-0.1266433149576187,-0.12571178376674652,-0.37428170442581177,-0.042699337005615234,-0.16161616146564484,0.10583475232124329,0.15839062631130219,-0.17378319799900055,0.1842273473739624,0.03642052412033081,-0.1369665116071701,-0.09948576986789703,0.07978174835443497,0.003648260375484824,0.15690115094184875,-0.2186308205127716,-0.081013984978199,-0.11651026457548141,-0.039563339203596115,0.14699961245059967,0.13633711636066437,0.08741815388202667,-0.13322629034519196,-0.24937956035137177,-0.0488240122795105,-0.0925767719745636,0.123082734644413,-0.18087175488471985,0.01997550204396248,-0.09664956480264664,0.1818883717060089,-0.1791488379240036,0.026958057656884193,-0.030284354463219643,0.13549193739891052,0.06339411437511444,-0.02699657343327999,0.06665955483913422,-0.04641110077500343,0.0970299169421196,0.03816242516040802,-0.04211040958762169,0.12129136919975281,-0.04751855134963989,-0.05133417621254921,0.06506726890802383,-0.11794257909059525,0.030937831848859787,-0.051140960305929184,0.12456385046243668,-0.23789864778518677,-0.010854316875338554,0.06652242690324783,0.0458335317671299,0.15916408598423004,0.15859876573085785,0.27440401911735535,0.1549030989408493,-0.14419294893741608,0.09101464599370956,0.07536294311285019,0.13998612761497498,-0.07779725641012192,0.17572984099388123,-0.0972793772816658,-0.028669575229287148,-0.09611302614212036,0.10516360402107239,-0.16600985825061798,0.1130620539188385,0.26315006613731384,-0.2231564223766327,-0.175742045044899,0.07753762602806091,0.018128197640180588,-0.07276959717273712,-0.030605437234044075,-0.04861702397465706,-0.05311133712530136,-0.2814846634864807,0.1420651376247406,0.006054483354091644,0.09395325183868408,-0.22003933787345886,0.043652307242155075,-0.04332727566361427,-0.09148344397544861,0.05057764798402786,0.10224646329879761,0.14594633877277374,-0.11903530359268188,0.20031142234802246,0.37341469526290894,0.1688542664051056,0.0231766514480114,0.08000265806913376,-0.0043250443413853645,-0.03549610823392868,0.13595782220363617,-0.22875340282917023,-0.05090449005365372,-0.08344222605228424,-0.2445903718471527,-0.10947692394256592,0.07176254689693451,0.017196742817759514,0.06934402137994766,0.11615172028541565,-0.14823514223098755,-0.05279546231031418,-0.20611736178398132,0.0015312288887798786,-0.0870700553059578,0.07210133224725723,0.0908060297369957,-0.11357742547988892,-0.17110401391983032,-0.055413298308849335,-0.14051982760429382,0.0524829737842083,0.01311168260872364,-0.06616523116827011,0.15616929531097412,0.09614188969135284,-0.038778893649578094,-0.024864863604307175,-0.011385549791157246,-0.08813375234603882,0.2002922147512436,0.09378458559513092,0.07709520310163498,-0.16721723973751068,0.03759564086794853,-0.1145847961306572,-0.09950017184019089,0.013049458153545856,-0.03337724506855011,-0.0707886815071106,-0.08622173964977264,0.0570426881313324,-0.15796074271202087,-0.20923222601413727,0.1500418782234192,0.0027825061697512865,0.022384529933333397,-0.07682624459266663,0.17092394828796387,0.06028824299573898,-0.017860978841781616,-0.05782195180654526,-0.1126151829957962,0.0907006710767746,0.30883267521858215,-0.009835411794483662,-0.11228540539741516,-0.02154473029077053,-0.1563781052827835,0.03192131593823433,0.04611415043473244,0.10897840559482574,-0.04684494808316231,-0.11036842316389084,0.05232716724276543,0.09700822830200195,0.00031511374982073903,0.028039466589689255,-0.024426903575658798,0.17573948204517365,-0.04067866504192352,0.2700901925563812,-0.1414983719587326,0.2856762409210205,0.18083250522613525,-0.08841465413570404,0.0894261822104454,0.07921040803194046,-0.23543256521224976,0.06663576513528824,-0.09611956030130386,0.013435731641948223,-0.03776252269744873,0.012192677706480026,-0.024818049743771553,-0.09565551578998566,0.13862977921962738,0.21224910020828247,-0.06358660012483597,-0.007012344431132078,0.15371084213256836,-0.15578481554985046,-0.03125377744436264,0.1183333694934845,-0.02396731823682785,0.021921245381236076,0.07221341878175735,0.04326693341135979,0.17704905569553375,-0.03347267583012581,-0.0970422625541687,0.07305794954299927,-0.23249377310276031,-0.06474823504686356,0.3207351267337799,0.0502215214073658,-0.18067608773708344,0.0914437472820282,-0.05762612074613571,0.0207699965685606,-0.021810919046401978,-0.06778283417224884,0.12729616463184357,0.08518189936876297,-0.15228432416915894,-0.16036511957645416,0.12029341608285904,-0.007325281389057636,-0.17449645698070526,-0.04741115868091583,-0.21733680367469788,-0.024293366819620132,0.018844343721866608,-0.004974412731826305,-0.08705474436283112,-0.056104738265275955,-0.13791930675506592,-0.006338054779917002,-0.012236655689775944,0.045591387897729874,0.12101507931947708,0.01264384388923645,-0.1638556718826294,-0.019481893628835678,0.03595597296953201,0.14469943940639496,-0.1889744997024536,-0.02040279656648636,-0.023346807807683945,-0.09683626890182495,-0.15029922127723694,-0.17927898466587067,-0.008242353796958923,-0.059088632464408875,-0.1423509418964386,0.25925835967063904,0.0273712370544672,-0.003950420767068863,-0.07393626123666763,0.05193934217095375,-0.07637730985879898,0.022034993395209312,-0.019106687977910042,-0.0463334359228611,0.1748371422290802,0.31276145577430725,-0.18980394303798676,-0.06083851307630539,-0.47089630365371704,-0.15711399912834167,-0.1975501924753189,-0.35623013973236084,-0.0655168890953064,-0.1367894858121872,0.26029205322265625,0.04200968146324158,0.17496086657047272,0.10650228708982468,-0.13033229112625122,-0.1077217310667038,0.15057504177093506,-0.21981258690357208,-0.1539839506149292,0.04397314041852951,-0.1083691418170929,0.14668619632720947,0.07531507313251495,0.06213987618684769,-0.14492841064929962,-0.41726812720298767,-0.12181862443685532,0.013397466391324997,0.2802741527557373,-0.14682462811470032,0.05616424232721329,-0.19738928973674774,0.1425260305404663,0.12009592354297638,-0.2540864944458008,-0.045133285224437714,-0.07747133076190948,0.10435259342193604,-0.2008667141199112,-0.09222996979951859,0.12490825355052948,0.07536749541759491,0.17946909368038177,0.04816100001335144,0.22902563214302063,0.006567767355591059,-0.13169001042842865,0.051759377121925354,-0.027839504182338715,0.10256874561309814,-0.09242207556962967,0.13032738864421844,0.013195803388953209,-0.0026033148169517517,-0.09034152328968048,0.08604558557271957,0.03944428637623787,0.0011147280456498265,0.011014296673238277,0.05536044389009476,0.038098741322755814,-0.030120257288217545,0.07541627436876297,0.6681923270225525,0.6316007375717163,0.536271870136261,-0.8213173747062683,-0.32151687145233154,0.3318290114402771,0.3521389365196228,-0.3562639355659485,0.26371580362319946,0.3961311876773834,-1.448411464691162,0.2748066186904907,-0.16238947212696075,-0.6479159593582153,-0.029541607946157455,-0.5205885171890259,0.08672758936882019,-0.320892870426178,0.07034875452518463,-0.095552459359169,0.32342419028282166,-0.01685239002108574,-0.17407040297985077,-0.0560244619846344,-0.23570910096168518,0.19010861217975616,0.048101406544446945,-0.15358416736125946,0.06859228014945984,0.07904703170061111,0.28682103753089905,0.14549705386161804,-0.009422366507351398,-0.30793052911758423,0.006394305266439915,-0.2601941227912903,-0.11466576904058456,0.0406668484210968,0.04604515805840492,-0.17383304238319397,-0.09500621259212494,0.1378656029701233,0.03374280035495758,-0.0938330665230751,-0.24172921478748322,-0.016397330909967422,0.1528589129447937,0.1970895677804947,-0.18395623564720154,0.14596332609653473,-0.034123387187719345,-0.25870588421821594,-0.31931495666503906,0.04355263710021973,-0.128160759806633,-0.013154633343219757,0.055501703172922134,-0.033609580248594284,-0.1269194781780243,-0.15134531259536743,0.2411169856786728,-0.25414881110191345,-0.12445759028196335,0.0887695848941803,0.012832896783947945,-0.11105354130268097,-0.1428905725479126,0.19720588624477386,0.11030136048793793,0.2220357209444046,0.17906631529331207,0.15672270953655243,-0.13511262834072113,-0.21972452104091644,-0.02115054987370968,-0.44709455966949463,0.09267213940620422,0.24502204358577728,0.14975911378860474,-0.09984632581472397,0.05559433251619339,0.12218107283115387,-0.06085360050201416,0.2098911702632904,0.011594167910516262,-0.0674353539943695,0.0006982820341363549,0.05381545424461365,0.03136056289076805,0.5342987775802612,0.2845631241798401,-0.012204513885080814,-0.2541731894016266,-0.5513963103294373,-0.1395203173160553,-0.020725704729557037,0.004774471279233694,0.1958790272474289,0.12269715219736099,0.05070052295923233,-0.09714291989803314,0.019700517877936363,0.07457707822322845,-0.05550577491521835,0.09416181594133377,0.1198589950799942,-0.18648315966129303,0.10666912794113159,-0.15511168539524078,0.07612334191799164,-0.33165761828422546,-0.10878623276948929,-0.04767153784632683,-0.14281301200389862,0.04117165133357048,0.06505373120307922,-0.10436182469129562,0.11362999677658081,0.22632645070552826,0.06903800368309021,-0.08566201478242874,-0.10942429304122925,-0.03327416628599167,0.2534106969833374,0.24665521085262299,-0.028290750458836555,0.08333345502614975,0.009489060379564762,0.2818496525287628,0.3209633231163025,-0.30062946677207947,0.1037379801273346,0.19747938215732574,-0.08154505491256714,-0.21008950471878052,0.29265934228897095,-0.021167848259210587,0.09473827481269836,-0.014926689676940441,0.11826462298631668,-0.02399376407265663,0.017451170831918716,0.10296902060508728,0.055495113134384155,-0.3961259424686432,0.03209175169467926,0.10415713489055634,-0.07205385714769363,0.2545490562915802,0.05999459698796272,-0.19972173869609833,-0.19144096970558167,0.06983722746372223,-0.0032093448098748922,0.06570159643888474,0.011788771487772465,0.2888590395450592,0.05215940251946449,0.03883588686585426,-0.05762133374810219,0.4330531656742096,0.2691972851753235,0.03726334124803543,0.3821379244327545,-0.084272101521492,0.19331815838813782,-0.13976797461509705,0.4160114526748657,-0.3656279146671295,-0.10793620347976685,0.08379381150007248,-0.00453890860080719,0.22894956171512604,-0.056054554879665375,0.16500070691108704,0.2641780376434326,-0.03619101271033287,0.13292191922664642,-0.21061864495277405,-0.0236701387912035,-0.2362307608127594,0.06434838473796844,-0.07617881149053574,-0.16835494339466095,0.12031272053718567,-0.1442517787218094,-0.010559854097664356,-0.024758705869317055,-0.16584691405296326,0.09450922906398773,0.15974214673042297,-0.004176020622253418,-0.21362070739269257,0.25303107500076294,-0.06184946745634079,-0.22033339738845825,-0.11096830666065216,-0.10940784960985184,-0.20942473411560059,-0.005900546442717314,-0.10724517703056335,0.3659992218017578,0.44273290038108826,-0.030366022139787674,-0.10432044416666031,-0.013798578642308712,-0.27782297134399414,-0.09593846648931503,0.36666950583457947,0.28423011302948,-0.02838561125099659,0.3892648220062256,0.04979235678911209,-0.16314919292926788,-0.3468397259712219,0.3105171024799347,0.19416432082653046,0.30154213309288025,-0.1483277678489685,0.007184701040387154,-0.08275840431451797,0.017967788502573967,0.07784967124462128,-0.05930845066905022,-0.014965086244046688,0.2169589102268219,0.027862347662448883,0.15443110466003418,0.04906652495265007,0.24237950146198273,0.09014129638671875,0.004312476143240929,-0.03320799022912979,0.38729745149612427,0.1407591551542282,0.10411860793828964,-0.04244622215628624,-0.16925813257694244,-0.2170664370059967,0.13766172528266907,0.26654890179634094,-0.04877077415585518,0.42189347743988037,-0.025555463507771492,-0.30816149711608887,-0.1515914648771286,0.37499937415122986,0.007573475129902363,-0.21305696666240692,-0.047941502183675766,-0.4729643166065216,0.040392130613327026,0.08625614643096924,-8.765486563788727e-05,-0.22864647209644318,-0.02987411804497242,0.21976329386234283,0.2695975601673126,-0.11574426293373108,-0.158682718873024,-0.056551311165094376,-0.2686510980129242,0.1433810442686081,0.04889531433582306,0.0060254367999732494,0.016254689544439316,-0.19318662583827972,0.020632978528738022,0.09996720403432846,-0.18934810161590576,0.07887927442789078,0.0689808800816536,-0.12173107266426086,-0.026953045278787613,0.07814944535493851,-0.004380531143397093,0.010296822525560856,-0.00705005694180727,0.020882371813058853,0.038565732538700104,-0.15334919095039368,0.18106943368911743,0.09885670989751816,0.0008580404683016241,0.013620194979012012,-0.030620591714978218,-0.04641652852296829,-0.0024888012558221817,-0.02069808356463909,-0.14797468483448029,-0.008851656690239906,0.021453483030200005,0.5007502436637878,-0.017749235033988953,0.04952199012041092,0.0685134157538414,-0.3246650695800781,0.07891760766506195,0.05399083346128464,-0.1858532428741455,0.019165391102433205,-0.1093636006116867,-0.44253453612327576,0.04337478429079056,0.2867502272129059,-0.05707168206572533,0.006112607195973396,0.08262860029935837,0.12355764210224152,0.16320790350437164,0.15225361287593842,-0.09358695894479752,0.010447202250361443,0.0775187686085701,0.1588607281446457,-0.004994399845600128,-0.057830750942230225,0.0689445361495018,-0.013490106910467148,-0.22391925752162933,0.147685244679451,0.0658188909292221,-0.06923592835664749,-0.2838215231895447,0.039935287088155746,-0.08421317487955093,0.28731921315193176,-0.03451487421989441,-0.20192021131515503,-0.097324438393116,0.19366002082824707,-0.07150325924158096,0.11655591428279877,0.062339626252651215,0.18462233245372772,-0.040454208850860596,-0.004312871489673853,-0.05167602375149727,0.02083488553762436,0.19804847240447998,-0.07476887106895447,-0.11015066504478455,-0.13653726875782013,-0.07467485964298248,0.02676418609917164,-0.16710011661052704,0.22226019203662872,-0.05310884490609169,0.13694994151592255,0.001322867115959525,0.21546703577041626,-0.1562618464231491,-0.14018020033836365,0.0986924096941948,-0.13668322563171387,0.1071452721953392,0.05823018401861191,-0.2314019799232483,-0.17017120122909546,-0.06436193734407425,-0.036723263561725616,0.1673940271139145,0.270740270614624,-0.031142981722950935,0.08139390498399734,0.1470658779144287,0.0719912201166153,0.03554772958159447,-0.17848511040210724,-0.28578323125839233,-0.17687168717384338,-0.05713808164000511,0.0019222378032281995,-0.06824634969234467,0.0742831602692604,-0.060554731637239456,0.010395923629403114,0.009310322813689709,-0.05612918362021446,0.15016458928585052,-0.04846576973795891,-0.27913734316825867,-0.14343494176864624,0.14036287367343903,-0.06948529183864594,-0.14861421287059784,-0.06889862567186356,0.059144143015146255,-0.06154993921518326,-0.01409417949616909,-0.0025850872043520212,-0.1320674866437912,0.019401438534259796,-0.15534797310829163,0.22278481721878052,0.15892396867275238,-0.11155213415622711,-0.08326473832130432,-0.019193725660443306,-0.018599269911646843,0.20976272225379944,0.14263656735420227,0.07839564234018326,-0.05167735740542412,-0.1548224240541458,-0.15450718998908997,-0.04134446755051613,-0.08544964343309402,-0.08944185078144073,-0.14469026029109955,0.028597509488463402,0.032400310039520264,-0.29277345538139343,0.17461012303829193,0.2645218074321747,0.09848921000957489,0.18808957934379578,-0.07099290192127228,0.13551940023899078,0.027476273477077484,-0.015592526644468307,0.06252118200063705,0.1380947381258011,0.015002114698290825,-0.06349662691354752,-0.06467604637145996,-0.03453180938959122,-0.0019520324422046542,0.102460578083992,-0.10177852213382721,0.1537369042634964,0.27947157621383667,-0.18031691014766693,-0.07935464382171631,0.23330090939998627,-0.1298488974571228,0.08063363283872604,-0.2091737687587738,0.1492128074169159,0.16018936038017273,-0.06215489283204079,0.18074972927570343,-0.038680218160152435,0.026263505220413208,-0.10314799100160599,-0.027225792407989502,-0.11786995083093643,0.07257819920778275,0.10450755804777145,0.044097207486629486,0.11056669056415558,-0.042283639311790466,0.03705305978655815,0.26906001567840576,0.02606150321662426,-0.11838674545288086,-0.07981167733669281,-0.13646136224269867,-0.16280709207057953,0.02844109944999218,0.08776455372571945,-0.06494095176458359,0.06957467645406723,0.039389293640851974,0.17248189449310303,-0.15443554520606995,-0.1379154771566391,-0.007381593342870474,0.052083082497119904,-0.05607268214225769,0.001382702263072133,0.16229738295078278,0.10815297812223434,-0.06660390645265579,0.14064468443393707,-0.1527331918478012,-0.16523461043834686,0.24490372836589813,0.032349079847335815,-0.09093500673770905,0.07541963458061218,-0.09620961546897888,0.2372812181711197,-0.03865523263812065,0.2432517111301422,-0.058885473757982254,0.1252487599849701,0.09951362013816833,-0.115071602165699,-0.07640780508518219,0.11634461581707001,-0.1583191305398941,0.019090622663497925,-0.07080264389514923,-0.18933379650115967,0.06493858247995377,0.274990439414978,-0.26854294538497925,-0.06037849932909012,-0.08309690654277802,-0.046332452446222305,0.04121692478656769,0.1506311446428299,0.02549785189330578,0.060824617743492126,0.16960114240646362,0.12900958955287933,-0.03020012378692627,0.029626870527863503,0.02476954646408558,-0.0826217457652092,0.014577184803783894,0.033645983785390854,0.03454191982746124,-0.12241850793361664,-0.16763122379779816,-0.07094598561525345,-0.012507415376603603,-0.02861785516142845,0.030965305864810944,0.04643724486231804,-0.2313171774148941,-0.04821474850177765,0.04265514388680458,0.029258061200380325,0.20481617748737335,0.23094168305397034,-0.029197480529546738,-0.039566513150930405,0.04992319270968437,-0.22692587971687317,-0.15199890732765198,0.12481596320867538,0.10072870552539825,0.1380700021982193,0.12663859128952026,-0.10214240103960037,0.004536075051873922,0.03145333752036095,-0.13653691112995148,-0.034727923572063446,-0.033189885318279266,-0.0830603688955307,-0.29891663789749146,-0.07106276601552963,-0.05576321482658386,0.05770518258213997,-0.00228242389857769,-0.22902607917785645,-0.059515614062547684,0.028436170890927315,-0.10165783017873764,-0.114566370844841,0.060694798827171326,-0.1940838247537613,0.012697394005954266,-0.009156676009297371,-0.025026747956871986,0.12627920508384705,-0.018913011997938156,-0.03159660845994949,-0.015722189098596573,0.22913333773612976,0.012377322651445866,0.22101013362407684,-0.19726118445396423,-0.12096370756626129,-0.14111392199993134,0.02874748408794403,-0.2402528077363968,0.05906768515706062,0.16485722362995148,0.05647885054349899,0.17553645372390747,0.1692955642938614,0.03030933439731598,0.2394215166568756,0.05657035484910011,0.05116480961441994,0.21102765202522278,-0.332988440990448,-0.266788512468338,-0.03919028490781784,-0.055118490010499954,-0.043364305049180984,-0.00514671066775918,0.054718323051929474,0.18743796646595,0.16320455074310303,0.29636573791503906,-0.45792099833488464,-0.004665061365813017,0.17994846403598785,0.1897033005952835,-0.13599653542041779,0.4565763473510742,0.03478856757283211,-0.13602375984191895,-0.0884048268198967,-0.14029322564601898,-0.20469343662261963,-0.11681749671697617,0.027902863919734955,0.04847407713532448,0.32002294063568115,-0.012074564583599567,-0.04946085810661316,0.07748915255069733,-0.09863775968551636,0.0507328025996685,-0.04100053012371063,-0.06955184042453766,-0.15824562311172485,-0.023651981726288795,0.09020669013261795,0.015536640770733356,0.49259161949157715,-0.05053889378905296,-0.10253066569566727,-0.33338144421577454,0.03979959338903427,-0.06566863507032394,-0.16526442766189575,0.06515791267156601,0.2769818603992462,0.18671707808971405,0.1500648558139801,0.121828593313694,-0.1422741711139679,-0.017935506999492645,-0.12533116340637207,-0.3182426393032074,-0.06127456948161125,-0.2533669173717499,-0.07407468557357788,0.09546882659196854,0.06114369258284569,-0.15646618604660034,0.027109088376164436,0.1740233153104782,-0.02739877998828888,0.06209450215101242,-0.004888838157057762,-0.038328416645526886,-0.018631357699632645,-0.01805327646434307,0.0769648477435112,-0.045887481421232224,-0.06702816486358643,0.11850150674581528,-0.004039463121443987,-0.21729391813278198,-0.09864882379770279,0.07987622171640396,-0.32723554968833923,-0.10637123137712479,0.21596644818782806,-0.03338007256388664,-0.10089923441410065,0.05244763568043709,-0.017573131248354912,0.11681857705116272,-0.04118318483233452,-0.19929605722427368,-0.11643868684768677,-0.2586483359336853,-0.11895778030157089,0.004955169279128313,0.0809677243232727,0.1717177778482437,0.059968508780002594,2.841464629455004e-05,0.013487836346030235,-0.16950547695159912,0.06904152035713196,0.05633765831589699,0.12335735559463501,0.14785601198673248,-0.08647572249174118,-0.22430995106697083,-0.016957733780145645,-0.044536441564559937,-0.06594359129667282,-0.05856345221400261,0.23369254171848297,-0.23163263499736786,-0.043172162026166916,-0.1446208357810974,0.25343775749206543,-0.091285839676857,0.1192837804555893,-0.30167874693870544,-0.02247852459549904,0.037732481956481934,-0.2747976779937744,-0.022080378606915474,0.38418376445770264,-0.4764792323112488,-0.047692690044641495,0.000515645369887352,1.2949188947677612,-0.013979236595332623,-0.13165158033370972,-0.1665705442428589,-0.0636206790804863,0.011475623585283756,0.19970926642417908,0.004625103902071714,0.0412069670855999,0.06944949924945831,-0.025880353525280952,-0.05410914495587349,-0.16928081214427948,0.06647428125143051,-0.04269993305206299,0.04733183979988098,-0.3887125253677368,0.10681059956550598,-0.12711407244205475,0.13844257593154907,-0.014295061118900776,0.329689085483551,-0.021620705723762512,-0.13381898403167725,-0.06900755316019058,-0.4283216595649719,-0.023296060040593147,0.037962742149829865,-0.13775786757469177,0.12318237125873566,-0.34095537662506104,0.12357833236455917,-0.027567410841584206,-0.03148670494556427,-0.3044797480106354,-0.04508232697844505,-0.041540369391441345,0.167644202709198,-0.081434465944767,-0.007511269301176071,0.12504491209983826,0.07544400542974472,0.27041900157928467,0.1093723252415657,-0.09233452379703522,-0.07422933727502823,0.2369024157524109,-0.0349072627723217,-0.04477256163954735,-0.09595838934183121,0.09385910630226135,0.1009802296757698,-0.1615174114704132,0.13661125302314758,0.0021291119046509266,-0.3716050982475281,0.07134222239255905,-0.00026627746410667896,-0.15619632601737976,-0.014801367186009884,0.08344831317663193,0.17130981385707855,0.11921408772468567,0.02090364135801792,0.11876504123210907,-0.15906816720962524,0.045268237590789795,-0.18691971898078918,-0.34847310185432434,-0.3098198175430298,0.17755253612995148,0.28682276606559753,-0.13001129031181335,0.019898846745491028,0.18494446575641632,0.32715457677841187,-0.16458562016487122,-0.11912531405687332,-0.8672412037849426,-0.10673915594816208,-0.09789715707302094,0.7140701413154602,-0.009132533334195614,0.11715710163116455,0.18554624915122986,0.007057418115437031,-0.18999652564525604,-0.10539629310369492,-0.20645584166049957,-0.2305588573217392,0.16755934059619904,-0.06882833689451218,0.9375326037406921,-0.030730117112398148,0.026055170223116875,-1.2049916982650757,0.34930115938186646,-0.08189146220684052,0.6361710429191589,0.2204178124666214,-0.15689875185489655,0.11491122096776962,0.3067569434642792,0.06159134581685066,-0.01777072437107563,0.24035196006298065,0.08402560651302338,-0.20988954603672028,0.5517892837524414,0.0784599781036377,0.2026643604040146,-0.202447310090065,-0.12892857193946838,0.26175230741500854,0.055023591965436935,0.03852171078324318,0.22092100977897644,-0.3677973449230194,0.06482525169849396,0.37505897879600525,-0.19522260129451752,-0.07901530712842941,0.13731680810451508,0.21858268976211548,-0.14320528507232666,-0.198556050658226,0.1928349882364273,0.1561378389596939,-0.12085410207509995,0.010074146091938019,0.012523211538791656,-0.03418388217687607,0.13957567512989044,-0.1489391028881073,-0.15937454998493195,0.19499990344047546,0.021234391257166862,0.01079335156828165,-0.10459890216588974,0.025651929900050163,-0.04293186590075493,