{"version":"0.4.0","metadata":{"name":"Rhythm","modeled_by":"Steve Atkinson","gear_type":"amp","tone_type":"crunch"},"architecture":"WaveNet","config":{"layers":[{"input_size":1,"condition_size":1,"head_size":8,"channels":16,"kernel_size":3,"dilations":[1,2,4,8,16,32,64,128,256,512],"activation":"Tanh","gated":false,"head_bias":false},{"input_size":16,"condition_size":1,"head_size":1,"channels":8,"kernel_size":3,"dilations":[1,2,4,8,16,32,64,128,256,512],"activation":"Tanh","gated":false,"head_bias":true}],"head":null,"head_scale":1.0},"weights":[0.0033124424517154694,-0.12683579325675964,2.1675641536712646,-0.5989450216293335,0.08025819063186646,-0.4816373586654663,0.017211206257343292,0.7716459035873413,0.4991455078125,-1.09701669216156,-0.6400419473648071,-0.37231698632240295,1.7959190607070923,1.0751606225967407,-0.7877607345581055,0.9773831963539124,0.13709379732608795,0.14785081148147583,-0.04176156222820282,-0.0611521415412426,-0.16230076551437378,0.32697632908821106,0.1013059914112091,0.11931157857179642,-0.22872696816921234,0.19229744374752045,-0.24260354042053223,0.3078349232673645,0.20691338181495667,0.19688351452350616,-0.20635855197906494,-0.023922942578792572,-0.1962040662765503,0.37236660718917847,-0.09102445840835571,0.2989138066768646,-0.395986407995224,0.03223574534058571,0.22909224033355713,-0.3533438444137573,0.1105736717581749,0.2912149131298065,-0.3536337912082672,0.027868937700986862,-0.3707519471645355,0.3046172857284546,0.13447514176368713,-0.16583263874053955,0.37479546666145325,0.055933915078639984,-0.37152546644210815,0.4017731249332428,0.05166461318731308,0.15310713648796082,-0.21961259841918945,-0.06095076724886894,0.36888375878334045,-0.3450951874256134,0.04352675378322601,-0.12772418558597565,0.1402752548456192,0.058939412236213684,0.29592323303222656,-0.14263828098773956,0.1157383993268013,0.11959817260503769,0.12542524933815002,0.062140654772520065,-0.020127004012465477,-0.11288072913885117,-0.11261222511529922,-0.11222952604293823,0.04267890751361847,0.21531866490840912,-0.07005354762077332,-0.15574419498443604,-0.09471651166677475,0.25130704045295715,0.06734281033277512,0.03643599525094032,0.06310620158910751,-0.06768935918807983,-0.1617162525653839,-0.07013895362615585,0.13290762901306152,-0.2606937885284424,0.1818389594554901,0.2407703995704651,-0.02781486138701439,-0.11558502167463303,-0.13550977408885956,0.21679702401161194,-0.06472782790660858,-0.0122297378256917,0.3902171850204468,0.05918193235993385,0.02538103610277176,0.28850874304771423,0.07719676196575165,-0.00722421333193779,-0.21223196387290955,-0.08496283739805222,-0.10399245470762253,-0.15394796431064606,-0.06531001627445221,0.185264453291893,0.22720767557621002,-0.0006875951075926423,-0.041925907135009766,-0.10881340503692627,0.08318553119897842,0.122613325715065,0.12204045057296753,-0.025436267256736755,-0.0751187652349472,0.07502306997776031,0.07976783812046051,0.05459059774875641,-0.008457984775304794,0.0005196464480832219,0.03822135925292969,0.12020585685968399,0.029694272205233574,-0.015979018062353134,0.12162591516971588,-0.10932008177042007,-0.0727568119764328,0.1410946547985077,0.07915235310792923,0.01649024337530136,-0.05153737962245941,-0.030484866350889206,0.07396424561738968,0.14000608026981354,-0.14820007979869843,0.20389489829540253,0.04839841648936272,-0.2153485119342804,-0.014758075587451458,0.1397084891796112,-0.01857341080904007,0.013020874932408333,0.071596659719944,0.16467778384685516,-0.1220211461186409,-0.010207644663751125,0.04638843238353729,-0.16380254924297333,-0.026661906391382217,-0.12434060126543045,-0.040512412786483765,-0.06568164378404617,-0.21670001745224,0.10723282396793365,-0.09652021527290344,-0.023791836574673653,-0.10424111038446426,0.07580804079771042,-0.007416650652885437,-0.02090965211391449,0.17430727183818817,-0.03545568138360977,-0.09288696199655533,-0.06451153010129929,0.1524796187877655,0.0928671732544899,0.16207291185855865,-0.1978994458913803,-0.20552943646907806,-0.03390490636229515,0.11930704116821289,-0.06024358794093132,0.05415700748562813,0.1895996332168579,0.14572520554065704,0.07515820860862732,-0.008829264901578426,0.03309735655784607,0.10922940075397491,-0.08192548155784607,-0.17877520620822906,-0.05672624707221985,-0.10053975880146027,-0.07518139481544495,-0.050617001950740814,-0.03504505380988121,0.028042234480381012,0.08726929128170013,-0.04011650010943413,-0.06311451643705368,0.021824544295668602,0.18700335919857025,0.07547762989997864,0.017635682597756386,0.03624910116195679,-0.04469892010092735,0.02591606415808201,-0.05973097309470177,-0.07204461842775345,-0.11764957755804062,-0.01728440262377262,-0.08657802641391754,0.04763035103678703,0.03647321090102196,-0.05929868295788765,0.11161529272794724,-0.08661490678787231,0.02029331400990486,0.0641784518957138,-0.1927485466003418,-0.11694446951150894,-0.11927930265665054,0.2314877212047577,-0.13864803314208984,0.0198417566716671,-0.43004998564720154,0.0716661587357521,-0.0646081417798996,0.21443487703800201,-0.12326560169458389,0.07581010460853577,-0.32637283205986023,-0.03125526010990143,-0.20404808223247528,0.2954304814338684,0.007573600858449936,0.14998489618301392,-0.2263309359550476,-0.022179728373885155,0.042951930314302444,-0.19636952877044678,0.15670223534107208,0.05502165108919144,-0.13722027838230133,0.11427148431539536,0.039026759564876556,0.15330003201961517,-0.12714402377605438,-0.032491378486156464,0.2594341039657593,-0.11407646536827087,-0.2488994151353836,0.3418118357658386,-0.12467078864574432,0.09431721270084381,-0.15099860727787018,0.16565804183483124,0.07227376848459244,-0.20990219712257385,0.1846354901790619,-0.017467569559812546,0.13206420838832855,-0.10838796198368073,0.10760310292243958,-0.3834986388683319,0.12375549226999283,0.3504388928413391,0.15574699640274048,0.17034019529819489,-0.2347707897424698,-0.09825525432825089,0.16771414875984192,0.1703445017337799,-0.04937613755464554,-0.10753865540027618,-0.16095732152462006,0.006471381057053804,0.017648376524448395,0.3619217276573181,0.10986983776092529,-0.09593319892883301,-0.2722724676132202,0.11070264875888824,-0.067404605448246,0.30418020486831665,-0.17911522090435028,0.06974472105503082,0.32012349367141724,0.07476737350225449,-0.024801988154649734,0.0653306320309639,0.04700825735926628,-0.150782510638237,-0.2481641322374344,-0.07218487560749054,0.11339686810970306,-0.2724418342113495,-0.01445072889328003,0.14640092849731445,-0.2474752515554428,0.09994364529848099,-0.032480333000421524,0.09460911154747009,0.001073298859409988,0.007313205860555172,0.13870587944984436,-0.0838661938905716,0.03025282360613346,-0.21408002078533173,-0.013576039113104343,-0.04198282212018967,0.12443916499614716,-0.07648088037967682,0.040621984750032425,-0.14458976686000824,0.2434527724981308,0.32288017868995667,-0.053134333342313766,0.07013946771621704,-0.24992473423480988,-0.15283611416816711,-0.13417647778987885,0.2973664104938507,-0.07550982385873795,-0.03321279212832451,-0.30314865708351135,-0.0563429556787014,-0.06668783724308014,0.21072843670845032,0.1293410360813141,0.07331863045692444,-0.23934274911880493,-0.1619431972503662,-0.0062445406801998615,0.09580710530281067,-0.13110221922397614,-0.06669995933771133,0.24220995604991913,-0.042007721960544586,0.07776153087615967,0.2908141613006592,0.13707533478736877,-0.0554032027721405,-0.07164580374956131,0.02121945098042488,-0.0840524286031723,-0.26099488139152527,0.06454572081565857,-0.019544195383787155,-0.24913820624351501,-0.11491011828184128,-0.012399735860526562,0.1622827649116516,0.0744023248553276,-0.16791146993637085,0.32653602957725525,0.053320109844207764,0.01891685277223587,-0.28461411595344543,-0.0675017461180687,0.05233360081911087,0.2818927764892578,0.7156866192817688,-0.06916230916976929,0.04841161146759987,-0.909928560256958,0.18964123725891113,-0.12427955865859985,0.7293277382850647,-0.37333956360816956,-0.018237367272377014,-0.5956048369407654,0.21277450025081635,0.06048709154129028,0.9033970832824707,-0.20386457443237305,0.1325482726097107,-0.34973564743995667,0.22461344301700592,-0.12776635587215424,0.6083677411079407,-0.1368521749973297,0.11654558032751083,0.9626439213752747,-0.1657928228378296,0.2661425769329071,0.598375678062439,-0.3157733678817749,0.03897440806031227,-0.5284309983253479,0.33765143156051636,0.03595525026321411,-0.885165810585022,0.3671882152557373,-0.13384291529655457,-0.6498508453369141,0.1968497335910797,-0.10290650278329849,0.4760268032550812,-0.42907384037971497,0.011936109513044357,0.48635333776474,-0.11663440614938736,0.030481399968266487,-0.41413694620132446,0.1640048623085022,-0.024003054946660995,0.4791707694530487,-0.4135695993900299,0.03701360896229744,1.5030593872070312,1.1488327980041504,0.9491272568702698,-0.553202211856842,-0.3164603114128113,-0.11684724688529968,0.37868526577949524,0.16676165163516998,-0.022939512506127357,-0.44351425766944885,-0.14502060413360596,-0.16891774535179138,1.3107938766479492,1.2869048118591309,0.775033712387085,-0.20974530279636383,0.04291969910264015,-0.0479397289454937,0.008310648612678051,0.10815698653459549,0.13234438002109528,1.1845523118972778,1.0354124307632446,0.8353966474533081,0.3135067820549011,0.11633631587028503,0.2522857189178467,-0.3345297574996948,-0.08189346641302109,0.06424945592880249,-0.7620498538017273,-0.7399231791496277,-0.296378493309021,-0.22754664719104767,0.05884722247719765,0.14556092023849487,0.09186233580112457,0.09275321662425995,-0.1537836343050003,0.35168999433517456,0.08634103834629059,0.14067226648330688,-0.04329083859920502,0.056995414197444916,0.1630241572856903,0.2118074744939804,-0.03879778832197189,-0.03429863974452019,-0.14851003885269165,-0.21809208393096924,-0.13612064719200134,0.13726374506950378,-0.1177704855799675,-0.022434519603848457,-0.08137639611959457,0.2176276445388794,-0.21895469725131989,0.03495287522673607,-0.33939847350120544,0.16118785738945007,-0.1950216293334961,-0.06381656974554062,-0.2660519480705261,0.2213987112045288,-0.2467919886112213,0.1643480658531189,-0.22585339844226837,0.1402425765991211,-0.026607738807797432,-0.10262130200862885,0.39927536249160767,-0.1015162318944931,-0.14483526349067688,0.32992303371429443,-0.10444863885641098,0.13666661083698273,-0.42146116495132446,0.20167525112628937,-0.043722979724407196,-0.3929669260978699,-0.020502310246229172,0.0017822117079049349,-0.14058655500411987,0.120223268866539,-0.21230119466781616,0.3984029293060303,0.05875664949417114,-0.11095653474330902,0.3778974413871765,0.03087363764643669,-0.02398093044757843,-0.2714059054851532,-0.03383522480726242,0.059725601226091385,0.40471315383911133,-0.18015405535697937,0.005349492654204369,0.08205288648605347,0.30375203490257263,0.4140910506248474,-0.24717387557029724,-0.1519898772239685,-0.25037363171577454,0.145046666264534,0.03210058808326721,0.3248105049133301,-0.16546183824539185,-0.08647643774747849,-0.22325056791305542,0.1760452836751938,0.25812286138534546,0.07655049115419388,-0.0992586687207222,-0.008676765486598015,-0.18120616674423218,0.24910718202590942,-0.049783855676651,-0.24162138998508453,0.05542897433042526,0.03860337659716606,-0.25810012221336365,0.2120664417743683,0.11540292203426361,0.33139342069625854,-0.3757127821445465,0.01242571510374546,0.12059957534074783,-0.4305565655231476,-0.07424452900886536,0.18247702717781067,-0.2769034206867218,-0.11189348250627518,-0.1915629655122757,0.31558531522750854,0.1618056744337082,-0.306107759475708,0.16927967965602875,0.032759811729192734,0.364797979593277,-0.33227479457855225,-0.009457348845899105,-0.20479781925678253,0.36374184489250183,0.14041951298713684,-0.27185431122779846,0.13625144958496094,0.294718861579895,0.3747287392616272,-0.19947963953018188,-0.21648502349853516,-0.37184804677963257,0.18360500037670135,0.2744583487510681,0.271871954202652,-0.11163002997636795,-0.25900161266326904,-0.07396908849477768,0.051907189190387726,0.20172075927257538,0.13249453902244568,0.013060570694506168,-0.2526753842830658,-0.24413810670375824,0.2265992909669876,0.15847957134246826,-0.47401198744773865,-0.23848983645439148,0.13134023547172546,-0.202357217669487,-0.0142102325335145,0.2685195505619049,0.2209555059671402,-0.05000919848680496,-0.24010348320007324,0.31473949551582336,-0.0846555307507515,-0.12067905068397522,0.21834374964237213,-0.053061723709106445,-0.3453197479248047,-0.2564316391944885,0.10633941739797592,0.3054959774017334,-0.32895347476005554,0.000564473622944206,0.0944962203502655,0.23284383118152618,-0.2265533208847046,-0.03125408664345741,-0.32462650537490845,0.03985368832945824,0.20119187235832214,0.06743547320365906,0.13634487986564636,0.14490003883838654,-0.22899872064590454,0.2473652958869934,0.03383101895451546,0.16937492787837982,-0.09260497987270355,-0.014994644559919834,-0.2089615911245346,0.22983528673648834,-0.0156570915132761,0.35698679089546204,0.07925049960613251,0.05215722694993019,-0.03733294829726219,0.10209887474775314,-0.029590753838419914,0.059958819299936295,-0.1677863597869873,0.07777655869722366,0.11493504792451859,-0.2758020758628845,-0.045532844960689545,0.20113515853881836,-0.19074366986751556,0.08075038343667984,-0.12132050842046738,0.14515021443367004,-0.14441414177417755,-0.1602098047733307,0.1469862014055252,-0.01860424317419529,-0.08034460991621017,0.021839041262865067,-0.15892073512077332,0.23668941855430603,-0.08756465464830399,-0.010092301294207573,0.2543703019618988,-0.15224361419677734,0.06228906661272049,-0.23822565376758575,0.2661726474761963,-0.0477304682135582,0.0025581344962120056,0.003644548589363694,-0.02405170351266861,-0.18644529581069946,-0.4144710600376129,-0.15004391968250275,-0.061462752521038055,0.0833980068564415,0.048902347683906555,0.01226003561168909,-0.08383101224899292,-0.000343928171787411,0.005137534346431494,0.01573331654071808,-0.12191604822874069,-0.044275570660829544,-0.018589666113257408,0.20744037628173828,-0.15786497294902802,0.2020711600780487,-0.059059590101242065,0.23645548522472382,-0.12405019253492355,0.06737877428531647,0.1956111490726471,-0.017176158726215363,0.03266460821032524,-0.054631054401397705,-0.07889752089977264,0.11834479123353958,-0.014927188865840435,0.009450641460716724,-0.00984253641217947,-0.045647963881492615,0.027396079152822495,0.019941480830311775,-0.04276759549975395,0.08066187798976898,-0.2076638638973236,0.24229347705841064,-0.05125598609447479,0.04411490261554718,0.08597155660390854,-0.20207656919956207,0.12053926289081573,-0.20210030674934387,0.17805825173854828,-0.11508365720510483,0.10753165185451508,-0.11301789432764053,-0.038639578968286514,0.03796982392668724,0.26218077540397644,0.004494011402130127,-0.16583861410617828,0.0037075395230203867,-0.17054785788059235,0.03208031505346298,-0.1713155061006546,0.0013958283234387636,-0.1498323380947113,0.09900449961423874,-0.10250657796859741,0.013688044622540474,0.02300681360065937,0.021923478692770004,0.022911252453923225,-0.013739757239818573,-0.06277629733085632,0.00575292157009244,0.03133117035031319,0.041450921446084976,0.3046572804450989,0.12774324417114258,0.16472411155700684,0.07832727581262589,-0.12183968722820282,0.26940909028053284,-0.2341548502445221,-0.0031064196955412626,0.00496687600389123,0.0644364207983017,-0.02457536570727825,-0.2341892272233963,-0.15536357462406158,0.027436450123786926,-0.03055468015372753,0.1993415653705597,-0.13287603855133057,0.033338844776153564,0.20632940530776978,-0.06206216290593147,0.041965994983911514,-0.082904152572155,-0.049034301191568375,-0.09541741013526917,0.18350763618946075,0.05998475104570389,0.030441395938396454,-0.07893076539039612,0.05978076159954071,0.13244417309761047,0.07006525993347168,0.08097466826438904,0.12255556881427765,0.04198038578033447,0.12268797308206558,0.08077249675989151,0.030000822618603706,0.007603975012898445,0.011924426071345806,0.08000332117080688,-0.04031604528427124,-0.007356459274888039,-0.08116362243890762,-0.0682903528213501,0.05693748965859413,-0.051025036722421646,-0.08195743709802628,-0.09982410818338394,-0.1201396957039833,-0.07147325575351715,0.10075043141841888,-0.038890108466148376,-0.12345293909311295,0.14466162025928497,-0.15942448377609253,0.04569712653756142,-0.04619638994336128,-0.012145533226430416,-0.14407865703105927,-0.16768451035022736,0.09019403159618378,0.06015731766819954,0.04689078405499458,0.024365775287151337,0.133993461728096,0.09814527630805969,0.13537810742855072,-0.03304106369614601,-0.010618575848639011,-0.008837866596877575,-0.014602591283619404,-0.0018771833274513483,-0.06629761308431625,-0.03357251361012459,0.046551138162612915,0.04497027397155762,-0.022224897518754005,-0.050758883357048035,0.014210658147931099,-0.02601519785821438,0.021465348079800606,0.04256767779588699,-0.1985282450914383,0.2242092490196228,0.02440282143652439,0.09551363438367844,0.04230816662311554,0.08223771303892136,0.024134960025548935,0.02251925878226757,-0.08111342787742615,-1.134393334388733,0.7339433431625366,-0.6693207621574402,-0.09010374546051025,-0.2714178264141083,-0.5189192891120911,0.1829967349767685,0.8530155420303345,0.7414949536323547,-0.5817283391952515,0.33881333470344543,-0.8917598724365234,0.6679559350013733,0.6116994619369507,-0.6652155518531799,0.5593271255493164,0.30506742000579834,-0.14248894155025482,0.10318807512521744,0.12553220987319946,-0.005780742038041353,-0.2602231800556183,-0.3288959562778473,0.18664567172527313,0.13207267224788666,0.13789913058280945,-0.19297264516353607,0.14914126694202423,-0.11590781807899475,0.029727766290307045,0.07220756262540817,-0.16516715288162231,-0.20925968885421753,-0.08569583296775818,0.07460778951644897,0.12770956754684448,0.09731453657150269,0.057135481387376785,0.038105838000774384,-0.08185471594333649,0.114344023168087,-0.04327298700809479,-0.2545611560344696,-0.11708546429872513,-0.16193439066410065,-0.03468798100948334,0.015854187309741974,0.20370838046073914,-1.1121478080749512,-0.5753069519996643,-0.7296397686004639,-0.6172493100166321,-0.5738212466239929,0.6707531809806824,0.8928762674331665,0.19807925820350647,0.11968564242124557,0.9252715110778809,0.8015565872192383,-1.6118533611297607,0.5855600833892822,0.6241099238395691,0.20720063149929047,0.7590159773826599,0.06650195270776749,-0.04429668188095093,0.037146542221307755,-0.05479201674461365,-0.22548124194145203,-0.21035823225975037,0.2043117880821228,0.21450287103652954,-0.15623752772808075,0.4323953688144684,0.18344777822494507,0.15393266081809998,-0.20357057452201843,0.18601343035697937,-0.06796460598707199,-0.05728727951645851,0.2718881666660309,-0.06385019421577454,-0.015835879370570183,-0.07303613424301147,-0.5466980934143066,0.057874396443367004,-0.12403671443462372,-0.21266087889671326,0.012120603583753109,0.6856343150138855,0.2352658063173294,0.1666349172592163,-0.29543259739875793,-0.12835955619812012,-0.10034244507551193,-0.1864546686410904,0.3423115313053131,0.09880980104207993,0.053983382880687714,-0.16622915863990784,-0.3663610816001892,-0.021996110677719116,-0.28994935750961304,0.024997739121317863,0.07444387674331665,0.3539344072341919,0.1864175647497177,0.25950172543525696,-0.3100129961967468,0.021938757970929146,0.022065721452236176,0.3225443959236145,0.21455693244934082,-0.11890307068824768,-0.3170759379863739,-0.0760631263256073,-0.41739922761917114,0.2624099850654602,-0.06409823894500732,-0.343552827835083,0.005453137680888176,0.3194006085395813,0.13534368574619293,-0.12721960246562958,-0.062433380633592606,-0.05728552117943764,0.01600840874016285,0.03276073932647705,-0.6388246417045593,-0.08520473539829254,0.12520958483219147,0.07007639110088348,0.4674229621887207,0.09819818288087845,-0.1288759559392929,-0.03983967751264572,0.046444717794656754,-0.638217031955719,-0.5130115151405334,-0.14266863465309143,0.12106955796480179,0.19925034046173096,0.10346639901399612,-0.12930329144001007,-0.19663166999816895,0.2289925515651703,0.08432068675756454,-0.004793161991983652,0.11262556165456772,-0.44111645221710205,0.24548541009426117,-0.16002574563026428,0.07966545969247818,-0.1846577674150467,0.42092248797416687,0.7945823669433594,-0.17507542669773102,-0.20955008268356323,-0.055634237825870514,-0.18470823764801025,-0.09495855867862701,-0.07094661146402359,-0.18865224719047546,0.01587035320699215,0.010584001429378986,0.11926788091659546,-0.016658848151564598,-0.12709546089172363,0.09105877578258514,-0.12544524669647217,-0.016835520043969154,-0.247751384973526,0.2563745677471161,0.1863064467906952,0.11351615935564041,-0.13545429706573486,-0.1661338359117508,0.3643185496330261,0.046478867530822754,0.006841385271400213,0.13770797848701477,-0.45183345675468445,-0.28185325860977173,0.12436436861753464,0.10774963349103928,-0.05537448823451996,0.14688265323638916,0.42877376079559326,-0.25563672184944153,0.1548716425895691,-0.1100507602095604,0.22304141521453857,-0.07789979130029678,-0.10147065669298172,0.06622782349586487,-0.0680687427520752,0.42577072978019714,-0.02353958785533905,0.07461374998092651,0.3481956124305725,0.01718168333172798,-0.4715275168418884,-0.26658138632774353,0.07033064216375351,0.08399397879838943,0.04708292335271835,-0.08232787251472473,0.0533495731651783,0.3198821544647217,0.020351922139525414,0.006986373104155064,0.11854221671819687,-0.1551714837551117,0.23904794454574585,-0.13367784023284912,-0.1089513897895813,-0.16786740720272064,-0.016112977638840675,-0.018863415345549583,-0.026706112548708916,0.06654669344425201,-0.01912940852344036,0.03591906279325485,-0.05108291283249855,0.4443252980709076,-0.11496515572071075,-0.1521248072385788,-0.02653578855097294,-0.2664285898208618,-0.13724949955940247,-0.34768882393836975,-0.19036324322223663,0.17371930181980133,0.6468283534049988,0.23855461180210114,0.23718838393688202,-0.1674043834209442,-0.20750658214092255,-0.03247501328587532,-0.09709472954273224,0.27459320425987244,-0.178849995136261,-0.01719854027032852,-0.05795837566256523,0.05028952658176422,-0.15447914600372314,0.10544522851705551,-0.06323636323213577,0.02989981137216091,0.2652175724506378,0.0018812088528648019,-0.019885316491127014,0.37804466485977173,0.013120520859956741,-0.0025433367118239403,-0.05298551544547081,-0.029084065929055214,0.2020483762025833,0.04006210342049599,0.051672641187906265,0.03033512271940708,-0.3115500211715698,0.14659354090690613,-0.06235543265938759,-0.03102937527000904,0.08840802311897278,0.000379575154511258,0.42301374673843384,0.13871850073337555,0.08750995993614197,-0.12696871161460876,-0.05602804943919182,0.05031811073422432,0.02726498246192932,0.12027440220117569,0.05042746663093567,-0.10379178822040558,-0.002278329338878393,-0.11145474761724472,0.06084297597408295,-0.07231703400611877,-0.07408100366592407,0.014583168551325798,0.11006639152765274,-0.0051630232483148575,-0.10872083157300949,-0.0558660663664341,-0.02818741276860237,-0.23216071724891663,0.07549352198839188,0.22178830206394196,0.1136508658528328,-0.43299660086631775,0.21789638698101044,-0.020817486569285393,0.2514633536338806,-0.2742801010608673,-0.9477655291557312,0.3642932176589966,0.09784319251775742,-0.9348939061164856,0.6014168858528137,0.16575570404529572,-0.4966484606266022,-0.13742516934871674,0.322915256023407,-0.05268881469964981,0.24994514882564545,-0.02805473282933235,1.1540416479110718,-0.8486607074737549,-0.10855133086442947,0.10138989984989166,-0.04221909120678902,-0.16351421177387238,-0.2786673307418823,-0.14311404526233673,0.31574806571006775,-0.2544359564781189,-0.05850587785243988,0.011557107791304588,0.0566185899078846,-0.1383579522371292,0.22761626541614532,0.4631692171096802,0.1295323371887207,-0.1628837287425995,-0.5873991847038269,0.09180760383605957,-0.011679640039801598,-0.16946221888065338,0.3774595260620117,0.6707100868225098,0.11460942775011063,0.10000009834766388,-0.06517139077186584,-0.035295743495225906,-0.0008438817458227277,0.07157167047262192,-0.28676530718803406,-0.39465177059173584,0.5922194719314575,-0.11476489901542664,0.06685485690832138,0.10673695802688599,0.010757551528513432,0.6345974802970886,-0.3441600799560547,0.18983203172683716,0.3852447271347046,-0.43195709586143494,0.17364901304244995,0.4591595530509949,-0.04148522764444351,0.4005288779735565,-0.04963715374469757,-0.6314743757247925,0.22995765507221222,-0.7383429408073425,0.24023491144180298,0.06949003785848618,0.09179966151714325,-0.4604710340499878,-0.1561218500137329,-0.2207046002149582,0.9365573525428772,-0.12266071885824203,0.1008039191365242,-0.13913419842720032,-0.12813766300678253,-0.1454533040523529,0.18490879237651825,0.2639904320240021,-0.1997479349374771,-1.0943121910095215,0.4380788207054138,0.05320122465491295,-0.9202437996864319,0.04162540286779404,0.2657729983329773,0.6448975205421448,0.1399468034505844,0.08621141314506531,-0.6954599618911743,0.1755661815404892,-0.02722388319671154,-0.15325017273426056,0.062105000019073486,0.18563023209571838,0.265406996011734,-0.32830557227134705,0.04495414346456528,0.2678934931755066,-0.1050606369972229,0.050849176943302155,0.007481037639081478,-0.0014044909039512277,0.09718009829521179,0.08449017256498337,0.19746087491512299,-0.08815561980009079,-0.21814218163490295,0.35895267128944397,0.2658226788043976,0.011828456073999405,-0.06491408497095108,0.021085867658257484,0.03789202868938446,0.01094724889844656,-0.16617558896541595,-0.31194013357162476,0.3219611644744873,-0.03402895852923393,0.031425680965185165,0.18705858290195465,0.13434945046901703,-0.07724186778068542,0.13723379373550415,-0.12962302565574646,-0.036264970898628235,-0.2401069551706314,-0.14239946007728577,-0.24033671617507935,-0.07629108428955078,-0.15918105840682983,-0.21164235472679138,0.10949687659740448,0.12833824753761292,-0.1486627608537674,0.1284930557012558,-0.04888070747256279,-0.20214593410491943,-0.03232581913471222,0.13318683207035065,0.03991119563579559,-0.017437618225812912,0.2775228023529053,-0.13893042504787445,-0.14923572540283203,0.10926441848278046,0.09992088377475739,-0.16616812348365784,-0.5824487805366516,0.09743713587522507,0.2930973172187805,-0.10421070456504822,0.007809311151504517,0.43086525797843933,0.11553442478179932,-0.1145276352763176,0.3312937319278717,-0.22271066904067993,0.20053407549858093,-0.3106266260147095,0.3256179988384247,0.3757040202617645,0.08188687264919281,-0.014957856386899948,-0.12482773512601852,-0.0205575842410326,0.004751533269882202,-0.08512774109840393,-0.2185838520526886,-0.14952073991298676,-0.01103314571082592,0.06257493048906326,0.35424521565437317,0.16571694612503052,0.03262457996606827,0.018243329599499702,0.5640725493431091,0.24690401554107666,-0.17232070863246918,0.08755867928266525,0.30774426460266113,0.07725600153207779,0.11564746499061584,-0.12346380203962326,9.242721716873348e-05,-0.008975580334663391,0.10665497183799744,-0.10087577253580093,-0.30100205540657043,0.09706729650497437,-0.06955339014530182,-0.29658517241477966,-0.25698336958885193,0.0870148316025734,0.24803054332733154,0.23997989296913147,0.030116669833660126,0.15548576414585114,-0.036492522805929184,-0.14176100492477417,-0.05399102717638016,0.35578954219818115,0.037918571382761,-0.014132204465568066,0.03683837875723839,0.1374339759349823,-0.1423923522233963,0.024347398430109024,0.11277211457490921,0.023466628044843674,-0.018394123762845993,0.1419745832681656,-0.08429337292909622,0.15916278958320618,0.18437941372394562,-0.043760091066360474,0.032198067754507065,0.0038624657317996025,0.07649580389261246,0.05917319282889366,-0.09995664656162262,-0.038736291229724884,-0.444259375333786,-0.31219539046287537,-0.21833710372447968,0.07730764895677567,0.04186305031180382,-0.04809955880045891,0.226419135928154,-0.013257702812552452,-0.08781371265649796,0.02381189540028572,-0.1047784611582756,0.026998644694685936,-0.16118685901165009,0.07040955126285553,0.38304945826530457,0.27448609471321106,0.0049455915577709675,0.010164896957576275,0.6278815269470215,-0.04926072061061859,-0.484519898891449,-0.16512534022331238,0.10349883884191513,-0.06390876322984695,-0.2051330953836441,0.15758174657821655,-0.006166892591863871,-0.3020879328250885,0.08189697563648224,0.5226303935050964,-0.363368421792984,-0.029227692633867264,0.014628845266997814,0.3922041356563568,-0.1445327252149582,-0.17717981338500977,-0.020233847200870514,0.13083797693252563,0.18873003125190735,-0.30699095129966736,0.09596148133277893,0.32013779878616333,-0.09942597150802612,0.14140084385871887,0.1810692697763443,-0.1747298389673233,-0.08254323154687881,0.07784251123666763,-0.10399865359067917,-0.17970071732997894,-0.15728706121444702,0.12505267560482025,0.40255922079086304,0.019015640020370483,-0.21368660032749176,0.04886411130428314,0.2391929030418396,-0.1596168428659439,0.17071181535720825,0.19108638167381287,0.44427311420440674,0.06534242630004883,0.036548223346471786,0.10109930485486984,-0.11987005174160004,0.10154563933610916,-0.2150760293006897,0.0763515904545784,0.12032027542591095,0.10816063731908798,-0.3019787669181824,-0.3463781774044037,-0.14934320747852325,-0.2034248262643814,0.0583590567111969,0.10384730994701385,0.08251361548900604,-0.13116814196109772,0.10433761775493622,0.07078061997890472,0.10208328068256378,-0.1526406854391098,0.1258012354373932,-0.0733526423573494,0.14018215239048004,-0.0910402461886406,-0.18202024698257446,0.09880273789167404,-0.015146576799452305,-0.01972855255007744,0.18640170991420746,-0.1615123599767685,-0.15574300289154053,-0.0849064439535141,-0.019242946058511734,-0.11619120836257935,-0.26683056354522705,0.09401603788137436,0.024128656834363937,0.2680797278881073,-0.11133770644664764,-0.006065710447728634,0.01011668425053358,-0.2885488271713257,-0.12813562154769897,0.15313757956027985,-0.06033475697040558,-0.2816909849643707,0.16811394691467285,-0.09412943571805954,-0.309352308511734,0.4934450685977936,-0.0768766701221466,-0.4387475550174713,-0.032966211438179016,-0.0933675467967987,0.16087809205055237,-0.6747970581054688,-0.0941346287727356,0.5907172560691833,-0.9308486580848694,0.23170502483844757,-0.1241912767291069,-0.3038310110569,-0.40068501234054565,-0.01087130792438984,-0.7385333776473999,0.4355539083480835,0.057713739573955536,1.5524617433547974,-0.45856213569641113,-1.201841950416565,-1.0347391366958618,0.42199593782424927,0.22106197476387024,1.1678358316421509,0.2194729447364807,-0.022820433601737022,-0.7465450167655945,0.35142987966537476,0.08047358691692352,0.6446188688278198,-0.12630006670951843,-0.24812956154346466,-0.3335578441619873,-0.45998647809028625,-0.16757622361183167,-1.4115310907363892,0.3717384338378906,0.24755211174488068,0.196933314204216,0.22241610288619995,0.06642334908246994,-0.975114643573761,0.40292787551879883,0.03892814740538597,0.4162753224372864,0.07369989156723022,-0.08204885572195053,0.03842662647366524,-0.05927693471312523,0.0173674114048481,-0.47588497400283813,0.02711469680070877,0.42441293597221375,0.12377925217151642,0.08969299495220184,-0.21657228469848633,0.07490233331918716,-0.21664796769618988,0.3221529722213745,0.2975601553916931,0.055085573345422745,0.2025783807039261,0.2052156627178192,-0.12126994878053665,0.24636529386043549,-0.2518564760684967,0.27325183153152466,-0.18540766835212708,0.17617139220237732,0.27313804626464844,0.11252609640359879,0.07566216588020325,-0.1073487251996994,-0.5040227770805359,0.13616223633289337,0.02557375654578209,0.05945030227303505,0.30607226490974426,0.0657447874546051,-0.37503859400749207,-0.0954287201166153,0.00808652676641941,0.20377016067504883,0.04427064582705498,-0.009882996790111065,0.8190959692001343,0.08945370465517044,0.019890086725354195,-0.039317332208156586,0.25746890902519226,0.36882284283638,0.08609472960233688,0.20417994260787964,-0.33347323536872864,-0.3708086609840393,0.333650678396225,0.0038836398161947727,0.08633074909448624,-0.09286201000213623,-0.043042708188295364,0.11766156554222107,0.3540380895137787,0.2512187361717224,0.1511494666337967,0.8437159061431885,-1.2423689365386963,0.15511079132556915,0.9501034617424011,-0.16043363511562347,0.24993033707141876,0.5137255787849426,-0.6376442909240723,0.2847479581832886,-0.7977513670921326,0.7338753342628479,-0.29229891300201416,-0.4308777451515198,0.30395010113716125,-0.5483626127243042,0.19887486100196838,-0.6038169860839844,0.23730413615703583,0.036153942346572876,0.459682822227478,-0.6827135682106018,-0.18664610385894775,-0.2654247581958771,-0.02309325709939003,-0.3812834918498993,-0.3237510025501251,0.10398058593273163,0.701686680316925,-0.8458639979362488,-0.34490588307380676,0.6066439151763916,-0.4903945028781891,0.07092051208019257,-0.14628630876541138,0.2734409272670746,-0.5239212512969971,-0.03912553936243057,0.15750128030776978,0.23680005967617035,0.021323172375559807,0.012855819426476955,-0.11306235194206238,0.10679547488689423,0.1749054491519928,-0.16658775508403778,0.022308479994535446,0.17761875689029694,0.2672428786754608,0.07400843501091003,0.1541457623243332,-0.47967424988746643,-0.11303859949111938,0.11732200533151627,0.15145376324653625,-0.04582979530096054,-0.08581796288490295,-0.3256130814552307,0.19441314041614532,-0.16755922138690948,0.12522518634796143,0.0858459398150444,-0.01739543303847313,0.09774185717105865,-0.19151419401168823,-0.08083339035511017,0.018294116482138634,0.19760334491729736,0.1927662491798401,-0.015886979177594185,0.020952947437763214,-0.035733748227357864,0.06870906054973602,0.22619852423667908,0.24739640951156616,0.1821269989013672,0.06801991909742355,0.16910240054130554,-0.011244338937103748,0.011259226128458977,-0.06760786473751068,-0.2746777832508087,0.08465065062046051,-0.07291372120380402,0.1502304971218109,0.08520597219467163,-0.09117668122053146,0.3751464784145355,-0.9600294232368469,-0.26993829011917114,0.09580621868371964,0.16460780799388885,0.00954961497336626,-0.08068408817052841,-0.0025551419239491224,-0.1641436368227005,-0.5879825949668884,0.5446832180023193,-0.545926570892334,-0.040938638150691986,-0.3773229122161865,-1.0209472179412842,-0.2907848358154297,1.0885448455810547,0.1558961719274521,0.023931240662932396,-0.9498224258422852,0.19210754334926605,0.4189358353614807,0.09917081892490387,0.4246012568473816,0.07619862258434296,-0.306959867477417,-0.32372915744781494,0.3167267441749573,-0.0019507656106725335,0.5885946154594421,0.47592324018478394,-0.0327574796974659,0.16404424607753754,0.2941279709339142,0.5966361165046692,-0.0031658057123422623,-0.3140089809894562,0.7343268990516663,-0.20656175911426544,-0.18015511333942413,-0.22906935214996338,-0.5455566048622131,-0.5375373363494873,0.035655900835990906,0.5054025053977966,0.21064472198486328,-0.555964469909668,0.16161245107650757,0.3294096887111664,0.003911851439625025,-0.01914803870022297,0.04564376920461655,0.5815141201019287,-0.30531027913093567,-0.27415481209754944,-0.33384573459625244,0.04154328629374504,-0.038026802241802216,0.08725762367248535,-0.08790247142314911,-0.05353512242436409,-0.5016710758209229,-0.09333846718072891,-0.08455649763345718,-0.03239120543003082,0.035984039306640625,0.1210009753704071,0.14105159044265747,-0.05995022505521774,0.006396818440407515,-0.3675064742565155,-0.04091420769691467,0.20822088420391083,-0.34512773156166077,0.03869738057255745,0.21366748213768005,-0.24527905881404877,-0.10574737191200256,0.07338860630989075,-0.08266162127256393,0.1271810084581375,0.019670147448778152,0.2529570460319519,-0.02663145214319229,-0.028779340907931328,-0.07590219378471375,0.030287710949778557,-0.1284959465265274,-0.22978462278842926,0.15120786428451538,0.15818218886852264,-0.3296360969543457,-0.14258399605751038,0.24014893174171448,0.273495614528656,-0.09567490965127945,-0.14869065582752228,0.05979439243674278,-0.027790552005171776,0.15213581919670105,-0.42540258169174194,0.006934549193829298,0.3930772840976715,-0.01029534824192524,-0.1069231778383255,-0.16669699549674988,0.13814353942871094,-0.2499050498008728,-0.06696075201034546,0.24051842093467712,-0.18453198671340942,0.004182917065918446,0.20618699491024017,-0.06773579865694046,-0.06261317431926727,-0.22827370464801788,0.025075016543269157,0.19826185703277588,0.14212529361248016,0.02686856873333454,-0.008829335682094097,0.3376075029373169,0.029879536479711533,-0.11354032903909683,-0.0015975908609107137,-0.026571666821837425,-0.1607220321893692,0.058175597339868546,-0.09289061278104782,-0.06824395805597305,0.04576297849416733,0.02867441065609455,-0.043935615569353104,-0.03498440980911255,-0.07589934766292572,-0.019609618932008743,0.18676520884037018,0.050222963094711304,-0.04061264917254448,-0.12035047262907028,0.004905549809336662,-0.28551360964775085,0.42295169830322266,0.04475018009543419,-0.03886891156435013,0.12312367558479309,0.2855570614337921,0.3043077886104584,0.05456464737653732,-0.10334743559360504,0.02490750327706337,0.19084733724594116,-0.06902576237916946,0.1384996622800827,0.5548449158668518,-0.15043382346630096,-0.06601288169622421,0.05360018461942673,-0.3093872666358948,-0.24177132546901703,0.25631505250930786,-0.21629951894283295,-0.5027662515640259,-0.306856244802475,0.3770711123943329,-0.11984538286924362,-0.07290500402450562,0.12640875577926636,0.06739997118711472,0.34407132863998413,0.04884042963385582,-0.19841375946998596,-0.005995952058583498,-0.12106402218341827,-0.03885777294635773,-0.00808987021446228,-0.017269017174839973,0.03250623121857643,-0.2012667953968048,-0.12108049541711807,-0.020247919484972954,0.1615302860736847,-0.38990336656570435,-0.2706710398197174,0.5020744800567627,0.12572501599788666,0.2016606479883194,-0.06247814744710922,0.11441455781459808,0.08032829314470291,-0.11441832780838013,0.2442280352115631,0.06069939583539963,0.12370488792657852,0.0637286826968193,0.04880828410387039,0.20975477993488312,-0.08461664617061615,-0.10017825663089752,-0.13418591022491455,-0.14400272071361542,0.11164341121912003,0.10710459202528,-0.06998219341039658,-0.14688685536384583,-0.3528391122817993,-0.23681148886680603,-0.2510263919830322,0.214835986495018,0.07267710566520691,0.3143916428089142,0.10354874283075333,0.21953506767749786,0.09138833731412888,0.022980552166700363,-0.12552253901958466,0.29814019799232483,-0.16871468722820282,-0.04576769471168518,0.0765518918633461,0.030750924721360207,-0.0401880219578743,0.2921634018421173,-0.0207345150411129,0.05472884327173233,0.19270142912864685,0.1679244339466095,-0.052273429930210114,-0.002185908844694495,-0.051115166395902634,0.22857233881950378,0.0711762011051178,-0.24826620519161224,-0.2717795968055725,-0.303424209356308,0.026789937168359756,0.04372663423418999,0.10024091601371765,-0.005059211514890194,0.027215447276830673,-0.035060588270425797,0.037580013275146484,-0.025245405733585358,0.16331984102725983,-0.02876911871135235,0.053924236446619034,-0.025727784261107445,-0.003924598917365074,-0.09720902144908905,-0.03615772724151611,0.015046091750264168,-0.04260183125734329,0.014236273244023323,-0.039965368807315826,0.515212893486023,-0.5358327627182007,-0.2999345362186432,1.281498908996582,-0.08216577023267746,0.3018312156200409,-0.4387364685535431,0.5211210250854492,0.789313554763794,-0.6250362396240234,-0.3760283291339874,-0.7201180458068848,-0.9178524017333984,0.38981884717941284,0.60909503698349,-0.7896057963371277,0.2956677973270416,-0.10035450011491776,-0.05641022324562073,0.09851615130901337,-0.15687282383441925,0.15568062663078308,-0.16621939837932587,-0.0658709928393364,-0.4618614912033081,0.40151575207710266,0.06795728206634521,-0.18369899690151215,0.4483129382133484,-0.3388318121433258,-0.36259007453918457,0.022909512743353844,-0.048561275005340576,0.008205603808164597,-0.08412442356348038,0.07077464461326599,0.4094322621822357,-0.04811827465891838,-0.18890362977981567,-0.07720256596803665,-0.300394743680954,-0.6180465221405029,-0.060355205088853836,0.13363058865070343,-0.10740722715854645,-0.24694931507110596,-0.2357119768857956,0.09955841302871704,0.2038997858762741,-0.03187715634703636,-0.3597499430179596,-0.2403576374053955,-0.535163402557373,0.20005366206169128,-0.11450303345918655,-0.16985787451267242,0.2547311782836914,-0.10867378860712051,0.01747734472155571,-0.11857373267412186,-0.15195044875144958,-0.10524304956197739,-0.1528077870607376,0.2707492411136627,0.07515173405408859,0.11206627637147903,0.19133171439170837,-0.0216072965413332,0.098542220890522,-0.03961955010890961,0.30936020612716675,-0.05842558294534683,0.04192536324262619,-0.25432661175727844,-0.004903619177639484,0.07483560591936111,0.016449833288788795,0.18406416475772858,-0.03478671982884407,-0.20493552088737488,0.4651614725589752,-0.27618926763534546,0.10602980107069016,-0.15847443044185638,0.13837634027004242,0.5471892356872559,0.38568028807640076,0.33504992723464966,-0.03317461535334587,-0.1200789138674736,0.08961740881204605,0.13083824515342712,-0.1917267143726349,0.24949954450130463,-0.2766929566860199,-0.13329900801181793,0.11181287467479706,0.01345423236489296,-0.1389187127351761,-0.05196677893400192,-0.2246866673231125,0.663098931312561,-0.214854896068573,0.06367012858390808,-0.39911508560180664,0.0584842674434185,-0.008007657714188099,0.09681505709886551,1.0264962911605835,-0.438192218542099,0.036051392555236816,0.20223915576934814,-0.026610027998685837,0.05361895263195038,-0.45416396856307983,0.03947877138853073,-0.2164451628923416,0.6491150856018066,-0.13344432413578033,-0.03050081990659237,-0.2858913540840149,-0.27886030077934265,0.2773503363132477,-0.09711504727602005,0.3738315999507904,-0.43969544768333435,-0.04883035272359848,-0.0492970272898674,-0.401191771030426,-0.22297437489032745,-0.5153554081916809,0.027514880523085594,-0.31646642088890076,-0.4518944025039673,-0.29980406165122986,0.9005487561225891,0.12436071038246155,0.07224868983030319,0.038665372878313065,0.13051247596740723,0.3325358033180237,-0.04541616514325142,0.41120049357414246,0.33147794008255005,-0.25345832109451294,0.2674424946308136,-0.06321509182453156,0.1007339358329773,-0.02953704446554184,0.10852287709712982,-0.06660684943199158,-0.2065708190202713,0.16091418266296387,0.02051628567278385,-0.11435946822166443,-0.08915375173091888,0.44273272156715393,-0.13906151056289673,-0.2642292082309723,-0.0022110859863460064,-0.4003288149833679,-0.3183499276638031,-0.11783131957054138,0.39942339062690735,0.20006877183914185,0.1309552937746048,0.17298144102096558,-0.31638652086257935,-0.05774959549307823,0.4893447458744049,-0.33997854590415955,0.3244703412055969,0.3087029457092285,-0.12671983242034912,0.3536498546600342,-0.40715309977531433,-0.21913209557533264,0.18357059359550476,-0.0755566880106926,-0.17339998483657837,-0.01503913477063179,-0.17418377101421356,0.08235463500022888,0.06806416809558868,0.1043199971318245,-0.07005209475755692,-0.486380010843277,-0.11374964565038681,0.49113044142723083,-0.058876387774944305,0.1400548815727234,-0.09610441327095032,0.18121792376041412,0.03679235279560089,0.0871608704328537,-0.5664767026901245,0.24873243272304535,-0.12631241977214813,0.40232762694358826,-0.3018847703933716,-0.26763373613357544,0.07557692378759384,-0.03308006748557091,-0.049776941537857056,0.16371503472328186,-0.2355441302061081,0.08133023977279663,0.06514398753643036,0.09048791229724884,0.6512627005577087,-0.2337820678949356,0.029134906828403473,-0.27274632453918457,0.2699258327484131,-0.24314871430397034,-0.015812929719686508,0.10953966528177261,0.5654578804969788,0.2687934339046478,0.42047950625419617,0.18224570155143738,0.02326376363635063,0.1940588355064392,-0.0004881953354924917,0.3092663288116455,0.020671170204877853,0.10152625292539597,0.006711529567837715,-0.38488224148750305,-0.21361415088176727,0.008231920190155506,-0.2200223207473755,-0.01275442261248827,0.315550833940506,0.3410530686378479,-0.14514894783496857,-0.07039531320333481,0.3011498749256134,-0.34094274044036865,-0.008796516805887222,-0.3426538407802582,0.06294725835323334,-0.2049218863248825,-0.1813914179801941,0.0044484990648925304,-0.182192862033844,0.13117234408855438,-0.022591903805732727,-0.12451358884572983,-0.18573445081710815,0.2641856372356415,0.13392490148544312,-0.18928946554660797,0.1134154200553894,0.20195268094539642,0.3195330500602722,-0.4530453681945801,-0.016785509884357452,-0.046040650457143784,0.5220402479171753,0.1034947857260704,-0.28698626160621643,0.21570880711078644,-0.18897627294063568,-0.4343690872192383,-0.1722882091999054,0.10416796803474426,-9.783343557501212e-05,0.4286052882671356,0.2614329755306244,0.006556142121553421,-0.24463608860969543,-0.0733552873134613,-0.01180180162191391,-0.17221444845199585,0.1259697675704956,-0.12237928807735443,-0.01689082197844982,-0.2424018830060959,0.015937577933073044,-0.039258405566215515,-0.06184626743197441,-0.014913519844412804,0.057433247566223145,-0.04213038831949234,0.08155518770217896,0.060964856296777725,0.05290880799293518,0.21476419270038605,0.08098327368497849,0.08696607500314713,-0.05494898185133934,0.06447620689868927,-0.04396693781018257,-0.6110063791275024,-0.16613662242889404,0.7040106058120728,-0.03119616024196148,-0.02413649670779705,-0.1853913962841034,0.18560843169689178,0.05357766151428223,0.08126617968082428,-0.14974603056907654,0.208951935172081,-0.2368713915348053,-0.12038804590702057,-0.019419683143496513,0.3300018906593323,-0.14390787482261658,-0.11032409965991974,0.4380309581756592,0.2953417897224426,0.05788721889257431,-0.0800311267375946,0.10804442316293716,0.11351661384105682,-0.068973608314991,0.3895142078399658,0.012010188773274422,-0.25291702151298523,0.4597746729850769,0.058150514960289,-0.5171968340873718,-0.09841505438089371,-0.2100856602191925,0.10663425922393799,0.16701139509677887,0.20176711678504944,-0.3134784400463104,-0.12486375123262405,-0.02607148513197899,-0.07489722967147827,-0.23168662190437317,-0.10299772769212723,0.3093664348125458,0.23408107459545135,0.17870396375656128,0.03835981711745262,0.07582072913646698,0.06050564721226692,0.4818309545516968,-0.2966516315937042,0.042360711842775345,0.25456345081329346,-0.29830047488212585,-0.3716191053390503,-0.2549283504486084,-0.10482519865036011,-0.30541911721229553,0.29864993691444397,-0.26597627997398376,-0.4098915457725525,0.45783886313438416,-0.10407739132642746,0.09227102994918823,0.40308067202568054,0.07061167061328888,0.20000161230564117,-0.4586610496044159,0.20514246821403503,0.3166373372077942,-0.19638371467590332,-0.11242924630641937,-0.13558173179626465,0.5682162046432495,0.0810980498790741,0.07444870471954346,-0.12535646557807922,0.2160777598619461,-0.20561976730823517,-0.05780401453375816,-0.09288638830184937,0.21851348876953125,-0.03118789754807949,-0.21223439276218414,0.022063741460442543,0.35226428508758545,-0.07577233761548996,0.0005406152340583503,0.37335827946662903,-0.1760225147008896,0.007309949025511742,-0.3710552752017975,0.454643577337265,0.265713095664978,0.45219627022743225,0.09397788345813751,-0.16939684748649597,0.13737566769123077,0.18060307204723358,-0.06055045127868652,-0.04973188042640686,0.02755632996559143,-0.10630562901496887,-0.0475047305226326,0.1312297135591507,0.24962079524993896,0.453784316778183,0.15730859339237213,0.3544345498085022,0.19736357033252716,0.18648380041122437,0.24317717552185059,0.2949106991291046,-0.2773105204105377,0.16624890267848969,-0.057580556720495224,-0.03370063751935959,0.10013958811759949,0.045117493718862534,0.2602393925189972,-0.02106350287795067,0.5848263502120972,0.027960527688264847,0.22459594905376434,0.24033676087856293,0.2511698603630066,0.11475876718759537,0.16413941979408264,0.16297219693660736,0.05640295520424843,-0.07526853680610657,-0.4211989939212799,-0.11365704238414764,-0.33545389771461487,0.3336651027202606,-0.04177233204245567,-0.10825303941965103,0.23851031064987183,0.3610704839229584,0.15913110971450806,-0.0506192110478878,0.13387538492679596,-0.01247880794107914,-0.05634765326976776,-0.12345906347036362,0.015518673695623875,0.0999026671051979,-0.05453834310173988,0.046619776636362076,0.37379688024520874,0.31390535831451416,0.3578144907951355,0.3684368133544922,-0.16410575807094574,-0.5415120720863342,1.9955806732177734,0.7222288846969604,0.2433241456747055,0.3615192472934723,-0.1376824975013733,-0.17500855028629303,0.2686711549758911,0.11037667840719223,-0.1382872611284256,-0.48130741715431213,0.22620311379432678,0.10335614532232285,-0.6340643763542175,0.3105614185333252,-0.22915291786193848,0.222879558801651,0.16231611371040344,0.19169433414936066,0.3807307183742523,0.2630719542503357,0.09493141621351242,0.1655811071395874,-0.14551354944705963,-0.007322989869862795,0.02741008810698986,-0.28803107142448425,0.1683097779750824,-0.527941107749939,-0.15029950439929962,-0.1378745436668396,-0.720133364200592,0.4552654027938843,0.23524904251098633,-0.345782607793808,0.05244215577840805,0.2288631796836853,0.02514994516968727,-0.2927074432373047,0.3433704078197479,-0.0815008133649826,-0.05168381705880165,0.10385476797819138,0.008450678549706936,-0.048296693712472916,0.1720098853111267,-0.19571559131145477,-0.7521834969520569,-0.2101319134235382,-0.5197885036468506,0.4060744643211365,0.12405750900506973,-0.31271985173225403,0.2751519978046417,-0.004168592393398285,-0.3235399127006531,0.4831242263317108,0.0037446285132318735,-0.14218901097774506,0.24645499885082245,-0.06801629811525345,0.32985252141952515,-0.2962084412574768,0.13605670630931854,-0.1368010938167572,0.0582185797393322,-0.011040454730391502,0.006679000798612833,-0.2137952595949173,0.27918508648872375,-0.20081286132335663,0.10740040987730026,-0.09758976846933365,0.042911116033792496,0.03799908980727196,0.08286403119564056,0.15696921944618225,0.2612769901752472,0.4119979441165924,0.34794294834136963,0.337456077337265,0.10658591240644455,-0.11336202174425125,0.015757251530885696,0.36332857608795166,-0.19697634875774384,0.30235958099365234,0.35640186071395874,0.21290040016174316,0.16540823876857758,-0.22613948583602905,0.15007495880126953,0.23225079476833344,0.11167273670434952,-0.5928896069526672,-0.010742113925516605,0.6627357602119446,-0.4985431134700775,-0.10462769120931625,-0.1870116889476776,-0.2754521071910858,-0.32441237568855286,-0.11331646144390106,-0.6010990142822266,-0.525052547454834,0.007456744555383921,0.17664781212806702,-0.3245168924331665,0.002348139649257064,0.009657416492700577,-0.5465917587280273,0.31037867069244385,0.11603688448667526,-0.16202658414840698,0.11996600776910782,0.0387517586350441,0.07503283768892288,0.1870415210723877,-0.34335851669311523,-0.19539552927017212,-0.306842178106308,0.39377036690711975,0.5049964785575867,0.15715233981609344,0.2045086920261383,0.34187597036361694,0.2164677083492279,0.7263237833976746,-0.4580014944076538,-0.07934057712554932,0.140388622879982,0.23311416804790497,0.01616089977324009,-0.061900343745946884,-0.10605137795209885,-0.5619529485702515,-0.19514596462249756,-0.019116587936878204,0.18201111257076263,0.14249762892723083,0.2368813008069992,0.11688914149999619,0.2719673812389374,-0.05523435026407242,-0.43347790837287903,0.03696618229150772,0.0605233758687973,0.14757058024406433,-0.0029919715598225594,0.04056968167424202,0.04863384738564491,0.15153415501117706,-0.32354679703712463,-0.0764249935746193,0.11973235011100769,0.06805012375116348,-0.28949448466300964,-0.5021428465843201,-0.003657193621620536,-0.15020598471164703,0.0712786465883255,-0.0070341178216040134,-0.07611043751239777,-0.0230921171605587,0.019060887396335602,-0.22850747406482697,-0.32981324195861816,0.013438467867672443,0.003955420106649399,-0.4136449992656708,-0.15599659085273743,0.3570890426635742,0.14255192875862122,-0.1962405890226364,0.16861601173877716,-0.12347982078790665,0.42182376980781555,0.29456955194473267,0.26793166995048523,0.29060450196266174,0.2148629128932953,-0.06275126338005066,0.12645065784454346,-0.2223094254732132,0.249626025557518,-0.05295589566230774,-0.3583046495914459,0.01046994049102068,-0.19303792715072632,-0.2423391491174698,0.12615080177783966,0.1314612179994583,0.3278405964374542,0.35144609212875366,0.4088450074195862,0.09400545060634613,0.3478231132030487,0.5391189455986023,0.06549876928329468,0.40176135301589966,-0.3113816976547241,0.32346054911613464,-0.06129418686032295,-0.08998484164476395,0.3237171173095703,-0.6230812668800354,0.433988094329834,0.9071002006530762,0.025137735530734062,-0.08378337323665619,0.17339618504047394,-0.05669008195400238,-0.019776150584220886,0.20285280048847198,0.12949080765247345,0.05573410913348198,0.05761546641588211,-0.06934307515621185,0.5080975294113159,-0.10108069330453873,-0.2268563061952591,-0.06420831382274628,0.2614942789077759,-0.1439889520406723,-0.15585291385650635,0.2321593463420868,-0.05263597145676613,0.08418186753988266,0.6002803444862366,0.1366058737039566,0.002557640429586172,0.34262481331825256,0.6419580578804016,0.03446325659751892,-0.7297075390815735,-0.10647420585155487,0.07496745884418488,0.15291254222393036,0.42919251322746277,-0.03377395495772362,-0.18155571818351746,0.18791203200817108,0.5934732556343079,1.35350501537323,0.7525325417518616,0.49518391489982605,0.5858396887779236,0.09272072464227676,0.0424996055662632,-0.4505648612976074,-0.2031831443309784,-0.1741878241300583,0.6541654467582703,0.22003217041492462,0.09821787476539612,-0.10455246269702911,-0.25346770882606506,-0.4365823268890381,0.6583240032196045,-0.4709104597568512,0.10918527841567993,0.7133413553237915,0.4297867715358734,0.11980833113193512,-0.08520398288965225,-0.5233210921287537,0.005884793121367693,0.13192659616470337,-0.13264824450016022,0.014348172582685947,0.29190734028816223,-0.3413296639919281,0.25256672501564026,0.2572374641895294,-0.0961359366774559,0.021189311519265175,-0.15447038412094116,0.012104055844247341,-0.05910760909318924,0.13475215435028076,-0.38809677958488464,-0.04779145494103432,0.3746955096721649,0.06774785369634628,-0.09030982851982117,0.012962937355041504,-0.07482141256332397,0.1463145911693573,0.08177421241998672,0.0246021319180727,-0.039164263755083084,0.18438780307769775,-0.06524576991796494,-0.06799373775720596,0.12255282700061798,-0.119227834045887,0.19381654262542725,0.4975249767303467,0.18993902206420898,-0.07308906316757202,-0.17348992824554443,-0.1117682158946991,0.05443715676665306,-0.31685447692871094,0.0025354877579957247,0.016143854707479477,-0.2298421710729599,0.09830909967422485,0.04157289117574692,-0.1403549313545227,-0.28521937131881714,-0.0039289481937885284,0.12927906215190887,0.15430620312690735,-0.24228759109973907,-0.5541992783546448,0.09239824116230011,0.004161870572715998,-0.06888941675424576,-0.09223085641860962,0.2968921959400177,0.09833113849163055,0.16479463875293732,-0.00729403318837285,-0.22544561326503754,-0.34442251920700073,0.10512067377567291,0.09472431987524033,-0.33567339181900024,-0.03897387534379959,0.3017190396785736,0.12531554698944092,-0.04939771071076393,-0.10724268853664398,-0.2635350823402405,-0.10881964862346649,0.12425847351551056,-0.11173819750547409,0.03880271315574646,0.3990958333015442,0.07057591527700424,-0.017670949921011925,0.16292351484298706,-0.22295892238616943,0.05665368214249611,-0.1377677172422409,0.1896362602710724,-0.029152773320674896,-0.32141008973121643,0.21834291517734528,-0.2694731652736664,0.003247046610340476,0.014159069396555424,-0.09938142448663712,-0.08458397537469864,0.13754983246326447,0.01942240260541439,-0.1791982203722,0.05567968264222145,-0.002373803872615099,-0.0004577886138577014,0.11604150384664536,0.024296587333083153,0.010203957557678223,0.08219627290964127,0.1696578711271286,0.11871293932199478,0.28218525648117065,0.27160701155662537,-0.0837930217385292,-0.01976700685918331,-0.11560437828302383,-0.030250845476984978,-0.03473018482327461,0.19357044994831085,-0.06947842240333557,-0.17350205779075623,0.04800553619861603,0.1884995549917221,-0.023484081029891968,0.06676488369703293,0.23759444057941437,0.19147612154483795,-0.08852161467075348,-0.2685490548610687,-0.10185254365205765,-0.21275116503238678,0.5993196964263916,0.023578310385346413,-0.08128348737955093,0.134280726313591,-0.1919996738433838,0.24541781842708588,-0.5052438378334045,0.08839253336191177,0.14780957996845245,-0.12979237735271454,0.04022204875946045,-0.10499560832977295,-0.1361476331949234,0.185370534658432,0.217570960521698,-0.10693784058094025,0.18669281899929047,-0.19156593084335327,-0.08927887678146362,-0.14532218873500824,-0.05475422367453575,0.04997876286506653,-0.0018327479483559728,-0.04302956163883209,0.1138983964920044,0.06197483465075493,-0.01427916157990694,0.3790384829044342,-0.28068530559539795,0.015888871625065804,0.26175880432128906,-0.04796825721859932,0.10170254111289978,0.2656106948852539,-0.09132979065179825,0.10746586322784424,0.0030055164825171232,0.3388859033584595,-0.0016030947444960475,-0.34347185492515564,-0.28663668036460876,-0.23679345846176147,-0.1187087818980217,0.028866620734333992,0.06103409826755524,-0.32695022225379944,-0.3431987166404724,0.011992402374744415,0.2108837515115738,0.4902995824813843,0.08318670094013214,0.08494376391172409,-0.11271917074918747,-0.007795163430273533,0.08879385888576508,-0.16789951920509338,0.08912255614995956,0.2998044788837433,-0.04647242650389671,-0.09828106313943863,-0.3005424737930298,-0.08332686871290207,-0.0492161400616169,0.19831110537052155,-0.5348753333091736,-0.057595908641815186,0.10323431342840195,0.28591620922088623,0.015339282341301441,-0.32565367221832275,-0.3409275412559509,-0.11270612478256226,-0.19573800265789032,0.027111299335956573,0.25982609391212463,0.08311866223812103,0.27465108036994934,-0.09138086438179016,0.35243821144104004,-0.1713859885931015,-0.6786325573921204,-0.1929176151752472,-0.4104729890823364,0.3940404951572418,-0.1919914186000824,-0.22358494997024536,0.18362337350845337,0.25611522793769836,0.04706062003970146,-0.23353977501392365,-0.13277588784694672,-0.4493454396724701,0.4361783564090729,-0.7368024587631226,-0.3542186915874481,-1.1746195554733276,-0.06742189824581146,-1.2743672132492065,-0.6782444715499878,0.012045811861753464,-0.3964717388153076,0.32190370559692383,-0.731984555721283,0.15832297503948212,-0.22357547283172607,-0.1507015824317932,0.19788901507854462,-0.03669193014502525,-0.16725747287273407,0.33802083134651184,-0.11306332796812057,0.06481579691171646,0.3080388903617859,-0.16454638540744781,-0.10913519561290741,-0.38346588611602783,-0.49317559599876404,-0.0708264485001564,0.5140146613121033,-0.21355488896369934,0.17736098170280457,0.021217552945017815,-0.24347253143787384,0.37520095705986023,0.5623952150344849,-0.061787158250808716,0.7293267846107483,-0.10262050479650497,-0.015931546688079834,-0.13034406304359436,0.316358745098114,0.23106148838996887,0.01724477857351303,-0.21219244599342346,-0.04700268432497978,0.24124129116535187,0.02642286755144596,0.1761585921049118,-0.03481944650411606,-0.11830082535743713,-0.1830381155014038,-0.16645318269729614,-0.25859329104423523,-0.17735892534255981,0.054453685879707336,-0.19421236217021942,-0.4030200242996216,0.1805148720741272,-0.0007193594356067479,-0.1957528442144394,0.059349603950977325,-0.11662027984857559,-0.12321407347917557,0.0016412811819463968,-0.22609177231788635,-0.18455882370471954,-0.015772219747304916,-0.13626991212368011,-0.04899172857403755,-0.0288091991096735,0.11683803796768188,-0.055236563086509705,-0.10036251693964005,-0.13299274444580078,-0.1736537218093872,0.14896690845489502,0.24449440836906433,0.2061457335948944,-0.05510660260915756,0.10069173574447632,0.3899317979812622,0.05853450298309326,-0.4242784082889557,0.005004734266549349,0.17968003451824188,0.12101714313030243,-0.07988179475069046,-0.06773217767477036,0.39601388573646545,-0.10104826092720032,-0.13410602509975433,0.16061925888061523,-0.03505426272749901,-0.12171375006437302,0.15973228216171265,0.07686521857976913,0.31422582268714905,-0.13823001086711884,-0.029039010405540466,-0.156822070479393,0.09153161942958832,0.0020886713173240423,0.14352846145629883,0.23909951746463776,-0.1531139463186264,-0.0658327117562294,0.14764857292175293,0.11046621203422546,-0.008247983641922474,-0.13174092769622803,0.3774310052394867,0.07443255931138992,-0.2548160254955292,-0.2008845955133438,-0.1803688406944275,-0.21722474694252014,0.18937812745571136,0.11825297027826309,-0.14383229613304138,-0.3431185185909271,0.05357631668448448,0.022921310737729073,-0.009769179858267307,-0.2667700946331024,0.0483056902885437,-0.4482821822166443,-0.03260412812232971,0.1311933696269989,-0.04624421149492264,-0.23700958490371704,-0.06247324123978615,0.17165924608707428,0.5875623226165771,0.07662192732095718,-0.35135623812675476,0.05736364796757698,0.2612190246582031,-0.0003016430709976703,0.026124408468604088,-0.05859866365790367,-0.1357719600200653,-0.1377427726984024,-0.05694589018821716,-0.058969348669052124,-0.014732060953974724,-0.33557775616645813,0.08700767159461975,0.29617491364479065,-0.0729832723736763,1.2566885948181152,-0.05324443802237511,-0.7000254392623901,0.13973285257816315,0.00621023029088974,0.7557809352874756,-0.08414746820926666,0.17667943239212036,-1.3511580228805542,0.08795525133609772,-0.7891160249710083,-0.23922967910766602,-0.6145983338356018,0.2531540095806122,0.034213609993457794,-0.5052709579467773,0.16236837208271027,0.022515611723065376,-0.16994184255599976,0.15937258303165436,-0.4208211600780487,0.3290652334690094,-0.2773633599281311,-0.2550509572029114,0.13446283340454102,-0.09549545496702194,-0.019129762426018715,-0.24889279901981354,0.21613526344299316,0.1823786348104477,0.3464165925979614,0.35140714049339294,-0.05436965823173523,0.15170283615589142,0.08407261222600937,-0.06598813086748123,-0.4327184855937958,-0.2849595546722412,0.9224111437797546,0.25060132145881653,-0.030436478555202484,0.02031128853559494,0.647887647151947,0.029423274099826813,-0.30701810121536255,0.21801820397377014,0.05468134582042694,-0.23689152300357819,0.6457830667495728,0.3373922109603882,0.06867250055074692,-0.19007371366024017,0.4130047559738159,-0.010667876340448856,0.2389022707939148,-0.015132294967770576,-0.5884175896644592,-0.6977846622467041,-0.005964167881757021,0.12108553200960159,-0.49337711930274963,-0.01065229345113039,-0.33328214287757874,-0.32017144560813904,0.13861317932605743,0.16367588937282562,-0.18578305840492249,-0.14299967885017395,-0.20543184876441956,0.18070141971111298,0.10449572652578354,0.3663254380226135,0.1347026824951172,0.7131025195121765,0.244480699300766,0.008393890224397182,0.22192011773586273,-0.025239119306206703,-0.3440263569355011,0.059649113565683365,-0.11465846002101898,0.3283959627151489,-0.036440085619688034,0.3123813569545746,0.6687572002410889,-0.12177567183971405,-0.10935309529304504,-0.06146690994501114,-0.15078574419021606,-0.2895115613937378,0.013032851740717888,-0.013768140226602554,0.15107540786266327,0.0889405906200409,-0.21458673477172852,0.0660424679517746,-1.0986994504928589,-0.40516719222068787,0.22041380405426025,-0.19665858149528503,0.4070473909378052,0.2102922648191452,-0.5544265508651733,0.301239550113678,0.2956276834011078,-0.6514177918434143,-0.3823368549346924,-0.42229732871055603,0.4960637092590332,-0.09866294264793396,-0.4439489245414734,-0.12341994047164917,-0.2803157567977905,-0.09847332537174225,-0.06771277636289597,0.039846643805503845,-0.4037191867828369,0.04956841468811035,0.3628312945365906,0.019716819748282433,0.5270522236824036,0.00790366530418396,-0.2752980887889862,-0.2184012234210968,-0.1784517467021942,0.33403280377388,0.10896668583154678,0.09387972205877304,-0.23105770349502563,-0.198436439037323,-0.15615789592266083,0.03426198288798332,-0.2435550093650818,-0.3149886727333069,-0.38130277395248413,0.12228073179721832,0.012279471382498741,-0.30423444509506226,0.32671478390693665,0.4461687207221985,0.3045341670513153,0.29080259799957275,0.09358237683773041,0.051527149975299835,-0.29494884610176086,-0.2469855099916458,0.1347549706697464,0.35982778668403625,0.009616907685995102,0.40060675144195557,0.381729394197464,0.24861042201519012,-0.046624280512332916,0.21248884499073029,0.0843774676322937,-0.30149996280670166,0.06493361294269562,0.1174829825758934,0.029977181926369667,-0.30559977889060974,-0.12661133706569672,-0.10540130734443665,0.09030357748270035,-0.19020730257034302,0.24432483315467834,0.3510649800300598,0.07408685982227325,0.12360379844903946,-0.4223526418209076,0.17541909217834473,-0.09655686467885971,0.21659041941165924,0.1916700005531311,-0.300679087638855,-0.20579512417316437,0.10982005298137665,0.12065901607275009,0.0472598597407341,-0.23953615128993988,-0.22428427636623383,-0.09936752170324326,-0.18359945714473724,0.2025611251592636,0.26747098565101624,0.2590009570121765,0.4772952198982239,0.5056076645851135,-0.20042945444583893,0.1917538344860077,-0.23052044212818146,0.037711162120103836,-0.3445318341255188,-0.3999446630477905,0.11882800608873367,-0.13175055384635925,-0.21842393279075623,-0.37193670868873596,0.17108067870140076,0.1399230659008026,-0.04280190169811249,0.030965236946940422,-0.4380466938018799,-0.32440680265426636,-0.24133215844631195,0.49245601892471313,0.33912894129753113,-0.19267894327640533,0.11800763010978699,0.7285147905349731,0.10991977900266647,0.23490293323993683,-0.10487721115350723,0.08296102285385132,-0.11858867853879929,-0.35939425230026245,0.0459265261888504,-0.07685277611017227,0.3119839131832123,0.44504523277282715,-0.0899943858385086,-0.2751398980617523,0.20520907640457153,0.08723936975002289,0.24138213694095612,-0.4409928619861603,-0.2541719079017639,0.3858628571033478,0.02547118440270424,-0.0023786230012774467,-0.18067333102226257,-0.15176157653331757,-0.0548437237739563,-0.244526669383049,-0.784769594669342,-0.8897340297698975,-0.32868391275405884,0.08060214668512344,0.06552515923976898,0.08199481666088104,0.5197106599807739,-0.07023312151432037,0.06489486247301102,0.20357529819011688,-0.014845860190689564,0.059071507304906845,0.08276757597923279,-0.16565115749835968,0.09449663013219833,-0.15367822349071503,-0.19574803113937378,-0.2766363024711609,-0.16656413674354553,-0.09500748664140701,0.024045078083872795,-0.1257481575012207,-0.21108660101890564,-0.43569377064704895,-0.032848358154296875,-0.13624511659145355,-0.013487297110259533,-0.3123380243778229,0.025154152885079384,0.375363826751709,0.06614553928375244,-0.03637915104627609,-0.03887531906366348,-0.6083244681358337,-0.12087815999984741,0.20474125444889069,-0.17325301468372345,-0.13147220015525818,0.043168481439352036,-0.140945702791214,0.061924342066049576,-0.032360199838876724,0.4126157760620117,0.07098301500082016,0.004522278904914856,-0.07739812880754471,0.007760967593640089,-0.3059869110584259,0.2712607979774475,0.21688073873519897,0.4431037902832031,-0.04107717424631119,-0.20239603519439697,0.22340257465839386,0.18472132086753845,-0.026238298043608665,0.03436937928199768,-0.14637704193592072,0.1674395650625229,-0.09126987308263779,0.11409961432218552,-0.2563742697238922,0.05381109565496445,0.40043386816978455,-0.09438960999250412,0.29385459423065186,-0.35766538977622986,0.2315562218427658,0.13107432425022125,-0.3649619519710541,-0.08632545918226242,-0.07612118124961853,-0.49366745352745056,-0.26686760783195496,0.04431258887052536,-0.10939403623342514,-0.10447818040847778,-0.008039944805204868,-0.5373439788818359,0.16260096430778503,0.07382357120513916,-0.3120744526386261,0.006645972840487957,0.14421173930168152,-0.177455335855484,0.29234907031059265,0.08542530238628387,-0.10080673545598984,0.19445686042308807,-0.18048320710659027,-0.2894538342952728,0.20020708441734314,0.18813712894916534,0.4669991433620453,-0.32202571630477905,-0.4719555675983429,0.07184955477714539,-0.032527483999729156,-0.038624659180641174,0.3011051416397095,0.018861331045627594,-0.013012112118303776,-0.4174220561981201,-0.10881054401397705,0.05927414819598198,-0.19519199430942535,-0.15505817532539368,0.20942433178424835,0.2582954466342926,0.1383918970823288,0.04896599054336548,-0.33247777819633484,0.007814365439116955,-0.3350929617881775,1.1672314405441284,-0.06531088054180145,-0.2404508739709854,0.22961001098155975,-0.13724224269390106,-0.034175995737314224,0.11445574462413788,-0.1751297414302826,0.20056729018688202,-0.07089462131261826,0.12162288278341293,0.2732805013656616,-0.33523470163345337,0.09306022524833679,-0.41374102234840393,0.11669804900884628,-0.22518230974674225,0.12475673854351044,0.24453449249267578,-0.4002071022987366,-0.4015890955924988,-0.13054156303405762,0.029180806130170822,-0.0854206457734108,-0.15810802578926086,0.0980779379606247,0.079749196767807,-0.15214446187019348,-0.32451122999191284,0.18763335049152374,0.2558499276638031,0.7592293620109558,0.540723443031311,0.28363773226737976,0.1925276517868042,0.2141331434249878,0.11784428358078003,0.30972224473953247,-0.2861167788505554,0.0062943994998931885,-0.1952025294303894,-0.4727747440338135,-0.07731334120035172,0.9911438226699829,-0.8556715846061707,-0.18017803132534027,0.0683886855840683,0.07207625359296799,-0.02563505433499813,0.10048650950193405,-0.9138730764389038,0.03119799867272377,0.41609323024749756,1.199670672416687,-0.18925632536411285,0.3319545388221741,0.3172607123851776,-0.18504495918750763,0.1863642781972885,0.34450653195381165,-0.14880919456481934,0.0021855165250599384,0.06456003338098526,0.12432415783405304,-0.004889755044132471,0.030332686379551888,0.18151956796646118,0.08293920755386353,0.38152948021888733,0.1427515596151352,0.07849439978599548,-0.3248704969882965,0.4581664800643921,0.16897448897361755,-0.8354443907737732,-0.06581985205411911,1.318577527999878,0.07539733499288559,-0.37288448214530945,-0.47968876361846924,-0.20633958280086517,0.10106732696294785,0.12990401685237885,0.27755022048950195,-0.041177164763212204,0.06881064921617508,-0.01889663003385067,-0.27505162358283997,0.2501021921634674,-0.25332337617874146,0.0065238019451498985,-0.09658268839120865,0.21766945719718933,-0.19164793193340302,-0.030981354415416718,0.19755423069000244,0.2796320617198944,0.11167231947183609,-0.14485713839530945,-0.01267040055245161,-0.05627834051847458,-0.016455186530947685,0.19287647306919098,-0.15608225762844086,0.27141866087913513,-0.10731648653745651,0.1236903965473175,0.05861623212695122,-0.12582483887672424,-0.10017010569572449,0.17456509172916412,-0.2659305930137634,0.21889004111289978,-0.05308389291167259,0.13434161245822906,0.2287585437297821,-0.08495849370956421,0.12565386295318604,-0.05476812273263931,-0.26507800817489624,-0.22440072894096375,0.18839067220687866,0.05902673676609993,-0.25095316767692566,-0.021156061440706253,-0.22284018993377686,0.18792608380317688,0.02272689901292324,-0.36532166600227356,0.06208417937159538,-0.040821198374032974,0.05915069952607155,0.1800723820924759,-0.29281967878341675,0.7708203792572021,-0.30493539571762085,0.15833130478858948,0.314729779958725,0.4251302480697632,0.17779669165611267,0.2364831268787384,-0.09677707403898239,0.29714685678482056,-0.517359733581543,0.20921549201011658,-0.23667873442173004,-1.0407549142837524,0.11673498898744583,-0.5388378500938416,-0.500346302986145,-0.04542940855026245,-0.5580456256866455,0.19549357891082764,0.24622000753879547,0.5747737884521484,0.2943796217441559,0.19857491552829742,0.3574550747871399,0.505944550037384,-0.4731042683124542,-0.04188114032149315,0.4941348433494568,-0.07946666330099106,0.2301303744316101,-0.06082506105303764,0.07205590605735779,-0.018780218437314034,0.39029833674430847,-0.06835322827100754,0.6640343070030212,0.8134711384773254,-0.08926243335008621,-0.9059076905250549,-0.9120405912399292,0.48877331614494324,-0.011010021902620792,-0.04555060341954231,0.222870334982872,-0.25062403082847595,-0.16331596672534943,0.07596123218536377,-0.17478157579898834,0.30134350061416626,0.17655763030052185,0.08180520683526993,-0.05298640578985214,-0.10012785345315933,0.12153633683919907,-0.2905622720718384,-0.1852065473794937,-0.01290165912359953,0.2635573148727417,0.005400987342000008,-0.07205745577812195,0.2898356020450592,-0.10656764358282089,0.140988290309906,0.6541066765785217,-0.024113116785883904,0.25379371643066406,0.43166646361351013,-0.009375518187880516,-0.07960551977157593,-0.07486018538475037,-0.09498264640569687,-0.025749322026968002,-0.2812698185443878,0.0209652166813612,0.1736510545015335,-0.30961844325065613,0.04637131839990616,-0.3181810677051544,-0.02327871136367321,-0.19179405272006989,0.01609976403415203,0.03970349207520485,-0.2686799466609955,-0.2003142237663269,-0.4767310619354248,0.022387614473700523,0.5960177779197693,-0.07427018880844116,0.07529207319021225,0.20401279628276825,-0.24735766649246216,0.20614901185035706,0.05818049609661102,0.3050799071788788,-0.12110137939453125,0.29679036140441895,-0.15158863365650177,-0.4130637049674988,-0.0642990916967392,0.08415097743272781,0.19752290844917297,0.13604146242141724,-0.195780411362648,0.22159932553768158,-0.20950424671173096,0.26416683197021484,-0.14779654145240784,0.11024356633424759,0.2566990256309509,0.016841057687997818,0.014316558837890625,0.20966817438602448,0.29464855790138245,-0.15918760001659393,-0.12060815095901489,-0.010329772718250751,-0.03508094698190689,0.3572095036506653,-0.058237407356500626,0.2737109065055847,-0.1463882178068161,-0.06727471947669983,0.04223420098423958,0.023001864552497864,-0.06768566370010376,0.030529484152793884,0.12071234732866287,0.20265592634677887,0.1772165149450302,0.29397380352020264,-0.5637782216072083,0.18310433626174927,-0.17855408787727356,0.33279308676719666,0.20383621752262115,-0.3134681284427643,-0.21688376367092133,0.010124964639544487,-0.06589039415121078,0.03503956273198128,0.009510043077170849,0.09031558781862259,-0.00793986301869154,0.01973123848438263,-0.4611892104148865,-0.07478668540716171,0.0006029965006746352,-0.4084906578063965,-0.11172007024288177,0.05179484561085701,-0.26724973320961,0.16723646223545074,-0.026019468903541565,-0.11556708067655563,-0.1745469719171524,0.11291392147541046,-0.44483035802841187,-0.13461418449878693,0.1605553925037384,0.5402911901473999,0.038453828543424606,0.09340368211269379,-0.019238747656345367,0.06446006149053574,0.142666295170784,0.8087552785873413,-0.11593538522720337,-0.0691370740532875,0.596648633480072,-0.006350389216095209,-0.07970422506332397,0.2530742585659027,-0.06989630311727524,0.038426950573921204,0.27621009945869446,0.14121009409427643,0.08970317244529724,-0.48904162645339966,0.2888510525226593,-0.29817479848861694,-0.3603648543357849,-0.12527567148208618,0.680653989315033,-0.0823126956820488,0.03488636389374733,0.22397378087043762,-0.3006977140903473,0.04814083129167557,0.09400100260972977,0.3727094531059265,-0.06364396214485168,0.48835745453834534,-0.09425456821918488,0.1834353506565094,0.4882937967777252,-0.307742178440094,-0.10023391246795654,0.572343111038208,-0.39415472745895386,-0.08288737386465073,-0.1479964256286621,0.10432857275009155,-0.07298544049263,0.5073811411857605,-0.07017266750335693,-0.04688604921102524,-0.4794348478317261,0.111447773873806,0.04374570772051811,-0.5007383227348328,-0.2342793345451355,-0.2431868463754654,-0.21380741894245148,0.03277863189578056,0.06856536865234375,-0.34577175974845886,-0.4872519373893738,0.06942688673734665,0.08012204617261887,0.08977904170751572,-0.1445552259683609,-0.32379499077796936,0.05324343219399452,-0.03431788831949234,0.7207378149032593,0.045782674103975296,0.1981808841228485,0.5405970811843872,0.11818490922451019,0.10969659686088562,-0.21166159212589264,0.2734830677509308,0.11989767104387283,-0.01275808084756136,-0.12816350162029266,0.033801257610321045,-0.3827774226665497,-0.05738016963005066,-0.2070075422525406,-0.08716145902872086,-0.013450066559016705,-0.036069002002477646,-0.17064203321933746,0.45275792479515076,0.39489760994911194,-0.4772452712059021,0.32176053524017334,0.10136942565441132,0.12332352250814438,-0.24983489513397217,0.02861000783741474,-0.4149651527404785,0.1286737322807312,-0.1536259651184082,0.18635150790214539,-0.3255757689476013,0.003939652815461159,0.14149338006973267,-0.1781769096851349,0.06533355265855789,-0.19514110684394836,-0.11418042331933975,-0.022477848455309868,-0.6702626943588257,0.023126624524593353,0.15073555707931519,-0.07101823389530182,0.13574287295341492,0.10502956062555313,0.2399870604276657,-0.20026527345180511,0.061787258833646774,-0.20231638848781586,0.08508072048425674,0.21265065670013428,-0.17576530575752258,0.12113401293754578,-0.08490730822086334,0.24239316582679749,0.18633072078227997,0.3208836317062378,-0.06237103044986725,-0.18249927461147308,-0.22027547657489777,0.029386799782514572,-0.0883212685585022,-0.07382268458604813,-0.03779646381735802,0.5295161604881287,-0.24110038578510284,0.038005318492650986,0.3295994699001312,0.23687666654586792,0.1046484038233757,0.23353466391563416,-0.15144722163677216,-0.0181399118155241,-0.23713251948356628,0.4656422436237335,0.004352959804236889,-0.8112015724182129,-0.014540943317115307,-0.4035760462284088,-0.27237817645072937,-0.020930185914039612,-0.3710714876651764,0.5216473937034607,-0.21026946604251862,0.069556824862957,-0.04290452599525452,-0.02105623669922352,0.22222447395324707,-0.09854388236999512,-0.1558074802160263,-0.10083594173192978,0.16848351061344147,-0.15051861107349396,0.15608881413936615,-0.21301163733005524,-0.21444055438041687,-0.25824958086013794,0.20151850581169128,0.22344666719436646,0.2260475754737854,0.4878212511539459,-0.1413964033126831,-0.5862595438957214,-0.5456073880195618,-0.013170205056667328,0.44150885939598083,0.3398453891277313,0.2781473398208618,0.13560277223587036,-0.26248764991760254,0.07101649045944214,0.11148559302091599,0.043155524879693985,-0.7787683606147766,-0.1183571070432663,0.47006264328956604,-0.433772474527359,0.200383722782135,-0.18008674681186676,-0.23416130244731903,-0.1632714420557022,0.11107848584651947,-0.04696856811642647,-0.20247970521450043,0.3233625590801239,0.8504303693771362,0.24336491525173187,0.3494459390640259,0.08620412647724152,0.24371680617332458,0.15926672518253326,-0.2437973916530609,-0.1295763999223709,-0.20039254426956177,0.14403674006462097,-0.34022021293640137,-0.047385841608047485,-0.2231074869632721,-0.08434385806322098,-0.02123321406543255,-0.7226779460906982,-0.32943195104599,-0.02566644363105297,0.044850751757621765,-0.03912500664591789,0.22676382958889008,-0.23515699803829193,-0.37995922565460205,-0.33355024456977844,-0.16400611400604248,0.45441171526908875,0.2084454596042633,0.8320867419242859,-0.14545471966266632,0.0005932647618465126,-0.08207452297210693,0.2094157636165619,-0.023548318073153496,0.14433638751506805,-0.006467187311500311,0.31680354475975037,0.19849924743175507,-0.03569384291768074,0.11975673586130142,-0.010667514055967331,0.15168496966362,0.14102819561958313,-0.3851442337036133,0.06292196363210678,0.3188018202781677,0.35449886322021484,-0.21601291000843048,0.10112211108207703,0.2660138010978699,-0.01836802251636982,-0.15752533078193665,0.43532872200012207,0.12005966901779175,0.16636575758457184,0.3195188045501709,-0.12755218148231506,0.11727247387170792,0.5585049986839294,0.31561994552612305,-0.18922501802444458,0.1798046976327896,-0.20287831127643585,-0.033028218895196915,-0.117631696164608,-0.05246669426560402,-0.07380115240812302,0.26487401127815247,-0.13186419010162354,-0.30372729897499084,0.3244834244251251,0.25631216168403625,0.004510160535573959,-0.32322245836257935,0.18432997167110443,0.22284382581710815,0.3196701407432556,-0.0811011865735054,0.19287262856960297,-0.057666145265102386,-0.19815154373645782,0.03140147030353546,0.19257041811943054,-0.04093582555651665,-0.04691055044531822,-0.0820690244436264,-0.015407780185341835,0.2427072525024414,-0.27047938108444214,0.0663476288318634,-0.25776156783103943,0.19128131866455078,-0.17208267748355865,-0.25227847695350647,0.19765809178352356,-0.24402977526187897,-0.14264971017837524,-0.24164879322052002,0.0057536824606359005,-0.051159847527742386,0.11970558762550354,-0.13633859157562256,-0.2854350507259369,-0.058577585965394974,-0.013838067650794983,0.12760081887245178,0.265078604221344,0.2574390769004822,0.23439088463783264,-0.29083967208862305,0.07244764268398285,0.07520406693220139,0.3293408155441284,-0.07509376108646393,0.12649241089820862,0.07239225506782532,0.1043037697672844,-0.4965779781341553,-0.09769387543201447,0.26453062891960144,0.09827927500009537,0.18850935995578766,-0.11995789408683777,-0.24688827991485596,0.6108748912811279,0.1755274087190628,-0.08114370703697205,0.04021254554390907,-0.15181955695152283,0.09455320239067078,0.18789547681808472,0.15438717603683472,-0.01349632441997528,0.02073199488222599,-0.2267245501279831,0.13169525563716888,0.10446528345346451,0.1539153754711151,-0.15740060806274414,-0.004636150319129229,-0.08066076785326004,-0.22266165912151337,0.04863383248448372,-0.38425952196121216,0.24693335592746735,0.1911097913980484,0.08605284243822098,0.09785064309835434,0.035455845296382904,-0.10883006453514099,-0.08387304842472076,-0.012838775292038918,0.07181286811828613,0.19686153531074524,-0.17598789930343628,-0.10800304263830185,0.14843136072158813,-0.1644207239151001,-0.07481525838375092,0.2867293059825897,0.15554822981357574,-0.12928758561611176,0.04399007931351662,0.18108534812927246,-0.06959450244903564,0.09638095647096634,0.07962016761302948,-0.32263538241386414,-0.1451818197965622,0.17144471406936646,0.019683348014950752,0.10955410450696945,-0.05265716835856438,0.0860198587179184,-0.01656145229935646,0.09475637972354889,-0.00426059402525425,-0.024541040882468224,-0.024124689400196075,-0.17478705942630768,0.3496262729167938,-0.29040291905403137,0.12593798339366913,-0.12977701425552368,0.10552888363599777,0.19193293154239655,-0.0008538796100765467,-0.17345331609249115,0.16097944974899292,-0.18747574090957642,-0.15832842886447906,0.09657492488622665,-0.4749131500720978,0.11037318408489227,0.1530083268880844,0.06675855070352554,-0.06190367043018341,0.13783682882785797,-0.11641331762075424,-0.12908023595809937,0.17562749981880188,-0.19100117683410645,-0.13785378634929657,0.23096217215061188,-0.2077663391828537,0.27052590250968933,0.1726391613483429,-0.026276594027876854,-0.3016856610774994,-0.22685348987579346,0.01174974162131548,0.054643623530864716,0.1432468742132187,-0.44517624378204346,-0.03790625184774399,0.26094743609428406,-0.4274783432483673,-0.20243456959724426,0.2598018944263458,0.5665151476860046,-0.12378609925508499,0.11283104121685028,0.09783095121383667,0.21520034968852997,-0.015632998198270798,0.17070108652114868,-0.26339781284332275,0.05440400168299675,0.7201821804046631,-0.07112114131450653,-0.08548521995544434,-0.2297736257314682,-0.030419303104281425,-0.23577651381492615,0.023497631773352623,-0.0696219950914383,-0.3896488845348358,0.3743634521961212,-0.10520835965871811,0.07726156711578369,0.10966191440820694,-0.0007983727846294641,-0.027721036225557327,0.036644142121076584,-0.304051011800766,-0.5739397406578064,-0.039324648678302765,0.06804589927196503,0.49181684851646423,-0.5811984539031982,0.6510908007621765,0.018353475257754326,0.2734489440917969,-0.6408549547195435,-0.9881616830825806,-0.22218573093414307,-0.7026568651199341,0.49246737360954285,0.540332019329071,-0.05219026654958725,-0.2019188553094864,0.5081379413604736,0.17733362317085266,0.3324260115623474,0.266324520111084,0.15743309259414673,0.36823758482933044,0.23747926950454712,0.27118512988090515,0.3104678690433502,-0.39192214608192444,0.20038077235221863,0.338299423456192,-0.02554386667907238,0.1953333467245102,0.16291025280952454,-0.15496458113193512,0.08766244351863861,-0.08061794191598892,-0.038741301745176315,0.2790418267250061,-0.12692086398601532,0.5042147636413574,0.1762969046831131,-0.28838956356048584,0.36521804332733154,-0.13747437298297882,-0.1617310792207718,0.005281009245663881,0.45612218976020813,0.34392884373664856,0.6159566640853882,-0.20625421404838562,-0.42015790939331055,0.45788872241973877,-0.3431045114994049,-0.46982648968696594,-0.2784232795238495,-0.3064759373664856,-0.19470664858818054,0.04082504287362099,-0.01940545253455639,0.0420461967587471,0.23765210807323456,0.19003264605998993,-0.8053781986236572,-0.15314139425754547,-0.21510282158851624,-0.3144872188568115,-0.21783936023712158,-0.24692977964878082,-0.04162197187542915,-0.08349737524986267,0.15701818466186523,0.0678962916135788,0.11820916831493378,-0.019444340839982033,-0.1650613695383072,0.15585869550704956,-0.4528571367263794,-0.08618183434009552,-0.08537153154611588,0.10102231055498123,0.07423575222492218,-0.043811898678541183,-0.010169566608965397,-0.18556825816631317,-0.3380676507949829,-0.2876903712749481,0.31804245710372925,-0.18241778016090393,0.1649525910615921,0.5117931962013245,0.03972776234149933,0.11983312666416168,0.2817751169204712,0.28819307684898376,-0.3053032457828522,0.0963379293680191,-0.5033201575279236,-0.12305346131324768,-0.3256310522556305,-0.42822325229644775,-0.16282546520233154,-0.4045335352420807,-0.30031296610832214,-0.39280790090560913,-0.3709304928779602,-0.078416608273983,-0.07618159800767899,-0.007891740649938583,-0.1006363034248352,-0.1858411729335785,-0.1707775741815567,0.13737908005714417,0.07129570841789246,0.35182619094848633,0.08251187950372696,-0.3606845438480377,-0.13794434070587158,-0.1175941675901413,-0.23226520419120789,0.2597155272960663,0.08570267260074615,0.048238251358270645,-0.3158886730670929,-0.1916460245847702,-0.40923747420310974,0.1778877079486847,-0.4918476939201355,-0.03668177127838135,0.39977091550827026,-0.11038075387477875,-0.030015578493475914,0.30811870098114014,0.15254347026348114,0.21681059896945953,0.1958349347114563,-0.007247124332934618,-0.1578882932662964,0.17399916052818298,0.04246068000793457,0.07020433247089386,0.4094667136669159,-0.9579616785049438,0.4037102460861206,-0.6802040934562683,0.16867583990097046,0.17714299261569977,0.16392916440963745,-0.2948841154575348,0.20555005967617035,-0.05184344947338104,-0.3183917999267578,0.17689110338687897,-0.20571991801261902,-0.04078174754977226,0.2757844626903534,-0.4112362563610077,0.2238381952047348,-0.049876295030117035,1.2747278213500977,0.2502766251564026,-0.10074130445718765,-0.24080538749694824,-0.0698171928524971,0.014225197955965996,-0.1500607281923294,-0.20044919848442078,0.12937895953655243,0.10763252526521683,-0.20201075077056885,-0.02218307927250862,-0.018966292962431908,0.01894455775618553,0.22736771404743195,-0.2136465609073639,0.47828415036201477,0.8081068992614746,-0.5563176870346069,0.02536824345588684,-0.43990758061408997,-0.18167932331562042,-0.00012254809553269297,-0.2626539170742035,-0.20565350353717804,-0.09081697463989258,-0.19596542418003082,0.3303198516368866,0.11845161765813828,-0.11488305777311325,-0.2253577560186386,-0.058930329978466034,0.0033565000630915165,0.03730038180947304,-0.07083036750555038,-0.16971832513809204,0.18472957611083984,0.37050947546958923,-0.06741651147603989,-0.3554511070251465,0.21385402977466583,-0.04626601189374924,0.07708137482404709,-0.2020721733570099,-0.4601823687553406,-0.5185564756393433,-0.008346195332705975,-0.17575806379318237,-0.2985355854034424,0.30035045742988586,0.49707868695259094,0.24193371832370758,-0.08377903699874878,0.24846769869327545,0.2842053771018982,-0.051708053797483444,-0.4760327637195587,-0.3898318111896515,0.046587876975536346,-0.09038477391004562,0.025347376242280006,-0.3543204665184021,0.18976575136184692,-0.3682194948196411,0.2553245425224304,0.5020500421524048,-0.29429540038108826,0.03958239406347275,-0.2724905014038086,-0.24293997883796692,0.3260748088359833,0.41271716356277466,0.21124324202537537,-0.25809869170188904,0.014454915188252926,-0.19458509981632233,-0.15723185241222382,0.41958123445510864,-0.18184968829154968,-0.14094090461730957,0.9374865889549255,-0.21306873857975006,-0.32200416922569275,0.11831221729516983,0.1579153686761856,-0.02882823348045349,0.13854332268238068,-0.3748398721218109,0.1634972095489502,-0.18806736171245575,-0.0403003990650177,0.5029722452163696,-0.17641223967075348,0.14449262619018555,-0.33315733075141907,-0.296257346868515,-0.4070809781551361,0.006935225799679756,-0.10707607120275497,0.0831335037946701,-0.24792076647281647,-0.45901116728782654,-0.02575136348605156,0.15129190683364868,0.39466020464897156,0.1559538096189499,0.1597212553024292,0.15731896460056305,-0.12377551943063736,-0.016182564198970795,0.03174145892262459,-0.5848798751831055,0.6506733894348145,0.47855255007743835,0.3040778636932373,-0.22615617513656616,0.015086826868355274,0.07002314925193787,0.18957242369651794,-0.07218753546476364,-0.24365662038326263,0.27624115347862244,-0.4454752206802368,0.16692957282066345,0.08135189861059189,0.45582908391952515,-0.43113964796066284,0.04451388493180275,0.3124125301837921,0.21242938935756683,-0.1296321451663971,-0.01635509915649891,-0.7491266131401062,0.33000898361206055,-0.01570703275501728,0.3485160171985626,-0.16991926729679108,-0.3237624764442444,0.5063439011573792,-0.07845751941204071,0.38906389474868774,0.18943201005458832,-0.06511124968528748,-0.15698911249637604,-0.45321083068847656,0.12912145256996155,0.2339535355567932,0.5414746403694153,-0.10901127010583878,-0.26781418919563293,-0.19746503233909607,-0.03265569359064102,-0.14092515408992767,0.06790947914123535,-0.07418562471866608,-0.5146624445915222,-0.030536599457263947,0.2101537138223648,0.500281572341919,-0.48223865032196045,0.013015374541282654,-0.13159990310668945,0.7635628581047058,-0.11804210394620895,-0.3548040986061096,0.10645689815282822,0.020079202950000763,-1.0255447626113892,0.7202025651931763,-0.09962388873100281,-0.05087035521864891,0.26846399903297424,0.23033541440963745,-0.11829198151826859,-0.5833491683006287,0.19814813137054443,0.3425714373588562,0.31705641746520996,0.045197855681180954,0.06632453948259354,0.05712181329727173,-0.244568333029747,0.0034733947832137346,-0.008879355154931545,0.18435876071453094,-0.058736126869916916,-0.11945385485887527,-0.06917525827884674,-0.10207025706768036,-0.010754380375146866,-0.07011028379201889,-0.085735984146595,-0.09006030112504959,-0.0020640138536691666,-0.18864673376083374,-0.013550433330237865,0.08657239377498627,0.02158421277999878,-0.03317781910300255,-0.07923782616853714,0.03571237623691559,-0.25385552644729614,0.03891009837388992,0.0015011323848739266,0.09652108699083328,-0.08367840945720673,-0.48534607887268066,-0.06744730472564697,-0.116683728992939,0.28120359778404236,0.039733339101076126,0.014827835373580456,0.3729783892631531,0.005084807053208351,0.13392521440982819,0.1870759278535843,0.2915900945663452,0.05418764799833298,0.16652819514274597,0.065524622797966,-0.21661581099033356,0.8667662739753723,0.1870434284210205,0.09355103224515915,-0.01384725235402584,0.06131162866950035,-0.2950526773929596,0.17043112218379974,0.1062503457069397,-0.022275028750300407,0.3150198757648468,0.10615607351064682,-0.1813066005706787,0.3592132031917572,-0.2077653855085373,0.14894601702690125,0.028707602992653847,-0.2248959243297577,-0.10108858346939087,0.07315725088119507,0.05384453386068344,-0.054885365068912506,0.017483698204159737,-0.13047060370445251,0.33515554666519165,-0.08975853025913239,-0.01753811724483967,-0.04022063687443733,0.43828290700912476,-0.18666012585163116,0.17840999364852905,-0.33118659257888794,0.024739045649766922,0.029114574193954468,0.04285573959350586,0.015209785662591457,-0.05869032442569733,0.30645325779914856,-0.2639884054660797,-0.327400267124176,-0.01841973513364792,-0.022858237847685814,-0.08519182354211807,0.08434963971376419,-0.21747641265392303,0.006924132350832224,-0.20643925666809082,-0.16022934019565582,0.33829572796821594,-0.17918190360069275,0.18798239529132843,0.19693772494792938,0.17541062831878662,0.09999382495880127,0.051875609904527664,0.40985727310180664,-0.17179034650325775,-0.11416751146316528,-0.039255619049072266,-0.2546984553337097,0.06250470131635666,0.31091928482055664,-0.24262511730194092,0.01695847138762474,0.45916152000427246,0.07388979941606522,-0.048776496201753616,0.12058156728744507,0.35083919763565063,-0.027444209903478622,0.04527938738465309,-0.11109049618244171,-0.006425901781767607,-0.42866092920303345,0.20439448952674866,-0.057200003415346146,0.378235399723053,-0.09854423254728317,0.053828731179237366,-0.10945886373519897,0.32813265919685364,-0.0800151452422142,0.059748560190200806,-0.2303638607263565,-0.011837620288133621,-0.21309128403663635,0.1408359706401825,-0.045355528593063354,0.45905885100364685,-0.27676787972450256,-0.1076962873339653,0.16621357202529907,0.20648056268692017,-0.011515380814671516,-0.01730857416987419,0.06578405946493149,-0.00886622816324234,-0.016379792243242264,-0.4722999036312103,0.021627267822623253,-0.14378371834754944,0.0029034537728875875,-0.08628058433532715,0.0942256897687912,-0.04619557410478592,0.0573020838201046,-0.04005527123808861,0.3614080846309662,0.03728353977203369,0.263637900352478,-0.19222751259803772,-0.18834900856018066,-0.2654656767845154,-0.16497847437858582,-0.09263138473033905,-0.05848677456378937,-0.002961882157251239,-0.033465009182691574,-0.1457165628671646,-0.24995404481887817,-0.0015508473152294755,-0.10056273639202118,-0.21429182589054108,-0.0049562156200408936,0.1733391284942627,0.3267853260040283,-0.11503059417009354,-0.172160804271698,0.30017197132110596,-0.05772492289543152,0.12122087925672531,-0.10037167370319366,0.021549077704548836,-0.1206263080239296,0.06480418145656586,-0.04441630840301514,0.0862528383731842,0.047724634408950806,-0.0011649965308606625,0.3384283483028412,-0.47382044792175293,-0.12242423743009567,-0.31811001896858215,0.13895320892333984,0.01693064533174038,-0.1732403039932251,0.1104007363319397,0.06596305221319199,-0.09574119001626968,-0.1297854334115982,0.1410539448261261,0.0563582144677639,-0.5170360207557678,-0.1655392348766327,-0.07221798598766327,0.04141043871641159,0.09129343926906586,0.17884069681167603,-0.23789054155349731,0.13593299686908722,-0.09076088666915894,0.3477235436439514,0.01536315493285656,-0.06820306926965714,-0.3740042448043823,0.05486241355538368,-0.027737053111195564,-0.05608092620968819,0.04969882220029831,0.38664963841438293,0.14482368528842926,0.014621425420045853,-0.17904190719127655,0.3178209662437439,-0.001106557436287403,0.09934909641742706,0.1282954066991806,0.024858463555574417,-0.12056534737348557,0.06681513041257858,-0.18151868879795074,-0.05034680664539337,-0.01179026160389185,-0.0006885703769512475,-0.5244548320770264,-0.16663436591625214,0.23140700161457062,0.13863466680049896,-0.07711455971002579,0.05953868106007576,-0.11372488737106323,-0.22571878135204315,-0.10767392069101334,-0.1366788148880005,0.30520012974739075,0.0358077809214592,-0.08508914709091187,-0.032023124396800995,-0.14525356888771057,0.14421993494033813,0.1490788757801056,0.05419851094484329,-0.15657788515090942,0.04261377453804016,-0.14194723963737488,-0.025408098474144936,0.051392510533332825,0.11304400116205215,0.41797593235969543,0.06817252933979034,-0.05040793865919113,-0.3683125674724579,-0.2058563381433487,-0.05113980919122696,0.09263990074396133,0.1344197541475296,-0.07412674278020859,-0.5104347467422485,-0.06775978207588196,0.038816358894109726,-0.46137353777885437,-0.11655120551586151,-0.012747128494083881,-0.15771885216236115,0.1089748963713646,0.19880647957324982,0.23157177865505219,0.04017437621951103,-0.017663341015577316,0.1199139803647995,-0.18122974038124084,0.01110568456351757,-0.09122689813375473,0.015432377345860004,0.08012484014034271,-0.7329328656196594,0.19639615714550018,-0.03097008913755417,0.00598429748788476,0.2703072726726532,0.1123570054769516,0.11958324164152145,0.15322351455688477,-0.022517047822475433,0.07575099170207977,0.11517305672168732,-0.006239318288862705,-0.026468448340892792,-0.19140087068080902,0.09796865284442902,0.027668455615639687,-0.22905448079109192,-0.14991708099842072,-0.24448035657405853,0.18857954442501068,0.13868822157382965,0.17064210772514343,0.09805402159690857,0.06449420005083084,-0.07311596721410751,0.1971287876367569,0.18158505856990814,-0.1098349541425705,0.16552220284938812,-0.1381656527519226,0.007878558710217476,0.006442774087190628,0.10440646857023239,0.08263782411813736,0.23286664485931396,0.036975372582674026,-0.017507033422589302,-0.3865157663822174,0.12181780487298965,0.1725991815328598,0.005255577154457569,-0.12067542970180511,0.19323396682739258,-0.06272183358669281,-0.07220759987831116,0.047537755221128464,0.22254012525081635,-0.030694492161273956,-0.38539502024650574,0.12702606618404388,-0.05434572696685791,0.15552808344364166,-0.26868441700935364,0.12090598046779633,-0.1064932644367218,0.23168063163757324,0.22986222803592682,0.06725428998470306,0.2954469919204712,-0.07936608046293259,-0.02570463716983795,-0.25787729024887085,-0.0030560961458832026,0.13738693296909332,-0.0911855399608612,-0.07589565962553024,-0.012606299482285976,0.12905940413475037,-0.1820458471775055,0.17223288118839264,0.02185674197971821,-0.08732736855745316,0.02612420916557312,-0.20308656990528107,0.045608703047037125,0.17159080505371094,-0.48898598551750183,0.028813572600483894,-0.3295375108718872,0.06242544576525688,-0.02785305492579937,0.011329993605613708,-0.023534296080470085,-0.058562759310007095,0.056184086948633194,-0.10087219625711441,0.05060139670968056,-0.024505604058504105,-0.23153719305992126,-0.07729513943195343,-0.12666624784469604,0.11246851831674576,-0.15309761464595795,0.10615893453359604,-0.0005492882919497788,0.12519170343875885,0.03796813264489174,0.14050675928592682,-0.12792378664016724,-0.11878594011068344,-0.11367948353290558,0.002999603748321533,0.013852479867637157,-0.010746847838163376,0.10780105739831924,0.15889929234981537,-0.3307510316371918,-0.1599937081336975,-0.16803456842899323,0.34898442029953003,0.1832280457019806,0.4087880849838257,-0.3820006847381592,-0.19472035765647888,0.00791947916150093,0.2533845007419586,0.12813885509967804,0.0804111659526825,-0.13584473729133606,0.21307161450386047,-0.07069860398769379,0.38470515608787537,0.06710676848888397,0.12594275176525116,0.05547911301255226,-0.12730659544467926,0.5819302201271057,-0.1587187647819519,0.1851368546485901,-0.4072861671447754,0.16054727137088776,0.05580059811472893,0.29560473561286926,-0.04842853173613548,0.06413283944129944,-0.057905085384845734,-0.3306054174900055,-0.11208482086658478,-0.007491846568882465,0.10263901203870773,0.13237090408802032,-0.5472123622894287,-0.09830353409051895,0.12647929787635803,-0.11110109090805054,0.17057795822620392,-0.025997107848525047,0.20861685276031494,0.07373812794685364,0.17238372564315796,0.1691971868276596,0.31565234065055847,0.023698126897215843,-0.2718312442302704,-0.2775347828865051,0.0640481635928154,0.06512102484703064,-0.3487410247325897,0.013051423244178295,-0.03402682766318321,0.33055195212364197,0.001977083971723914,-0.26938340067863464,0.33436906337738037,0.1929522454738617,0.2670288383960724,0.0948171317577362,0.04972509294748306,0.13530923426151276,0.04549141600728035,-0.028283674269914627,0.01963001862168312,-0.4644210636615753,-0.09494438022375107,-0.22678236663341522,0.1958809345960617,0.006719581782817841,-0.03558735549449921,0.15495380759239197,0.032583218067884445,0.001035076566040516,0.3040904104709625,0.19633860886096954,0.08222634345293045,0.6197723746299744,0.025819988921284676,0.1440659761428833,-0.5381388664245605,0.15542064607143402,-0.11651526391506195,-0.002075780415907502,0.058750081807374954,-0.16007256507873535,0.13485151529312134,0.15040451288223267,-0.10257825255393982,0.09027521312236786,-0.08107952773571014,-0.06002529710531235,0.08067566901445389,-0.23386619985103607,0.07633963227272034,-0.1514125019311905,-0.08130025118589401,0.03708234056830406,-0.4249189496040344,-0.0692887082695961,0.11573728173971176,-0.07703765481710434,0.07083726674318314,0.006102214567363262,0.014488417655229568,-0.3520760238170624,-0.08559974282979965,-0.029272735118865967,-0.02901562489569187,-0.34883034229278564,0.08516033738851547,-0.11659298837184906,0.3072563707828522,-0.15321354568004608,0.09217988699674606,-0.0026213820092380047,0.05773917958140373,0.08238179236650467,-0.5749551653862,0.16807569563388824,-0.11245761811733246,0.0852460041642189,-0.2012322098016739,-0.004919369239360094,-0.45863646268844604,0.08128286898136139,0.060669150203466415,0.21488715708255768,0.021747993305325508,0.04197542369365692,0.1148047000169754,0.5008942484855652,-0.02560148388147354,0.19908711314201355,-0.2004404067993164,0.0013676064554601908,0.058353446424007416,-0.12868726253509521,-0.20505645871162415,0.36803966760635376,-0.059144772589206696,-0.10907212644815445,-0.23444503545761108,0.540351390838623,-0.0033204867504537106,0.09299644082784653,-0.10706566274166107,0.016946738585829735,-0.02263510227203369,-0.06716004014015198,-0.11212064325809479,0.009329567663371563,-0.027008917182683945,0.060783419758081436,-0.04843537509441376,-0.005832251161336899,-0.19982324540615082,-0.20275726914405823,-0.15262152254581451,0.12829267978668213,